{"learner":{"attributes":{"scikit_learn":"{\"_estimator_type\": \"classifier\"}"},"feature_names":[],"feature_types":[],"gradient_booster":{"model":{"gbtree_model_param":{"num_parallel_tree":"1","num_trees":"540"},"iteration_indptr":[0,3,6,9,12,15,18,21,24,27,30,33,36,39,42,45,48,51,54,57,60,63,66,69,72,75,78,81,84,87,90,93,96,99,102,105,108,111,114,117,120,123,126,129,132,135,138,141,144,147,150,153,156,159,162,165,168,171,174,177,180,183,186,189,192,195,198,201,204,207,210,213,216,219,222,225,228,231,234,237,240,243,246,249,252,255,258,261,264,267,270,273,276,279,282,285,288,291,294,297,300,303,306,309,312,315,318,321,324,327,330,333,336,339,342,345,348,351,354,357,360,363,366,369,372,375,378,381,384,387,390,393,396,399,402,405,408,411,414,417,420,423,426,429,432,435,438,441,444,447,450,453,456,459,462,465,468,471,474,477,480,483,486,489,492,495,498,501,504,507,510,513,516,519,522,525,528,531,534,537,540],"tree_info":[0,1,2,0,1,2,0,1,2,0,1,2,0,1,2,0,1,2,0,1,2,0,1,2,0,1,2,0,1,2,0,1,2,0,1,2,0,1,2,0,1,2,0,1,2,0,1,2,0,1,2,0,1,2,0,1,2,0,1,2,0,1,2,0,1,2,0,1,2,0,1,2,0,1,2,0,1,2,0,1,2,0,1,2,0,1,2,0,1,2,0,1,2,0,1,2,0,1,2,0,1,2,0,1,2,0,1,2,0,1,2,0,1,2,0,1,2,0,1,2,0,1,2,0,1,2,0,1,2,0,1,2,0,1,2,0,1,2,0,1,2,0,1,2,0,1,2,0,1,2,0,1,2,0,1,2,0,1,2,0,1,2,0,1,2,0,1,2,0,1,2,0,1,2,0,1,2,0,1,2,0,1,2,0,1,2,0,1,2,0,1,2,0,1,2,0,1,2,0,1,2,0,1,2,0,1,2,0,1,2,0,1,2,0,1,2,0,1,2,0,1,2,0,1,2,0,1,2,0,1,2,0,1,2,0,1,2,0,1,2,0,1,2,0,1,2,0,1,2,0,1,2,0,1,2,0,1,2,0,1,2,0,1,2,0,1,2,0,1,2,0,1,2,0,1,2,0,1,2,0,1,2,0,1,2,0,1,2,0,1,2,0,1,2,0,1,2,0,1,2,0,1,2,0,1,2,0,1,2,0,1,2,0,1,2,0,1,2,0,1,2,0,1,2,0,1,2,0,1,2,0,1,2,0,1,2,0,1,2,0,1,2,0,1,2,0,1,2,0,1,2,0,1,2,0,1,2,0,1,2,0,1,2,0,1,2,0,1,2,0,1,2,0,1,2,0,1,2,0,1,2,0,1,2,0,1,2,0,1,2,0,1,2,0,1,2,0,1,2,0,1,2,0,1,2,0,1,2,0,1,2,0,1,2,0,1,2,0,1,2,0,1,2,0,1,2,0,1,2,0,1,2,0,1,2,0,1,2,0,1,2,0,1,2,0,1,2,0,1,2,0,1,2,0,1,2,0,1,2,0,1,2,0,1,2,0,1,2,0,1,2,0,1,2,0,1,2,0,1,2,0,1,2,0,1,2,0,1,2,0,1,2,0,1,2,0,1,2,0,1,2,0,1,2,0,1,2,0,1,2,0,1,2,0,1,2,0,1,2,0,1,2,0,1,2,0,1,2,0,1,2,0,1,2,0,1,2,0,1,2],"trees":[{"base_weights":[-1.717748E-4,1.8716335E-1,-3.7068668E-1,5.669126E-1,-2.0449068E-2,-2.1876249E-1,-5.96081E-1,4.3184027E-1,8.8260245E-1,1.07532024E-1,-2.892197E-1,-1.9129707E-2,-2.861868E-1,-4.732516E-1,-6.570668E-1,2.5674824E-2,1.0538962E-2,4.814535E-2,3.0229574E-2,7.990279E-3,-1.5849505E-3,-9.65244E-3,-2.272196E-2,4.6050567E-3,-9.9486625E-3,-3.588709E-2,-1.3474728E-2,-1.7433036E-2,-2.5119437E-2,-3.0535016E-2,-3.7499588E-2],"categories":[],"categories_nodes":[],"categories_segments":[],"categories_sizes":[],"default_left":[1,0,0,0,1,0,0,1,1,1,0,0,0,0,0,0,0,0,0,0,0,0,0,0,0,0,0,0,0,0,0],"id":0,"left_children":[1,3,5,7,9,11,13,15,17,19,21,23,25,27,29,-1,-1,-1,-1,-1,-1,-1,-1,-1,-1,-1,-1,-1,-1,-1,-1],"loss_changes":[2.0946897E5,1.5802775E5,3.4702844E4,3.0210125E4,4.4576156E4,8.1485645E3,3.0563438E3,8.95657E3,4.7390938E3,6.3893477E3,6.6420312E3,3.0575312E3,3.2597617E3,4.913047E2,1.1743516E3,0E0,0E0,0E0,0E0,0E0,0E0,0E0,0E0,0E0,0E0,0E0,0E0,0E0,0E0,0E0,0E0],"parents":[2147483647,0,0,1,1,2,2,3,3,4,4,5,5,6,6,7,7,8,8,9,9,10,10,11,11,12,12,13,13,14,14],"right_children":[2,4,6,8,10,12,14,16,18,20,22,24,26,28,30,-1,-1,-1,-1,-1,-1,-1,-1,-1,-1,-1,-1,-1,-1,-1,-1],"split_conditions":[9.5E1,-4.6E1,2.8E1,2.08E2,1.16E2,-8.1E1,2.9E1,7.5E1,7.5E1,7.5E1,2.49E2,1.17E2,9.6E1,-1.08E2,3E1,2.5674824E-2,1.0538962E-2,4.814535E-2,3.0229574E-2,7.990279E-3,-1.5849505E-3,-9.65244E-3,-2.272196E-2,4.6050567E-3,-9.9486625E-3,-3.588709E-2,-1.3474728E-2,-1.7433036E-2,-2.5119437E-2,-3.0535016E-2,-3.7499588E-2],"split_indices":[8,2,11,3,3,2,11,8,8,8,3,8,8,2,11,0,0,0,0,0,0,0,0,0,0,0,0,0,0,0,0],"split_type":[0,0,0,0,0,0,0,0,0,0,0,0,0,0,0,0,0,0,0,0,0,0,0,0,0,0,0,0,0,0,0],"sum_hessian":[3.0178282E6,2.0043928E6,1.0134356E6,7.0848425E5,1.2959085E6,6.053854E5,4.0805028E5,4.9618628E5,2.1229792E5,8.7788475E5,4.1802372E5,1.5284295E5,4.525424E5,1.3538492E5,2.7266534E5,3.62342E5,1.3384431E5,1.6471645E5,4.758147E4,6.382551E5,2.3962964E5,2.6422556E5,1.5379816E5,9.443601E4,5.8406934E4,1.6850658E4,4.3569175E5,2.566289E4,1.0972204E5,1.8190717E5,9.075818E4],"tree_param":{"num_deleted":"0","num_feature":"3136","num_nodes":"31","size_leaf_vector":"1"}},{"base_weights":[-7.086469E-5,-3.9621866E-1,7.311257E-1,-5.0901276E-1,-9.394366E-2,4.3245834E-1,1.2015795E0,-5.2375823E-1,-1.9320737E-1,-1.2382473E-1,9.252282E-1,2.8732383E-1,6.881252E-1,9.623239E-1,1.320656E0,-2.7898902E-2,-2.0162193E-2,-5.845891E-3,-3.7333935E-2,-1.0840303E-2,-1.6912913E-3,3.0514007E-2,7.040351E-2,1.0420514E-2,2.7260125E-2,3.1106098E-2,4.6038184E-2,4.7478314E-2,6.152379E-2,6.15197E-2,7.499918E-2],"categories":[],"categories_nodes":[],"categories_segments":[],"categories_sizes":[],"default_left":[1,1,0,0,0,0,0,0,0,0,0,0,0,0,0,0,0,0,0,0,0,0,0,0,0,0,0,0,0,0,0],"id":1,"left_children":[1,3,5,7,9,11,13,15,17,19,21,23,25,27,29,-1,-1,-1,-1,-1,-1,-1,-1,-1,-1,-1,-1,-1,-1,-1,-1],"loss_changes":[8.74229E5,6.674203E4,1.4901769E5,6.6384375E3,1.6200375E4,2.4071273E4,1.1731875E4,5.6165625E3,2.6851626E3,4.3247534E3,2.3033643E3,8.421043E3,3.6064219E3,4.6703125E2,4.4490625E3,0E0,0E0,0E0,0E0,0E0,0E0,0E0,0E0,0E0,0E0,0E0,0E0,0E0,0E0,0E0,0E0],"parents":[2147483647,0,0,1,1,2,2,3,3,4,4,5,5,6,6,7,7,8,8,9,9,10,10,11,11,12,12,13,13,14,14],"right_children":[2,4,6,8,10,12,14,16,18,20,22,24,26,28,30,-1,-1,-1,-1,-1,-1,-1,-1,-1,-1,-1,-1,-1,-1,-1,-1],"split_conditions":[9.3E1,7.3E1,2.8E1,2.2E1,2.7E1,1.17E2,2.9E1,6.3E1,7.3E1,8.2E1,2.9E1,2.6E1,1.43E2,1.79E2,3E1,-2.7898902E-2,-2.0162193E-2,-5.845891E-3,-3.7333935E-2,-1.0840303E-2,-1.6912913E-3,3.0514007E-2,7.040351E-2,1.0420514E-2,2.7260125E-2,3.1106098E-2,4.6038184E-2,4.7478314E-2,6.152379E-2,6.15197E-2,7.499918E-2],"split_indices":[8,8,11,11,11,8,11,8,8,8,11,11,8,8,11,0,0,0,0,0,0,0,0,0,0,0,0,0,0,0,0],"split_type":[0,0,0,0,0,0,0,0,0,0,0,0,0,0,0,0,0,0,0,0,0,0,0,0,0,0,0,0,0,0,0],"sum_hessian":[3.0180992E6,1.9575422E6,1.060557E6,1.425584E6,5.319583E5,6.4871956E5,4.1183747E5,1.3619898E6,6.3594223E4,5.1680697E5,1.515137E4,4.1381256E5,2.3490703E5,1.3685973E5,2.7497772E5,1.0607802E6,3.012095E5,5.5891453E4,7.7027715E3,2.5419103E5,2.6261594E5,9.171349E3,5.9800215E3,3.168538E5,9.6958734E4,1.8299273E5,5.1914285E4,1.3064854E5,6.211198E3,1.8291702E5,9.206072E4],"tree_param":{"num_deleted":"0","num_feature":"3136","num_nodes":"31","size_leaf_vector":"1"}},{"base_weights":[1.4629209E-4,2.1725146E-1,-3.8251796E-1,-8.996826E-3,5.8639973E-1,-2.4221586E-1,-6.067808E-1,-2.915084E-1,1.2011622E-1,4.3740207E-1,8.889405E-1,-3.0551767E-1,-3.7739363E-2,-4.884214E-1,-6.638862E-1,-9.647705E-3,-2.273445E-2,1.0064582E-2,-1.1688516E-3,2.7532592E-2,1.1374246E-2,4.9864005E-2,3.132964E-2,-3.5972107E-2,-1.44961765E-2,4.7959113E-3,-1.0369114E-2,-2.5877535E-2,-1.847685E-2,-3.1110093E-2,-3.74996E-2],"categories":[],"categories_nodes":[],"categories_segments":[],"categories_sizes":[],"default_left":[0,1,0,0,0,1,0,0,0,0,0,0,0,1,1,0,0,0,0,0,0,0,0,0,0,0,0,0,0,0,0],"id":2,"left_children":[1,3,5,7,9,11,13,15,17,19,21,23,25,27,29,-1,-1,-1,-1,-1,-1,-1,-1,-1,-1,-1,-1,-1,-1,-1,-1],"loss_changes":[2.5067183E5,1.607819E5,3.436553E4,4.3536414E4,3.2975266E4,8.696531E3,2.8406875E3,6.0207812E3,9.541957E3,1.1652023E4,6.8602188E3,3.3113906E3,3.601327E3,4.735586E2,1.0172031E3,0E0,0E0,0E0,0E0,0E0,0E0,0E0,0E0,0E0,0E0,0E0,0E0,0E0,0E0,0E0,0E0],"parents":[2147483647,0,0,1,1,2,2,3,3,4,4,5,5,6,6,7,7,8,8,9,9,10,10,11,11,12,12,13,13,14,14],"right_children":[2,4,6,8,10,12,14,16,18,20,22,24,26,28,30,-1,-1,-1,-1,-1,-1,-1,-1,-1,-1,-1,-1,-1,-1,-1,-1],"split_conditions":[9.2E1,3.7E1,2.8E1,-1.25E2,1.85E2,8.4E1,2.9E1,2.56E2,6.8E1,6.8E1,6.8E1,9.3E1,1.12E2,1.01E2,3E1,-9.647705E-3,-2.273445E-2,1.0064582E-2,-1.1688516E-3,2.7532592E-2,1.1374246E-2,4.9864005E-2,3.132964E-2,-3.5972107E-2,-1.44961765E-2,4.7959113E-3,-1.0369114E-2,-2.5877535E-2,-1.847685E-2,-3.1110093E-2,-3.74996E-2],"split_indices":[8,2,11,2,3,2,11,3,8,8,8,8,8,2,11,0,0,0,0,0,0,0,0,0,0,0,0,0,0,0,0],"split_type":[0,0,0,0,0,0,0,0,0,0,0,0,0,0,0,0,0,0,0,0,0,0,0,0,0,0,0,0,0,0,0],"sum_hessian":[3.0172908E6,1.925089E6,1.0922019E6,1.1935635E6,7.3152544E5,6.7187144E5,4.203304E5,3.7438103E5,8.191825E5,4.9013988E5,2.4138556E5,5.1304306E5,1.5882836E5,1.368005E5,2.835299E5,2.3341203E5,1.4096902E5,5.2320203E5,2.9598047E5,3.1837547E5,1.717644E5,1.708346E5,7.055096E4,1.8624982E4,4.944181E5,8.8836586E4,6.999178E4,1.0987528E5,2.6925219E4,1.9104973E5,9.248018E4],"tree_param":{"num_deleted":"0","num_feature":"3136","num_nodes":"31","size_leaf_vector":"1"}},{"base_weights":[6.42362E-5,1.798039E-1,-3.6045393E-1,5.1088756E-1,-3.7556563E-2,-2.1249175E-1,-5.8233017E-1,7.962012E-1,3.738444E-1,8.196293E-2,-2.9301274E-1,-1.54034E-2,-2.7806538E-1,-4.6187922E-1,-6.427042E-1,3.457709E-2,5.0308894E-2,2.2717789E-2,9.358285E-3,7.911182E-3,-2.3435128E-5,-1.0284798E-2,-2.2886937E-2,5.0216704E-3,-8.746755E-3,-3.546716E-2,-1.3071634E-2,-1.661467E-2,-2.4532802E-2,-2.9816622E-2,-3.6797207E-2],"categories":[],"categories_nodes":[],"categories_segments":[],"categories_sizes":[],"default_left":[1,0,0,0,1,0,0,0,1,1,0,0,0,0,0,0,0,0,0,0,0,0,0,0,0,0,0,0,0,0,0],"id":3,"left_children":[1,3,5,7,9,11,13,15,17,19,21,23,25,27,29,-1,-1,-1,-1,-1,-1,-1,-1,-1,-1,-1,-1,-1,-1,-1,-1],"loss_changes":[1.9552445E5,1.4490202E5,3.2955867E4,3.1201828E4,3.7112242E4,7.783283E3,2.9202812E3,5.6895312E3,8.1020703E3,5.2055933E3,5.5725E3,2.7784602E3,3.2413945E3,4.9988867E2,1.15625E3,0E0,0E0,0E0,0E0,0E0,0E0,0E0,0E0,0E0,0E0,0E0,0E0,0E0,0E0,0E0,0E0],"parents":[2147483647,0,0,1,1,2,2,3,3,4,4,5,5,6,6,7,7,8,8,9,9,10,10,11,11,12,12,13,13,14,14],"right_children":[2,4,6,8,10,12,14,16,18,20,22,24,26,28,30,-1,-1,-1,-1,-1,-1,-1,-1,-1,-1,-1,-1,-1,-1,-1,-1],"split_conditions":[9.5E1,-3.2E1,2.8E1,-1.83E2,1.25E2,-8.3E1,2.9E1,3.3E2,7.3E1,3.2E1,2.65E2,1.15E2,9.6E1,-1.12E2,3E1,3.457709E-2,5.0308894E-2,2.2717789E-2,9.358285E-3,7.911182E-3,-2.3435128E-5,-1.0284798E-2,-2.2886937E-2,5.0216704E-3,-8.746755E-3,-3.546716E-2,-1.3071634E-2,-1.661467E-2,-2.4532802E-2,-2.9816622E-2,-3.6797207E-2],"split_indices":[8,2,11,2,2,2,11,3,8,2,2,8,8,2,11,0,0,0,0,0,0,0,0,0,0,0,0,0,0,0,0],"split_type":[0,0,0,0,0,0,0,0,0,0,0,0,0,0,0,0,0,0,0,0,0,0,0,0,0,0,0,0,0,0,0],"sum_hessian":[3.017378E6,2.0135196E6,1.0038583E6,7.9800156E5,1.2155181E6,6.0224344E5,4.0161494E5,2.58928E5,5.3907356E5,8.280851E5,3.8743297E5,1.5035055E5,4.5189288E5,1.3409447E5,2.6752047E5,1.7280202E5,8.6125984E4,3.7663556E5,1.6243803E5,4.301426E5,3.9794253E5,2.5321358E5,1.3421939E5,8.710414E4,6.3246402E4,1.677906E4,4.351138E5,2.4369234E4,1.09725234E5,1.7866897E5,8.885149E4],"tree_param":{"num_deleted":"0","num_feature":"3136","num_nodes":"31","size_leaf_vector":"1"}},{"base_weights":[-6.028761E-5,-3.8528472E-1,6.9108945E-1,-4.966918E-1,-9.002631E-2,4.1194254E-1,1.1235569E0,-5.111993E-1,-1.8754804E-1,-1.2927109E-1,6.4695036E-1,2.4766433E-1,6.180337E-1,9.045558E-1,1.2315879E0,-2.7285626E-2,-1.950617E-2,-5.598848E-3,-3.6950585E-2,-1.07494695E-2,-2.2174877E-3,1.8454833E-2,5.812737E-2,8.951281E-3,2.4973443E-2,2.688594E-2,4.0448714E-2,4.419897E-2,5.2658625E-2,5.7473816E-2,6.969138E-2],"categories":[],"categories_nodes":[],"categories_segments":[],"categories_sizes":[],"default_left":[1,1,0,0,0,0,0,0,0,0,0,0,0,0,0,0,0,0,0,0,0,0,0,0,0,0,0,0,0,0,0],"id":4,"left_children":[1,3,5,7,9,11,13,15,17,19,21,23,25,27,29,-1,-1,-1,-1,-1,-1,-1,-1,-1,-1,-1,-1,-1,-1,-1,-1],"loss_changes":[8.03262E5,6.372275E4,1.3034866E5,6.3080312E3,1.5349516E4,2.2216094E4,1.00196875E4,5.61375E3,2.627421E3,3.667876E3,3.8435605E3,6.3108027E3,4.463E3,4.269375E2,3.7769375E3,0E0,0E0,0E0,0E0,0E0,0E0,0E0,0E0,0E0,0E0,0E0,0E0,0E0,0E0,0E0,0E0],"parents":[2147483647,0,0,1,1,2,2,3,3,4,4,5,5,6,6,7,7,8,8,9,9,10,10,11,11,12,12,13,13,14,14],"right_children":[2,4,6,8,10,12,14,16,18,20,22,24,26,28,30,-1,-1,-1,-1,-1,-1,-1,-1,-1,-1,-1,-1,-1,-1,-1,-1],"split_conditions":[9.3E1,7.3E1,2.8E1,2.2E1,2.6E1,1.13E2,2.9E1,6.3E1,7.3E1,8.2E1,2.8E1,2.6E1,1.35E2,1.58E2,3E1,-2.7285626E-2,-1.950617E-2,-5.598848E-3,-3.6950585E-2,-1.07494695E-2,-2.2174877E-3,1.8454833E-2,5.812737E-2,8.951281E-3,2.4973443E-2,2.688594E-2,4.0448714E-2,4.419897E-2,5.2658625E-2,5.7473816E-2,6.969138E-2],"split_indices":[8,8,11,11,11,8,11,8,8,8,11,11,8,8,11,0,0,0,0,0,0,0,0,0,0,0,0,0,0,0,0],"split_type":[0,0,0,0,0,0,0,0,0,0,0,0,0,0,0,0,0,0,0,0,0,0,0,0,0,0,0,0,0,0,0],"sum_hessian":[3.0169698E6,1.9372242E6,1.0797455E6,1.4065161E6,5.307082E5,6.56192E5,4.2355353E5,1.3434691E6,6.3046914E4,5.0387703E5,2.6831158E4,3.6513775E5,2.9105425E5,1.3991881E5,2.8363472E5,1.0454542E6,2.9801497E5,5.544947E4,7.5974414E3,2.507611E5,2.5311595E5,1.7436432E4,9.394727E3,2.869268E5,7.8210914E4,2.0487986E5,8.617438E4,1.2290866E5,1.7010162E4,1.8832769E5,9.530702E4],"tree_param":{"num_deleted":"0","num_feature":"3136","num_nodes":"31","size_leaf_vector":"1"}},{"base_weights":[7.840963E-5,2.1556433E-1,-3.5944006E-1,-1.7924953E-2,5.4649395E-1,-2.2294122E-1,-5.931977E-1,1.1163935E-1,-2.7738303E-1,4.1525513E-1,8.5861284E-1,-2.8785783E-1,-1.4711097E-2,-4.7657952E-1,-6.5013266E-1,9.30004E-3,-5.524011E-4,-9.448807E-3,-2.2927536E-2,2.559092E-2,1.1066611E-2,4.741431E-2,3.1056885E-2,-3.5796564E-2,-1.3595826E-2,6.2244176E-3,-9.2217E-3,-2.5218582E-2,-1.776999E-2,-3.0424425E-2,-3.6795817E-2],"categories":[],"categories_nodes":[],"categories_segments":[],"categories_sizes":[],"default_left":[0,1,0,1,0,1,0,0,0,0,0,0,0,1,1,0,0,0,0,0,0,0,0,0,0,0,0,0,0,0,0],"id":5,"left_children":[1,3,5,7,9,11,13,15,17,19,21,23,25,27,29,-1,-1,-1,-1,-1,-1,-1,-1,-1,-1,-1,-1,-1,-1,-1,-1],"loss_changes":[2.3378962E5,1.4579338E5,3.6084953E4,3.718969E4,3.197261E4,9.651527E3,2.7679062E3,6.7314785E3,5.901211E3,1.028975E4,4.919672E3,3.7141875E3,4.0090347E3,4.6046875E2,1.0003594E3,0E0,0E0,0E0,0E0,0E0,0E0,0E0,0E0,0E0,0E0,0E0,0E0,0E0,0E0,0E0,0E0],"parents":[2147483647,0,0,1,1,2,2,3,3,4,4,5,5,6,6,7,7,8,8,9,9,10,10,11,11,12,12,13,13,14,14],"right_children":[2,4,6,8,10,12,14,16,18,20,22,24,26,28,30,-1,-1,-1,-1,-1,-1,-1,-1,-1,-1,-1,-1,-1,-1,-1,-1],"split_conditions":[9E1,2.7E1,2.8E1,1.24E2,1.91E2,8.4E1,2.9E1,6.6E1,2.72E2,6.8E1,6.8E1,9.1E1,1.1E2,1.07E2,3E1,9.30004E-3,-5.524011E-4,-9.448807E-3,-2.2927536E-2,2.559092E-2,1.1066611E-2,4.741431E-2,3.1056885E-2,-3.5796564E-2,-1.3595826E-2,6.2244176E-3,-9.2217E-3,-2.5218582E-2,-1.776999E-2,-3.0424425E-2,-3.6795817E-2],"split_indices":[8,2,11,3,3,2,11,8,3,8,8,8,8,2,11,0,0,0,0,0,0,0,0,0,0,0,0,0,0,0,0],"split_type":[0,0,0,0,0,0,0,0,0,0,0,0,0,0,0,0,0,0,0,0,0,0,0,0,0,0,0,0,0,0,0],"sum_hessian":[3.017761E6,1.8868395E6,1.1309215E6,1.1062908E6,7.8054875E5,7.1399694E5,4.1692456E5,7.378398E5,3.6845088E5,5.494993E5,2.3104945E5,5.443067E5,1.6969023E5,1.367772E5,2.8014738E5,4.5939666E5,2.784432E5,2.476189E5,1.2083198E5,3.6683394E5,1.8266536E5,1.6771525E5,6.3334215E4,1.9540477E4,5.2476625E5,9.322849E4,7.646174E4,1.1125751E5,2.5519695E4,1.8859903E5,9.1548336E4],"tree_param":{"num_deleted":"0","num_feature":"3136","num_nodes":"31","size_leaf_vector":"1"}},{"base_weights":[7.655676E-5,1.7838709E-1,-3.3795258E-1,4.952957E-1,-3.2415316E-2,-1.9425815E-1,-5.6947297E-1,3.662911E-1,7.6939875E-1,7.859901E-2,-2.955809E-1,4.29258E-3,-2.606832E-1,-4.4905496E-1,-6.299439E-1,2.1752695E-2,9.587672E-3,3.356627E-2,4.7871817E-2,7.1685016E-3,-1.0117627E-3,-1.071969E-2,-2.3030443E-2,5.6143757E-3,-8.272382E-3,-3.573954E-2,-1.2192223E-2,-1.42922625E-2,-2.3619195E-2,-2.918443E-2,-3.6149487E-2],"categories":[],"categories_nodes":[],"categories_segments":[],"categories_sizes":[],"default_left":[1,0,0,0,1,0,0,1,0,1,0,0,0,0,0,0,0,0,0,0,0,0,0,0,0,0,0,0,0,0,0],"id":6,"left_children":[1,3,5,7,9,11,13,15,17,19,21,23,25,27,29,-1,-1,-1,-1,-1,-1,-1,-1,-1,-1,-1,-1,-1,-1,-1,-1],"loss_changes":[1.817217E5,1.3185723E5,3.4637383E4,2.7879719E4,3.462908E4,8.472875E3,2.903164E3,6.4343516E3,4.652547E3,5.336666E3,4.711586E3,2.952206E3,3.6807852E3,5.0739453E2,1.1419609E3,0E0,0E0,0E0,0E0,0E0,0E0,0E0,0E0,0E0,0E0,0E0,0E0,0E0,0E0,0E0,0E0],"parents":[2147483647,0,0,1,1,2,2,3,3,4,4,5,5,6,6,7,7,8,8,9,9,10,10,11,11,12,12,13,13,14,14],"right_children":[2,4,6,8,10,12,14,16,18,20,22,24,26,28,30,-1,-1,-1,-1,-1,-1,-1,-1,-1,-1,-1,-1,-1,-1,-1,-1],"split_conditions":[9.3E1,-3.2E1,2.8E1,1.87E2,1.34E2,-8.3E1,2.9E1,7.3E1,3.3E2,4.7E1,2.8E2,1.15E2,9.4E1,-1.51E2,3E1,2.1752695E-2,9.587672E-3,3.356627E-2,4.7871817E-2,7.1685016E-3,-1.0117627E-3,-1.071969E-2,-2.3030443E-2,5.6143757E-3,-8.272382E-3,-3.573954E-2,-1.2192223E-2,-1.42922625E-2,-2.3619195E-2,-2.918443E-2,-3.6149487E-2],"split_indices":[8,2,11,3,3,2,11,8,3,2,3,8,8,2,11,0,0,0,0,0,0,0,0,0,0,0,0,0,0,0,0],"split_type":[0,0,0,0,0,0,0,0,0,0,0,0,0,0,0,0,0,0,0,0,0,0,0,0,0,0,0,0,0,0,0],"sum_hessian":[3.014917E6,1.9737588E6,1.0411582E6,7.884482E5,1.1853105E6,6.424314E5,3.987268E5,5.361265E5,2.5232169E5,8.3364475E5,3.5166578E5,1.6104717E5,4.8138422E5,1.3329667E5,2.6543016E5,3.8460275E5,1.5152375E5,1.6583366E5,8.648803E4,5.0360612E5,3.3003866E5,2.3570881E5,1.1595696E5,9.842556E4,6.26216E4,1.721046E4,4.6417375E5,1.6672031E4,1.1662465E5,1.7729817E5,8.813197E4],"tree_param":{"num_deleted":"0","num_feature":"3136","num_nodes":"31","size_leaf_vector":"1"}},{"base_weights":[-4.6750635E-4,-3.7497333E-1,6.548521E-1,-4.847803E-1,-8.672214E-2,3.916606E-1,1.055793E0,-4.9935958E-1,-1.7682254E-1,-1.2521067E-1,6.2551886E-1,2.5723037E-1,6.244404E-1,8.53826E-1,1.1550759E0,-2.6672363E-2,-1.9013299E-2,-5.049851E-3,-3.658774E-2,-1.0063776E-2,-1.6354272E-3,1.788678E-2,5.5685382E-2,9.158476E-3,2.4828134E-2,2.7688017E-2,4.015811E-2,4.2006813E-2,5.2649945E-2,5.3976722E-2,6.518995E-2],"categories":[],"categories_nodes":[],"categories_segments":[],"categories_sizes":[],"default_left":[1,1,0,0,0,0,0,0,0,0,0,0,0,0,0,0,0,0,0,0,0,0,0,0,0,0,0,0,0,0,0],"id":7,"left_children":[1,3,5,7,9,11,13,15,17,19,21,23,25,27,29,-1,-1,-1,-1,-1,-1,-1,-1,-1,-1,-1,-1,-1,-1,-1,-1],"loss_changes":[7.3949406E5,6.0689438E4,1.156295E5,6.2339062E3,1.4499646E4,2.0700625E4,8.706406E3,5.381625E3,2.6408718E3,3.5308232E3,3.5446191E3,7.432959E3,3.0586953E3,3.8935156E2,3.269375E3,0E0,0E0,0E0,0E0,0E0,0E0,0E0,0E0,0E0,0E0,0E0,0E0,0E0,0E0,0E0,0E0],"parents":[2147483647,0,0,1,1,2,2,3,3,4,4,5,5,6,6,7,7,8,8,9,9,10,10,11,11,12,12,13,13,14,14],"right_children":[2,4,6,8,10,12,14,16,18,20,22,24,26,28,30,-1,-1,-1,-1,-1,-1,-1,-1,-1,-1,-1,-1,-1,-1,-1,-1],"split_conditions":[9.3E1,7.3E1,2.8E1,2.2E1,2.6E1,1.17E2,2.9E1,6.3E1,7.3E1,8.3E1,2.8E1,2.6E1,1.39E2,1.71E2,3E1,-2.6672363E-2,-1.9013299E-2,-5.049851E-3,-3.658774E-2,-1.0063776E-2,-1.6354272E-3,1.788678E-2,5.5685382E-2,9.158476E-3,2.4828134E-2,2.7688017E-2,4.015811E-2,4.2006813E-2,5.2649945E-2,5.3976722E-2,6.518995E-2],"split_indices":[8,8,11,11,11,8,11,8,8,8,11,11,8,8,11,0,0,0,0,0,0,0,0,0,0,0,0,0,0,0,0],"split_type":[0,0,0,0,0,0,0,0,0,0,0,0,0,0,0,0,0,0,0,0,0,0,0,0,0,0,0,0,0,0,0],"sum_hessian":[3.0131632E6,1.9173979E6,1.0957652E6,1.3884705E6,5.289274E5,6.615216E5,4.3424362E5,1.3257085E6,6.276205E4,5.01811E5,2.7116348E4,4.1934953E5,2.4217208E5,1.4311667E5,2.9112697E5,1.0306938E6,2.9501472E5,5.521825E4,7.5438E3,2.7537112E5,2.2643989E5,1.7512213E4,9.604136E3,3.202505E5,9.909903E4,1.735439E5,6.8628164E4,1.3391734E5,9.199322E3,1.93069E5,9.805796E4],"tree_param":{"num_deleted":"0","num_feature":"3136","num_nodes":"31","size_leaf_vector":"1"}},{"base_weights":[2.952724E-4,1.9960234E-1,-3.615185E-1,-3.5569824E-2,4.931263E-1,-2.2729994E-1,-5.803617E-1,7.849401E-2,-2.9524353E-1,3.6154935E-1,7.770119E-1,-3.0590603E-1,-7.446708E-2,-4.6579316E-1,-6.364318E-1,7.4245343E-3,-2.3245544E-3,-1.0989069E-2,-2.3666251E-2,2.3339272E-2,9.622685E-3,4.2948376E-2,2.5466273E-2,-3.532211E-2,-1.4525557E-2,1.2581144E-3,-1.2457649E-2,-2.4709184E-2,-1.7511789E-2,-2.9757103E-2,-3.612947E-2],"categories":[],"categories_nodes":[],"categories_segments":[],"categories_sizes":[],"default_left":[0,1,0,1,0,1,0,0,0,0,0,0,0,1,1,0,0,0,0,0,0,0,0,0,0,0,0,0,0,0,0],"id":8,"left_children":[1,3,5,7,9,11,13,15,17,19,21,23,25,27,29,-1,-1,-1,-1,-1,-1,-1,-1,-1,-1,-1,-1,-1,-1,-1,-1],"loss_changes":[2.1736236E5,1.3416366E5,3.1447547E4,3.1960928E4,3.2292703E4,7.9725625E3,2.6142812E3,6.5590503E3,4.4255E3,1.0512141E4,6.0062656E3,2.702043E3,3.9227844E3,4.385996E2,9.717031E2,0E0,0E0,0E0,0E0,0E0,0E0,0E0,0E0,0E0,0E0,0E0,0E0,0E0,0E0,0E0,0E0],"parents":[2147483647,0,0,1,1,2,2,3,3,4,4,5,5,6,6,7,7,8,8,9,9,10,10,11,11,12,12,13,13,14,14],"right_children":[2,4,6,8,10,12,14,16,18,20,22,24,26,28,30,-1,-1,-1,-1,-1,-1,-1,-1,-1,-1,-1,-1,-1,-1,-1,-1],"split_conditions":[9.2E1,1.8E1,2.8E1,1.41E2,1.73E2,4.4E1,2.9E1,6.8E1,2.99E2,6.6E1,7.2E1,9.3E1,1.16E2,1.01E2,3E1,7.4245343E-3,-2.3245544E-3,-1.0989069E-2,-2.3666251E-2,2.3339272E-2,9.622685E-3,4.2948376E-2,2.5466273E-2,-3.532211E-2,-1.4525557E-2,1.2581144E-3,-1.2457649E-2,-2.4709184E-2,-1.7511789E-2,-2.9757103E-2,-3.612947E-2],"split_indices":[8,2,11,3,3,2,11,8,3,8,8,8,8,2,11,0,0,0,0,0,0,0,0,0,0,0,0,0,0,0,0],"split_type":[0,0,0,0,0,0,0,0,0,0,0,0,0,0,0,0,0,0,0,0,0,0,0,0,0,0,0,0,0,0,0],"sum_hessian":[3.0142292E6,1.9435918E6,1.0706375E6,1.0790528E6,8.6453894E5,6.6362944E5,4.0700803E5,7.497289E5,3.2932394E5,5.9074106E5,2.7379788E5,4.3823322E5,2.2539623E5,1.3374169E5,2.7326634E5,4.8058294E5,2.6914594E5,2.3130888E5,9.801506E4,3.6412647E5,2.2661461E5,2.0961836E5,6.417953E4,1.6218717E4,4.220145E5,1.4353447E5,8.186177E4,1.0736153E5,2.6380156E4,1.8474019E5,8.852615E4],"tree_param":{"num_deleted":"0","num_feature":"3136","num_nodes":"31","size_leaf_vector":"1"}},{"base_weights":[7.9267763E-4,1.6026059E-1,-3.518425E-1,4.9020606E-1,-1.8273395E-2,-2.103277E-1,-5.563219E-1,3.8443476E-1,7.653289E-1,9.484639E-2,-2.592544E-1,-9.27628E-3,-2.6732147E-1,-4.3781808E-1,-6.160795E-1,2.2878451E-2,8.443712E-3,4.2003926E-2,2.5946176E-2,7.064055E-3,-3.0102818E-3,-8.42632E-3,-2.0683445E-2,3.1576343E-3,-1.0840045E-2,-3.53399E-2,-1.2503155E-2,-1.5570967E-2,-2.3304055E-2,-2.850056E-2,-3.5514377E-2],"categories":[],"categories_nodes":[],"categories_segments":[],"categories_sizes":[],"default_left":[1,0,0,0,1,0,0,1,1,1,0,0,0,0,0,0,0,0,0,0,0,0,0,0,0,0,0,0,0,0,0],"id":9,"left_children":[1,3,5,7,9,11,13,15,17,19,21,23,25,27,29,-1,-1,-1,-1,-1,-1,-1,-1,-1,-1,-1,-1,-1,-1,-1,-1],"loss_changes":[1.692962E5,1.22117984E5,2.7127758E4,2.1181297E4,3.6669695E4,6.3486367E3,2.7150547E3,8.288461E3,3.7224844E3,6.591171E3,6.0203535E3,1.83936E3,3.2739336E3,4.5905664E2,1.1058594E3,0E0,0E0,0E0,0E0,0E0,0E0,0E0,0E0,0E0,0E0,0E0,0E0,0E0,0E0,0E0,0E0],"parents":[2147483647,0,0,1,1,2,2,3,3,4,4,5,5,6,6,7,7,8,8,9,9,10,10,11,11,12,12,13,13,14,14],"right_children":[2,4,6,8,10,12,14,16,18,20,22,24,26,28,30,-1,-1,-1,-1,-1,-1,-1,-1,-1,-1,-1,-1,-1,-1,-1,-1],"split_conditions":[9.7E1,-5E1,2.8E1,2.24E2,1.12E2,-9.7E1,2.9E1,7.7E1,7.5E1,7.9E1,2.42E2,1.25E2,9.8E1,-1.12E2,3E1,2.2878451E-2,8.443712E-3,4.2003926E-2,2.5946176E-2,7.064055E-3,-3.0102818E-3,-8.42632E-3,-2.0683445E-2,3.1576343E-3,-1.0840045E-2,-3.53399E-2,-1.2503155E-2,-1.5570967E-2,-2.3304055E-2,-2.850056E-2,-3.5514377E-2],"split_indices":[8,2,11,3,2,2,11,8,8,8,3,8,8,2,11,0,0,0,0,0,0,0,0,0,0,0,0,0,0,0,0],"split_type":[0,0,0,0,0,0,0,0,0,0,0,0,0,0,0,0,0,0,0,0,0,0,0,0,0,0,0,0,0,0,0],"sum_hessian":[3.0105652E6,2.0730814E6,9.374838E5,7.278862E5,1.3451952E6,5.5404556E5,3.8343822E5,5.257596E5,2.0212653E5,9.154643E5,4.297309E5,1.2237087E5,4.3167472E5,1.2854065E5,2.5489756E5,3.9256956E5,1.3319008E5,1.5507923E5,4.7047297E4,7.044861E5,2.1097817E5,2.706875E5,1.590434E5,9.071187E4,3.1659E4,1.63099375E4,4.1536478E5,2.3491805E4,1.0504884E5,1.7119111E5,8.370645E4],"tree_param":{"num_deleted":"0","num_feature":"3136","num_nodes":"31","size_leaf_vector":"1"}},{"base_weights":[-5.2484067E-4,-3.7745294E-1,6.011517E-1,-4.7378412E-1,-1.0235229E-1,2.927167E-1,9.220172E-1,-4.883588E-1,-1.6884759E-1,-1.3289563E-1,5.9154105E-1,1.6246572E-1,4.8732743E-1,7.3710746E-1,1.0886606E0,-2.6101558E-2,-1.8557062E-2,-4.6742125E-3,-3.6234993E-2,1.5953205E-3,-8.69236E-3,2.0003607E-2,6.304787E-2,2.0541046E-2,6.345635E-3,2.09419E-2,3.5521895E-2,3.2804623E-2,4.026765E-2,5.089202E-2,6.135386E-2],"categories":[],"categories_nodes":[],"categories_segments":[],"categories_sizes":[],"default_left":[1,1,0,0,0,0,0,0,0,0,0,0,0,0,0,0,0,0,0,0,0,0,0,0,0,0,0,0,0,0,0],"id":10,"left_children":[1,3,5,7,9,11,13,15,17,19,21,23,25,27,29,-1,-1,-1,-1,-1,-1,-1,-1,-1,-1,-1,-1,-1,-1,-1,-1],"loss_changes":[6.820168E5,4.899903E4,1.1463322E5,6.0861562E3,1.016321E4,1.4970496E4,1.7492719E4,5.1584062E3,2.616817E3,3.0998794E3,2.5908857E3,3.1239453E3,3.6180938E3,1.4873594E3,2.925875E3,0E0,0E0,0E0,0E0,0E0,0E0,0E0,0E0,0E0,0E0,0E0,0E0,0E0,0E0,0E0,0E0],"parents":[2147483647,0,0,1,1,2,2,3,3,4,4,5,5,6,6,7,7,8,8,9,9,10,10,11,11,12,12,13,13,14,14],"right_children":[2,4,6,8,10,12,14,16,18,20,22,24,26,28,30,-1,-1,-1,-1,-1,-1,-1,-1,-1,-1,-1,-1,-1,-1,-1,-1],"split_conditions":[9.1E1,7.3E1,2.7E1,2.2E1,2.6E1,1.11E2,2.9E1,6.3E1,7.3E1,1.7E1,2.9E1,1.9E1,1.35E2,2.8E1,3E1,-2.6101558E-2,-1.8557062E-2,-4.6742125E-3,-3.6234993E-2,1.5953205E-3,-8.69236E-3,2.0003607E-2,6.304787E-2,2.0541046E-2,6.345635E-3,2.09419E-2,3.5521895E-2,3.2804623E-2,4.026765E-2,5.089202E-2,6.135386E-2],"split_indices":[8,8,11,11,11,8,11,8,8,11,11,11,8,11,11,0,0,0,0,0,0,0,0,0,0,0,0,0,0,0,0],"split_type":[0,0,0,0,0,0,0,0,0,0,0,0,0,0,0,0,0,0,0,0,0,0,0,0,0,0,0,0,0,0,0],"sum_hessian":[3.0072755E6,1.8489666E6,1.1583088E6,1.3694349E6,4.795317E5,5.905953E5,5.6771344E5,1.3069669E6,6.2468062E4,4.593147E5,2.0217004E4,3.5380144E5,2.367939E5,2.6911034E5,2.9860312E5,1.01530344E6,2.916634E5,5.501078E4,7.457282E3,9.141835E4,3.6789634E5,1.5721797E4,4.4952075E3,4.4304242E4,3.094972E5,1.8117922E5,5.5614684E4,1.2304868E5,1.4606166E5,1.975407E5,1.0106242E5],"tree_param":{"num_deleted":"0","num_feature":"3136","num_nodes":"31","size_leaf_vector":"1"}},{"base_weights":[2.0173256E-4,1.9155312E-1,-3.5165322E-1,-3.5690874E-2,4.6835047E-1,-2.2047079E-1,-5.6773865E-1,-2.8738028E-1,7.34125E-2,3.387046E-1,7.25528E-1,-2.7392784E-1,-3.6537973E-3,-4.5337725E-1,-6.2403744E-1,-2.196076E-2,-1.0172624E-2,6.788955E-3,-2.8171826E-3,2.1845894E-2,9.0101035E-3,3.173558E-2,4.7163486E-2,-3.467744E-2,-1.2926528E-2,5.9997286E-3,-8.2450565E-3,-2.4070844E-2,-1.7004024E-2,-2.9017696E-2,-3.5252254E-2],"categories":[],"categories_nodes":[],"categories_segments":[],"categories_sizes":[],"default_left":[0,1,0,0,0,1,0,0,0,0,0,0,0,1,0,0,0,0,0,0,0,0,0,0,0,0,0,0,0,0,0],"id":11,"left_children":[1,3,5,7,9,11,13,15,17,19,21,23,25,27,29,-1,-1,-1,-1,-1,-1,-1,-1,-1,-1,-1,-1,-1,-1,-1,-1],"loss_changes":[2.0281222E5,1.227304E5,3.007911E4,2.9423701E4,2.933E4,7.6528984E3,2.5805078E3,4.1289785E3,6.0489775E3,9.104336E3,5.8294844E3,3.4221133E3,2.6038494E3,4.1992578E2,9.501172E2,0E0,0E0,0E0,0E0,0E0,0E0,0E0,0E0,0E0,0E0,0E0,0E0,0E0,0E0,0E0,0E0],"parents":[2147483647,0,0,1,1,2,2,3,3,4,4,5,5,6,6,7,7,8,8,9,9,10,10,11,11,12,12,13,13,14,14],"right_children":[2,4,6,8,10,12,14,16,18,20,22,24,26,28,30,-1,-1,-1,-1,-1,-1,-1,-1,-1,-1,-1,-1,-1,-1,-1,-1],"split_conditions":[9.2E1,1.7E1,2.8E1,-1.41E2,1.65E2,1.05E2,2.9E1,-2.76E2,7E1,6.6E1,3.28E2,9.3E1,1.12E2,1.01E2,3E1,-2.196076E-2,-1.0172624E-2,6.788955E-3,-2.8171826E-3,2.1845894E-2,9.0101035E-3,3.173558E-2,4.7163486E-2,-3.467744E-2,-1.2926528E-2,5.9997286E-3,-8.2450565E-3,-2.4070844E-2,-1.7004024E-2,-2.9017696E-2,-3.5252254E-2],"split_indices":[8,2,11,2,2,2,11,2,8,8,2,8,8,2,11,0,0,0,0,0,0,0,0,0,0,0,0,0,0,0,0],"split_type":[0,0,0,0,0,0,0,0,0,0,0,0,0,0,0,0,0,0,0,0,0,0,0,0,0,0,0,0,0,0,0],"sum_hessian":[3.0123025E6,1.9511806E6,1.0611218E6,1.0715031E6,8.7967744E5,6.6027825E5,4.0084353E5,3.24021E5,7.474822E5,5.848505E5,2.9482697E5,5.296827E5,1.3059552E5,1.3223645E5,2.686071E5,1.15344836E5,2.0867616E5,5.0483562E5,2.4264656E5,3.610997E5,2.2375081E5,2.0805473E5,8.677225E4,1.8746314E4,5.109364E5,7.391554E4,5.667998E4,1.0599956E5,2.6236893E4,1.7451025E5,9.4096836E4],"tree_param":{"num_deleted":"0","num_feature":"3136","num_nodes":"31","size_leaf_vector":"1"}},{"base_weights":[5.3176115E-4,1.1844389E-1,-4.4641843E-1,4.25221E-1,-3.811334E-2,-3.323152E-1,-6.065972E-1,5.38339E-1,1.4061677E-1,6.1504845E-2,-2.5691882E-1,-1.5971632E-1,-3.7283307E-1,-5.599103E-1,-6.9987667E-1,2.1719323E-2,3.90799E-2,-3.3620305E-2,8.1917485E-3,6.6842027E-3,-5.770344E-3,-8.97223E-3,-2.0372292E-2,-2.163019E-3,-1.2467921E-2,-1.6312215E-2,-2.2677137E-2,-2.5143841E-2,-2.8860718E-2,-3.62108E-2,-3.493428E-2],"categories":[],"categories_nodes":[],"categories_segments":[],"categories_sizes":[],"default_left":[1,0,0,1,1,0,0,0,0,1,0,0,0,0,0,0,0,0,0,0,0,0,0,0,0,0,0,0,0,0,0],"id":12,"left_children":[1,3,5,7,9,11,13,15,17,19,21,23,25,27,29,-1,-1,-1,-1,-1,-1,-1,-1,-1,-1,-1,-1,-1,-1,-1,-1],"loss_changes":[1.5851025E5,1.1430162E5,1.1474945E4,2.58885E4,3.4346457E4,2.5641367E3,1.1370625E3,1.4550906E4,4.3174956E3,1.3826346E4,5.7488984E3,7.2773425E2,1.1164336E3,1.715039E2,2.0234375E0,0E0,0E0,0E0,0E0,0E0,0E0,0E0,0E0,0E0,0E0,0E0,0E0,0E0,0E0,0E0,0E0],"parents":[2147483647,0,0,1,1,2,2,3,3,4,4,5,5,6,6,7,7,8,8,9,9,10,10,11,11,12,12,13,13,14,14],"right_children":[2,4,6,8,10,12,14,16,18,20,22,24,26,28,30,-1,-1,-1,-1,-1,-1,-1,-1,-1,-1,-1,-1,-1,-1,-1,-1],"split_conditions":[2.6E1,-5.5E1,2.9E1,8.1E1,1.09E2,-1.12E2,3E1,2.24E2,8.2E1,8.3E1,2.46E2,1.17E2,2.8E1,-8.5E1,9.5E1,2.1719323E-2,3.90799E-2,-3.3620305E-2,8.1917485E-3,6.6842027E-3,-5.770344E-3,-8.97223E-3,-2.0372292E-2,-2.163019E-3,-1.2467921E-2,-1.6312215E-2,-2.2677137E-2,-2.5143841E-2,-2.8860718E-2,-3.62108E-2,-3.493428E-2],"split_indices":[11,2,11,14,3,2,11,3,14,14,3,14,11,2,14,0,0,0,0,0,0,0,0,0,0,0,0,0,0,0,0],"split_type":[0,0,0,0,0,0,0,0,0,0,0,0,0,0,0,0,0,0,0,0,0,0,0,0,0,0,0,0,0,0,0],"sum_hessian":[3.007734E6,2.3798855E6,6.2784856E5,8.0414506E5,1.5757405E6,3.66661E5,2.6118756E5,5.754338E5,2.2871122E5,1.0827738E6,4.9296666E5,6.97107E4,2.9695028E5,1.740711E5,8.711648E4,4.031552E5,1.7227861E5,6.3493843E3,2.2236184E5,7.69018E5,3.1375578E5,3.2545938E5,1.6750728E5,3.0321232E4,3.9389473E4,1.8827536E5,1.0867494E5,4.0526664E4,1.3354442E5,4.0362126E3,8.3080266E4],"tree_param":{"num_deleted":"0","num_feature":"3136","num_nodes":"31","size_leaf_vector":"1"}},{"base_weights":[-8.91034E-4,-3.6731163E-1,5.717159E-1,-4.623828E-1,-9.843207E-2,2.791406E-1,8.7434405E-1,-4.765809E-1,-1.6590023E-1,-1.281579E-1,5.697724E-1,1.5449388E-1,4.6449438E-1,7.0098436E-1,1.030067E0,-2.5640858E-2,-1.8336523E-2,-4.55543E-3,-3.5921477E-2,1.7164442E-3,-8.434452E-3,1.5888112E-2,5.2695867E-2,1.9900186E-2,5.968054E-3,1.9919632E-2,3.3949416E-2,3.1366635E-2,3.8141143E-2,4.814952E-2,5.8030188E-2],"categories":[],"categories_nodes":[],"categories_segments":[],"categories_sizes":[],"default_left":[1,1,0,0,0,0,0,0,0,0,0,0,0,0,0,0,0,0,0,0,0,0,0,0,0,0,0,0,0,0,0],"id":13,"left_children":[1,3,5,7,9,11,13,15,17,19,21,23,25,27,29,-1,-1,-1,-1,-1,-1,-1,-1,-1,-1,-1,-1,-1,-1,-1,-1],"loss_changes":[6.293197E5,4.6754047E4,1.0362925E5,5.687875E3,9.490021E3,1.3748695E4,1.5530625E4,5.1326562E3,2.551831E3,3.0124956E3,2.482454E3,3.044003E3,3.3922812E3,1.2394688E3,2.6525625E3,0E0,0E0,0E0,0E0,0E0,0E0,0E0,0E0,0E0,0E0,0E0,0E0,0E0,0E0,0E0,0E0],"parents":[2147483647,0,0,1,1,2,2,3,3,4,4,5,5,6,6,7,7,8,8,9,9,10,10,11,11,12,12,13,13,14,14],"right_children":[2,4,6,8,10,12,14,16,18,20,22,24,26,28,30,-1,-1,-1,-1,-1,-1,-1,-1,-1,-1,-1,-1,-1,-1,-1,-1],"split_conditions":[9.1E1,7.3E1,2.7E1,2.2E1,2.6E1,1.11E2,2.9E1,6.2E1,7.3E1,1.7E1,2.8E1,1.9E1,1.35E2,2.8E1,3E1,-2.5640858E-2,-1.8336523E-2,-4.55543E-3,-3.5921477E-2,1.7164442E-3,-8.434452E-3,1.5888112E-2,5.2695867E-2,1.9900186E-2,5.968054E-3,1.9919632E-2,3.3949416E-2,3.1366635E-2,3.8141143E-2,4.814952E-2,5.8030188E-2],"split_indices":[8,8,11,11,11,8,11,8,8,11,11,11,8,11,11,0,0,0,0,0,0,0,0,0,0,0,0,0,0,0,0],"split_type":[0,0,0,0,0,0,0,0,0,0,0,0,0,0,0,0,0,0,0,0,0,0,0,0,0,0,0,0,0,0,0],"sum_hessian":[2.9994015E6,1.8289966E6,1.1704048E6,1.3512258E6,4.7777088E5,5.950874E5,5.753174E5,1.2894742E6,6.1751527E4,4.5742272E5,2.0348154E4,3.5581244E5,2.3927492E5,2.7224456E5,3.030728E5,9.696224E5,3.198519E5,5.4390293E4,7.361231E3,9.132136E4,3.6610134E5,1.3383398E4,6.964755E3,4.4861516E4,3.109509E5,1.8290956E5,5.636536E4,1.2425909E5,1.4798547E5,2.0020533E5,1.02867484E5],"tree_param":{"num_deleted":"0","num_feature":"3136","num_nodes":"31","size_leaf_vector":"1"}},{"base_weights":[2.6411866E-4,1.7751494E-1,-3.5386175E-1,-9.273377E-3,4.796787E-1,-2.256195E-1,-5.553647E-1,1.0719914E-1,-2.4116382E-1,3.72609E-1,7.4297494E-1,-2.772057E-1,-2.1321457E-2,-4.402522E-1,-6.1197406E-1,8.807189E-3,-1.3430045E-3,-7.760988E-3,-2.0064557E-2,2.2656122E-2,7.493844E-3,4.09447E-2,2.4930457E-2,-3.5018947E-2,-1.3035829E-2,2.9948757E-3,-1.16949845E-2,-2.3429273E-2,-1.616035E-2,-2.8404295E-2,-3.468187E-2],"categories":[],"categories_nodes":[],"categories_segments":[],"categories_sizes":[],"default_left":[0,1,0,1,0,1,0,0,0,0,0,0,0,1,0,0,0,0,0,0,0,0,0,0,0,0,0,0,0,0,0],"id":14,"left_children":[1,3,5,7,9,11,13,15,17,19,21,23,25,27,29,-1,-1,-1,-1,-1,-1,-1,-1,-1,-1,-1,-1,-1,-1,-1,-1],"loss_changes":[1.887564E5,1.13110516E5,2.5921031E4,3.3449832E4,2.1582422E4,6.46016E3,2.5418984E3,7.619669E3,5.6984375E3,9.760172E3,4.1056016E3,3.414746E3,2.1336287E3,4.263457E2,9.368672E2,0E0,0E0,0E0,0E0,0E0,0E0,0E0,0E0,0E0,0E0,0E0,0E0,0E0,0E0,0E0,0E0],"parents":[2147483647,0,0,1,1,2,2,3,3,4,4,5,5,6,6,7,7,8,8,9,9,10,10,11,11,12,12,13,13,14,14],"right_children":[2,4,6,8,10,12,14,16,18,20,22,24,26,28,30,-1,-1,-1,-1,-1,-1,-1,-1,-1,-1,-1,-1,-1,-1,-1,-1],"split_conditions":[9.4E1,4E1,2.8E1,1.12E2,2.08E2,1.03E2,2.9E1,7E1,2.49E2,7.4E1,7.2E1,9.5E1,1.22E2,1.03E2,3E1,8.807189E-3,-1.3430045E-3,-7.760988E-3,-2.0064557E-2,2.2656122E-2,7.493844E-3,4.09447E-2,2.4930457E-2,-3.5018947E-2,-1.3035829E-2,2.9948757E-3,-1.16949845E-2,-2.3429273E-2,-1.616035E-2,-2.8404295E-2,-3.468187E-2],"split_indices":[8,2,11,3,2,2,11,8,3,8,8,8,8,2,11,0,0,0,0,0,0,0,0,0,0,0,0,0,0,0,0],"split_type":[0,0,0,0,0,0,0,0,0,0,0,0,0,0,0,0,0,0,0,0,0,0,0,0,0,0,0,0,0,0,0],"sum_hessian":[3.0071528E6,2.0040599E6,1.0030928E6,1.2384742E6,7.655857E5,6.129782E5,3.9011462E5,8.244001E5,4.1407412E5,5.4426294E5,2.2132272E5,4.894016E5,1.23576586E5,1.2860693E5,2.615077E5,5.4441525E5,2.7998488E5,2.694539E5,1.446202E5,3.9975722E5,1.4450573E5,1.6885947E5,5.2463242E4,1.835298E4,4.7104862E5,8.941489E4,3.4161695E4,1.03539945E5,2.5066986E4,1.700995E5,9.14082E4],"tree_param":{"num_deleted":"0","num_feature":"3136","num_nodes":"31","size_leaf_vector":"1"}},{"base_weights":[1.1532938E-3,1.4865895E-1,-3.3322635E-1,3.9388373E-1,-5.477104E-2,-2.2427723E-1,-4.2532647E-1,6.331954E-1,2.8166714E-1,3.6828693E-2,-2.886642E-1,-6.947732E-1,-1.9851108E-1,-3.0773133E-1,-4.5170048E-1,4.096039E-2,2.759713E-2,1.741978E-2,5.7143862E-3,4.1170972E-3,-3.8500994E-3,-1.1193878E-2,-2.2889247E-2,-3.5546053E-2,-3.3954278E-2,2.298237E-2,-1.1917693E-2,-3.4879453E-2,-1.4713784E-2,-3.4995537E-2,-2.2091148E-2],"categories":[],"categories_nodes":[],"categories_segments":[],"categories_sizes":[],"default_left":[1,0,0,0,1,0,0,0,1,1,0,0,0,0,0,0,0,0,0,0,0,0,0,0,0,0,0,0,0,0,0],"id":15,"left_children":[1,3,5,7,9,11,13,15,17,19,21,23,25,27,29,-1,-1,-1,-1,-1,-1,-1,-1,-1,-1,-1,-1,-1,-1,-1,-1],"loss_changes":[1.4803947E5,1.03897375E5,9.218789E3,2.5359797E4,2.4388748E4,5.102084E3,1.5439688E3,4.555758E3,7.1803164E3,4.2379116E3,3.5099434E3,5.053711E0,1.0463688E4,4.7825586E2,9.9671094E2,0E0,0E0,0E0,0E0,0E0,0E0,0E0,0E0,0E0,0E0,0E0,0E0,0E0,0E0,0E0,0E0],"parents":[2147483647,0,0,1,1,2,2,3,3,4,4,5,5,6,6,7,7,8,8,9,9,10,10,11,11,12,12,13,13,14,14],"right_children":[2,4,6,8,10,12,14,16,18,20,22,24,26,28,30,-1,-1,-1,-1,-1,-1,-1,-1,-1,-1,-1,-1,-1,-1,-1,-1],"split_conditions":[9.7E1,-1.7E1,1.17E2,-1.72E2,1.48E2,9.8E1,-1.12E2,-3.31E2,7.5E1,7.5E1,3.14E2,2.4E2,9.9E1,1.18E2,1.18E2,4.096039E-2,2.759713E-2,1.741978E-2,5.7143862E-3,4.1170972E-3,-3.8500994E-3,-1.1193878E-2,-2.2889247E-2,-3.5546053E-2,-3.3954278E-2,2.298237E-2,-1.1917693E-2,-3.4879453E-2,-1.4713784E-2,-3.4995537E-2,-2.2091148E-2],"split_indices":[8,2,8,2,2,8,2,2,8,8,2,4,8,8,8,0,0,0,0,0,0,0,0,0,0,0,0,0,0,0,0],"split_type":[0,0,0,0,0,0,0,0,0,0,0,0,0,0,0,0,0,0,0,0,0,0,0,0,0,0,0,0,0,0,0],"sum_hessian":[3.0014335E6,2.0826915E6,9.1874194E5,9.4433794E5,1.1383536E6,4.2087484E5,4.9786706E5,3.014547E5,6.4288325E5,8.180004E5,3.203532E5,2.1850658E4,3.990242E5,9.120761E4,4.0665947E5,9.164422E4,2.0981047E5,4.5963966E5,1.832436E5,5.8435594E5,2.3364444E5,2.3162486E5,8.8728336E4,1.0745557E4,1.1105101E4,2.2776188E4,3.76248E5,3.0412415E3,8.816637E4,1.5561005E4,3.9109844E5],"tree_param":{"num_deleted":"0","num_feature":"3136","num_nodes":"31","size_leaf_vector":"1"}},{"base_weights":[-1.4144628E-3,-3.457414E-1,5.636893E-1,-4.4753462E-1,-6.625664E-2,2.837774E-1,8.318127E-1,-4.6219707E-1,-1.5459493E-1,-9.41107E-2,7.68776E-1,1.8890457E-1,4.9304152E-1,6.691544E-1,9.7743E-1,-2.4981497E-2,-1.7179241E-2,-4.1947095E-3,-3.5622098E-2,-8.580766E-3,-6.437196E-4,2.5847336E-2,5.7240903E-2,2.2068204E-2,7.971431E-3,2.2210537E-2,3.815661E-2,3.0374676E-2,3.6890462E-2,4.5717366E-2,5.5065393E-2],"categories":[],"categories_nodes":[],"categories_segments":[],"categories_sizes":[],"default_left":[1,1,0,0,0,0,0,0,0,0,0,0,0,0,0,0,0,0,0,0,0,0,0,0,0,0,0,0,0,0,0],"id":16,"left_children":[1,3,5,7,9,11,13,15,17,19,21,23,25,27,29,-1,-1,-1,-1,-1,-1,-1,-1,-1,-1,-1,-1,-1,-1,-1,-1],"loss_changes":[5.8169956E5,5.2848766E4,8.494853E4,5.8486562E3,1.1535356E4,1.0994141E4,1.36924375E4,5.7574375E3,2.5599429E3,3.021791E3,1.5154678E3,2.835337E3,2.277914E3,1.1556016E3,2.3826875E3,0E0,0E0,0E0,0E0,0E0,0E0,0E0,0E0,0E0,0E0,0E0,0E0,0E0,0E0,0E0,0E0],"parents":[2147483647,0,0,1,1,2,2,3,3,4,4,5,5,6,6,7,7,8,8,9,9,10,10,11,11,12,12,13,13,14,14],"right_children":[2,4,6,8,10,12,14,16,18,20,22,24,26,28,30,-1,-1,-1,-1,-1,-1,-1,-1,-1,-1,-1,-1,-1,-1,-1,-1],"split_conditions":[9.3E1,7.4E1,2.7E1,2.2E1,2.7E1,1.17E2,2.9E1,6.3E1,7.4E1,8.3E1,2.9E1,1.9E1,1.47E2,1.27E2,3E1,-2.4981497E-2,-1.7179241E-2,-4.1947095E-3,-3.5622098E-2,-8.580766E-3,-6.437196E-4,2.5847336E-2,5.7240903E-2,2.2068204E-2,7.971431E-3,2.2210537E-2,3.815661E-2,3.0374676E-2,3.6890462E-2,4.5717366E-2,5.5065393E-2],"split_indices":[8,8,11,11,11,8,11,8,8,8,11,11,8,8,11,0,0,0,0,0,0,0,0,0,0,0,0,0,0,0,0],"split_type":[0,0,0,0,0,0,0,0,0,0,0,0,0,0,0,0,0,0,0,0,0,0,0,0,0,0,0,0,0,0,0],"sum_hessian":[2.989505E6,1.8576245E6,1.1318805E6,1.3616772E6,4.959473E5,5.5376756E5,5.781129E5,1.2967698E6,6.490746E4,4.7993897E5,1.600836E4,3.8102603E5,1.7274155E5,2.7308056E5,3.0503234E5,9.856919E5,3.110779E5,5.7607516E4,7.299946E3,2.4561011E5,2.3432886E5,9.589082E3,6.4192783E3,3.9834266E4,3.4119175E5,1.4629492E5,2.6446625E4,1.4387348E5,1.2920707E5,2.0211634E5,1.0291601E5],"tree_param":{"num_deleted":"0","num_feature":"3136","num_nodes":"31","size_leaf_vector":"1"}},{"base_weights":[7.6469505E-4,1.711517E-1,-3.4415305E-1,-4.577665E-2,4.1069853E-1,-2.1862568E-1,-5.437345E-1,5.4445833E-2,-2.7453488E-1,3.0562544E-1,6.7297524E-1,-3.0173495E-1,-9.5287606E-2,-4.302376E-1,-6.002039E-1,5.594751E-3,-3.7519417E-3,-2.2304412E-2,-1.033335E-2,1.9822842E-2,7.2661242E-3,3.840556E-2,2.4099367E-2,-3.467967E-2,-1.42918825E-2,-2.622968E-4,-1.19119845E-2,-2.2794038E-2,-1.5488996E-2,-2.7798716E-2,-3.415027E-2],"categories":[],"categories_nodes":[],"categories_segments":[],"categories_sizes":[],"default_left":[0,1,0,1,0,1,0,0,0,0,0,0,0,1,0,0,0,0,0,0,0,0,0,0,0,0,0,0,0,0,0],"id":17,"left_children":[1,3,5,7,9,11,13,15,17,19,21,23,25,27,29,-1,-1,-1,-1,-1,-1,-1,-1,-1,-1,-1,-1,-1,-1,-1,-1],"loss_changes":[1.762952E5,1.0433903E5,2.4849484E4,2.4157707E4,2.6295812E4,6.241635E3,2.4542578E3,5.450336E3,3.737332E3,9.919621E3,4.958703E3,2.2659766E3,3.1552239E3,3.9290234E2,9.361797E2,0E0,0E0,0E0,0E0,0E0,0E0,0E0,0E0,0E0,0E0,0E0,0E0,0E0,0E0,0E0,0E0],"parents":[2147483647,0,0,1,1,2,2,3,3,4,4,5,5,6,6,7,7,8,8,9,9,10,10,11,11,12,12,13,13,14,14],"right_children":[2,4,6,8,10,12,14,16,18,20,22,24,26,28,30,-1,-1,-1,-1,-1,-1,-1,-1,-1,-1,-1,-1,-1,-1,-1,-1],"split_conditions":[9.4E1,1.1E1,2.8E1,1.44E2,1.81E2,2.5E1,2.9E1,7.2E1,-3.05E2,6.8E1,6.6E1,9.5E1,1.16E2,1.15E2,3E1,5.594751E-3,-3.7519417E-3,-2.2304412E-2,-1.033335E-2,1.9822842E-2,7.2661242E-3,3.840556E-2,2.4099367E-2,-3.467967E-2,-1.42918825E-2,-2.622968E-4,-1.19119845E-2,-2.2794038E-2,-1.5488996E-2,-2.7798716E-2,-3.415027E-2],"split_indices":[8,2,11,3,3,2,11,8,2,8,8,8,8,2,11,0,0,0,0,0,0,0,0,0,0,0,0,0,0,0,0],"split_type":[0,0,0,0,0,0,0,0,0,0,0,0,0,0,0,0,0,0,0,0,0,0,0,0,0,0,0,0,0,0,0],"sum_hessian":[2.999772E6,2.007889E6,9.9188294E5,1.0536908E6,9.541983E5,6.0890956E5,3.8297334E5,7.326892E5,3.2100156E5,6.8127044E5,2.7292788E5,3.6378066E5,2.4512889E5,1.27241375E5,2.5573197E5,5.075166E5,2.2517258E5,9.099161E4,2.3000994E5,4.3486462E5,2.4640583E5,1.8217758E5,9.07503E4,1.4181184E4,3.495995E5,1.5039817E5,9.473073E4,1.0490606E5,2.233531E4,1.6669647E5,8.90355E4],"tree_param":{"num_deleted":"0","num_feature":"3136","num_nodes":"31","size_leaf_vector":"1"}},{"base_weights":[1.131521E-3,1.10279486E-1,-4.2519298E-1,4.1388848E-1,-2.4339553E-2,-3.126361E-1,-5.858906E-1,5.0981086E-1,1.3642773E-1,7.102271E-2,-2.3113495E-1,-1.4635237E-1,-3.5283947E-1,-5.383485E-1,-6.813486E-1,2.0905329E-2,3.600816E-2,-3.4374624E-2,8.04018E-3,6.7864964E-3,-5.396266E-3,-8.503901E-3,-2.0605212E-2,-3.6589203E-3,-1.41065745E-2,-1.5374059E-2,-2.1608852E-2,-2.2931198E-2,-2.756621E-2,-3.517702E-2,-3.4013208E-2],"categories":[],"categories_nodes":[],"categories_segments":[],"categories_sizes":[],"default_left":[1,0,0,1,1,0,0,0,0,1,0,0,0,0,0,0,0,0,0,0,0,0,0,0,0,0,0,0,0,0,0],"id":18,"left_children":[1,3,5,7,9,11,13,15,17,19,21,23,25,27,29,-1,-1,-1,-1,-1,-1,-1,-1,-1,-1,-1,-1,-1,-1,-1,-1],"loss_changes":[1.3938361E5,9.747204E4,1.1043555E4,1.949779E4,3.2583018E4,2.4003906E3,1.1410078E3,1.0501141E4,3.7799966E3,1.3093667E4,5.761713E3,6.9460095E2,1.0404336E3,1.7342578E2,1.53125E0,0E0,0E0,0E0,0E0,0E0,0E0,0E0,0E0,0E0,0E0,0E0,0E0,0E0,0E0,0E0,0E0],"parents":[2147483647,0,0,1,1,2,2,3,3,4,4,5,5,6,6,7,7,8,8,9,9,10,10,11,11,12,12,13,13,14,14],"right_children":[2,4,6,8,10,12,14,16,18,20,22,24,26,28,30,-1,-1,-1,-1,-1,-1,-1,-1,-1,-1,-1,-1,-1,-1,-1,-1],"split_conditions":[2.6E1,-6.9E1,2.9E1,8.3E1,1E2,-1.1E2,3E1,2.36E2,8.4E1,8.5E1,2.73E2,2.8E1,2.8E1,-1.38E2,9.5E1,2.0905329E-2,3.600816E-2,-3.4374624E-2,8.04018E-3,6.7864964E-3,-5.396266E-3,-8.503901E-3,-2.0605212E-2,-3.6589203E-3,-1.41065745E-2,-1.5374059E-2,-2.1608852E-2,-2.2931198E-2,-2.756621E-2,-3.517702E-2,-3.4013208E-2],"split_indices":[11,2,11,8,3,2,11,3,8,8,2,11,11,2,8,0,0,0,0,0,0,0,0,0,0,0,0,0,0,0,0],"split_type":[0,0,0,0,0,0,0,0,0,0,0,0,0,0,0,0,0,0,0,0,0,0,0,0,0,0,0,0,0,0,0],"sum_hessian":[2.9954045E6,2.3848372E6,6.105673E5,7.3259625E5,1.652241E6,3.5906884E5,2.5149844E5,5.443911E5,1.8820511E5,1.130787E6,5.2145394E5,6.991215E4,2.891567E5,1.6788922E5,8.360922E4,3.7911622E5,1.6527489E5,5.4073076E3,1.8279781E5,8.304855E5,3.003015E5,3.8990603E5,1.3154789E5,4.5430383E4,2.4481764E4,1.8397866E5,1.0517805E5,2.3505385E4,1.4438384E5,3.865191E3,7.974403E4],"tree_param":{"num_deleted":"0","num_feature":"3136","num_nodes":"31","size_leaf_vector":"1"}},{"base_weights":[-2.3127531E-3,-3.6014473E-1,5.0169075E-1,-4.4873717E-1,-1.3014495E-1,2.3627537E-1,7.922409E-1,-1.8383968E-1,-4.6685317E-1,-1.5065385E-1,5.150516E-1,1.002498E-1,3.945167E-1,6.3426584E-1,9.349869E-1,-6.631305E-3,-3.5330035E-2,-2.5150418E-2,-1.8106295E-2,-3.8525517E-4,-9.659494E-3,1.4842256E-2,4.902369E-2,1.5360939E-2,3.2208965E-3,1.7037299E-2,3.1025633E-2,2.827659E-2,3.4609437E-2,4.3645993E-2,5.2829165E-2],"categories":[],"categories_nodes":[],"categories_segments":[],"categories_sizes":[],"default_left":[1,1,0,1,0,0,0,0,0,0,0,0,0,0,0,0,0,0,0,0,0,0,0,0,0,0,0,0,0,0,0],"id":19,"left_children":[1,3,5,7,9,11,13,15,17,19,21,23,25,27,29,-1,-1,-1,-1,-1,-1,-1,-1,-1,-1,-1,-1,-1,-1,-1,-1],"loss_changes":[5.366831E5,3.5459906E4,9.5281E4,6.0289375E3,6.4034873E3,1.3898676E4,1.33005625E4,2.152979E3,4.4523438E3,2.8518389E3,1.513823E3,2.575051E3,3.6268906E3,1.1143281E3,2.337625E3,0E0,0E0,0E0,0E0,0E0,0E0,0E0,0E0,0E0,0E0,0E0,0E0,0E0,0E0,0E0,0E0],"parents":[2147483647,0,0,1,1,2,2,3,3,4,4,5,5,6,6,7,7,8,8,9,9,10,10,11,11,12,12,13,13,14,14],"right_children":[2,4,6,8,10,12,14,16,18,20,22,24,26,28,30,-1,-1,-1,-1,-1,-1,-1,-1,-1,-1,-1,-1,-1,-1,-1,-1],"split_conditions":[8.9E1,7.1E1,2.7E1,3E0,2.6E1,1.07E2,2.9E1,7.1E1,6.1E1,1.7E1,2.8E1,1.9E1,1.35E2,2.8E1,3E1,-6.631305E-3,-3.5330035E-2,-2.5150418E-2,-1.8106295E-2,-3.8525517E-4,-9.659494E-3,1.4842256E-2,4.902369E-2,1.5360939E-2,3.2208965E-3,1.7037299E-2,3.1025633E-2,2.827659E-2,3.4609437E-2,4.3645993E-2,5.2829165E-2],"split_indices":[8,8,11,11,11,8,11,8,8,11,11,11,8,11,11,0,0,0,0,0,0,0,0,0,0,0,0,0,0,0,0],"split_type":[0,0,0,0,0,0,0,0,0,0,0,0,0,0,0,0,0,0,0,0,0,0,0,0,0,0,0,0,0,0,0],"sum_hessian":[2.9758082E6,1.74026E6,1.2355481E6,1.2563371E6,4.8392294E5,6.457041E5,5.89844E5,8.042019E4,1.1759169E6,4.6901512E5,1.4907837E4,3.4722672E5,2.984774E5,2.7998922E5,3.098548E5,7.324574E4,7.174447E3,8.741341E5,3.0178278E5,1.0755649E5,3.6145862E5,1.0150541E4,4.7572964E3,5.1241625E4,2.959851E5,2.4111252E5,5.7364883E4,1.2804992E5,1.519393E5,2.0514817E5,1.04706625E5],"tree_param":{"num_deleted":"0","num_feature":"3136","num_nodes":"31","size_leaf_vector":"1"}},{"base_weights":[1.1460457E-3,1.6441044E-1,-3.3423108E-1,4.8055197E-3,4.6391833E-1,-2.120435E-1,-5.313949E-1,1.1605616E-1,-2.1209478E-1,3.6845315E-1,6.952076E-1,-2.9010653E-1,-8.4509894E-2,-4.1923103E-1,-5.878103E-1,9.3104355E-3,-1.6001594E-4,-6.533686E-3,-1.8693944E-2,2.2110386E-2,8.016161E-3,3.7548777E-2,2.2195742E-2,-3.4132794E-2,-1.3729751E-2,1.9587661E-4,-1.12950085E-2,-2.2351807E-2,-1.5418376E-2,-2.717048E-2,-3.3596348E-2],"categories":[],"categories_nodes":[],"categories_segments":[],"categories_sizes":[],"default_left":[0,1,0,1,0,1,0,0,0,0,0,0,0,1,0,0,0,0,0,0,0,0,0,0,0,0,0,0,0,0,0],"id":20,"left_children":[1,3,5,7,9,11,13,15,17,19,21,23,25,27,29,-1,-1,-1,-1,-1,-1,-1,-1,-1,-1,-1,-1,-1,-1,-1,-1],"loss_changes":[1.6392384E5,9.625353E4,2.3614156E4,3.1696729E4,1.5455484E4,6.024879E3,2.3729219E3,7.263796E3,5.8661016E3,7.605789E3,2.8656484E3,2.2856016E3,2.8728872E3,3.867578E2,9.3158594E2,0E0,0E0,0E0,0E0,0E0,0E0,0E0,0E0,0E0,0E0,0E0,0E0,0E0,0E0,0E0,0E0],"parents":[2147483647,0,0,1,1,2,2,3,3,4,4,5,5,6,6,7,7,8,8,9,9,10,10,11,11,12,12,13,13,14,14],"right_children":[2,4,6,8,10,12,14,16,18,20,22,24,26,28,30,-1,-1,-1,-1,-1,-1,-1,-1,-1,-1,-1,-1,-1,-1,-1,-1],"split_conditions":[9.4E1,5.4E1,2.8E1,1.01E2,2.21E2,3.2E1,2.9E1,6.8E1,2.42E2,7.4E1,7.6E1,9.5E1,1.16E2,1.01E2,3E1,9.3104355E-3,-1.6001594E-4,-6.533686E-3,-1.8693944E-2,2.2110386E-2,8.016161E-3,3.7548777E-2,2.2195742E-2,-3.4132794E-2,-1.3729751E-2,1.9587661E-4,-1.12950085E-2,-2.2351807E-2,-1.5418376E-2,-2.717048E-2,-3.3596348E-2],"split_indices":[14,2,11,3,3,2,11,14,3,14,14,14,14,2,11,0,0,0,0,0,0,0,0,0,0,0,0,0,0,0,0],"split_type":[0,0,0,0,0,0,0,0,0,0,0,0,0,0,0,0,0,0,0,0,0,0,0,0,0,0,0,0,0,0,0],"sum_hessian":[2.9937598E6,2.0135481E6,9.8021156E5,1.3135636E6,6.9998456E5,6.0517244E5,3.7503912E5,8.6823594E5,4.4532766E5,4.9547762E5,2.0450692E5,3.7539356E5,2.2977886E5,1.2551043E5,2.495287E5,5.466619E5,3.2157406E5,2.962405E5,1.4908714E5,3.65836E5,1.2964164E5,1.6736305E5,3.7143883E4,1.4268108E4,3.6112544E5,1.4136698E5,8.8411875E4,1.0034131E5,2.516912E4,1.6332533E5,8.6203375E4],"tree_param":{"num_deleted":"0","num_feature":"3136","num_nodes":"31","size_leaf_vector":"1"}},{"base_weights":[1.5202649E-3,1.0604275E-1,-4.139454E-1,3.7463793E-1,-3.426335E-2,-3.0321667E-1,-5.7424355E-1,4.7689793E-1,1.4079615E-1,5.449086E-2,-2.3420303E-1,-2.016762E-1,-3.6653566E-1,-5.264591E-1,-6.712469E-1,1.8780982E-2,3.320045E-2,-3.4734182E-2,8.210648E-3,6.10994E-3,-4.8447987E-3,-8.7417625E-3,-2.0393549E-2,-6.8573975E-3,-1.594711E-2,-1.6265664E-2,-2.1927636E-2,-2.3454318E-2,-2.7220685E-2,-3.4541097E-2,-3.3513807E-2],"categories":[],"categories_nodes":[],"categories_segments":[],"categories_sizes":[],"default_left":[1,0,0,1,1,0,0,0,0,1,0,0,0,0,0,0,0,0,0,0,0,0,0,0,0,0,0,0,0,0,0],"id":21,"left_children":[1,3,5,7,9,11,13,15,17,19,21,23,25,27,29,-1,-1,-1,-1,-1,-1,-1,-1,-1,-1,-1,-1,-1,-1,-1,-1],"loss_changes":[1.29796195E5,8.999816E4,1.0663883E4,1.9594914E4,2.7837287E4,2.2846074E3,1.1373906E3,1.0803719E4,4.8778433E3,1.1135985E4,4.9722676E3,1.0327207E3,6.496035E2,1.6915625E2,1.078125E0,0E0,0E0,0E0,0E0,0E0,0E0,0E0,0E0,0E0,0E0,0E0,0E0,0E0,0E0,0E0,0E0],"parents":[2147483647,0,0,1,1,2,2,3,3,4,4,5,5,6,6,7,7,8,8,9,9,10,10,11,11,12,12,13,13,14,14],"right_children":[2,4,6,8,10,12,14,16,18,20,22,24,26,28,30,-1,-1,-1,-1,-1,-1,-1,-1,-1,-1,-1,-1,-1,-1,-1,-1],"split_conditions":[2.6E1,-5.5E1,2.9E1,7.9E1,1.09E2,-3.3E1,3E1,2.03E2,8E1,8.1E1,2.8E2,2.8E1,2.8E1,-8.3E1,9.5E1,1.8780982E-2,3.320045E-2,-3.4734182E-2,8.210648E-3,6.10994E-3,-4.8447987E-3,-8.7417625E-3,-2.0393549E-2,-6.8573975E-3,-1.594711E-2,-1.6265664E-2,-2.1927636E-2,-2.3454318E-2,-2.7220685E-2,-3.4541097E-2,-3.3513807E-2],"split_indices":[11,2,11,8,3,2,11,3,8,8,3,11,11,2,8,0,0,0,0,0,0,0,0,0,0,0,0,0,0,0,0],"split_type":[0,0,0,0,0,0,0,0,0,0,0,0,0,0,0,0,0,0,0,0,0,0,0,0,0,0,0,0,0,0,0],"sum_hessian":[2.9889372E6,2.3881335E6,6.008038E5,8.194385E5,1.568695E6,3.5534556E5,2.4545823E5,5.701211E5,2.493174E5,1.0864259E6,4.822691E5,1.3648228E5,2.1886327E5,1.6445373E5,8.1004516E4,3.6990453E5,2.0021658E5,6.796561E3,2.4252084E5,7.506825E5,3.3574344E5,3.5940856E5,1.2286054E5,8.8039E4,4.8443285E4,1.3919427E5,7.9669E4,3.9204766E4,1.2524896E5,3.7937559E3,7.721076E4],"tree_param":{"num_deleted":"0","num_feature":"3136","num_nodes":"31","size_leaf_vector":"1"}},{"base_weights":[-2.106294E-3,-3.5114577E-1,4.8052832E-1,-4.4639447E-1,-1.4277714E-1,2.2776645E-1,7.565843E-1,-1.7387521E-1,-4.6614015E-1,-1.6128972E-1,4.957249E-1,9.825751E-2,3.7806967E-1,6.058575E-1,8.928235E-1,-6.117501E-3,-3.5050463E-2,-2.4915783E-2,-1.901719E-2,-1.1808629E-2,-3.7253313E-3,1.4356072E-2,4.711569E-2,1.5058284E-2,3.1463846E-3,1.5240865E-2,2.6731143E-2,2.7833734E-2,3.4099955E-2,4.165356E-2,5.053336E-2],"categories":[],"categories_nodes":[],"categories_segments":[],"categories_sizes":[],"default_left":[1,1,0,1,0,0,0,0,0,0,0,0,0,0,0,0,0,0,0,0,0,0,0,0,0,0,0,0,0,0,0],"id":22,"left_children":[1,3,5,7,9,11,13,15,17,19,21,23,25,27,29,-1,-1,-1,-1,-1,-1,-1,-1,-1,-1,-1,-1,-1,-1,-1,-1],"loss_changes":[4.99428E5,3.4145656E4,8.681784E4,6.3535312E3,6.3798936E3,1.2643285E4,1.22118125E4,2.1665962E3,3.0390469E3,3.4086465E3,1.4165249E3,2.5011182E3,3.4473828E3,1.0569688E3,2.1986562E3,0E0,0E0,0E0,0E0,0E0,0E0,0E0,0E0,0E0,0E0,0E0,0E0,0E0,0E0,0E0,0E0],"parents":[2147483647,0,0,1,1,2,2,3,3,4,4,5,5,6,6,7,7,8,8,9,9,10,10,11,11,12,12,13,13,14,14],"right_children":[2,4,6,8,10,12,14,16,18,20,22,24,26,28,30,-1,-1,-1,-1,-1,-1,-1,-1,-1,-1,-1,-1,-1,-1,-1,-1],"split_conditions":[8.9E1,6.9E1,2.7E1,3E0,2.6E1,1.07E2,2.9E1,6.9E1,5.9E1,7.9E1,2.8E1,1.9E1,1.27E2,1.31E2,3E1,-6.117501E-3,-3.5050463E-2,-2.4915783E-2,-1.901719E-2,-1.1808629E-2,-3.7253313E-3,1.4356072E-2,4.711569E-2,1.5058284E-2,3.1463846E-3,1.5240865E-2,2.6731143E-2,2.7833734E-2,3.4099955E-2,4.165356E-2,5.053336E-2],"split_indices":[8,8,11,11,11,8,11,8,8,8,11,11,8,8,11,0,0,0,0,0,0,0,0,0,0,0,0,0,0,0,0],"split_type":[0,0,0,0,0,0,0,0,0,0,0,0,0,0,0,0,0,0,0,0,0,0,0,0,0,0,0,0,0,0,0],"sum_hessian":[2.9646918E6,1.7204611E6,1.2442306E6,1.1807295E6,5.397317E5,6.4952006E5,5.9471056E5,7.977172E4,1.1009578E6,5.245245E5,1.5207199E4,3.4889547E5,3.006246E5,2.8234575E5,3.1236478E5,7.266977E4,7.1019414E3,8.006803E5,3.002774E5,2.8156644E5,2.4295806E5,1.0366574E4,4.840625E3,5.173881E4,2.9715666E5,2.048001E5,9.582449E4,1.7154592E5,1.1079983E5,2.0727473E5,1.0509005E5],"tree_param":{"num_deleted":"0","num_feature":"3136","num_nodes":"31","size_leaf_vector":"1"}},{"base_weights":[8.1543135E-4,1.575156E-1,-3.2519826E-1,-6.0945254E-2,3.5750902E-1,-1.967944E-1,-4.097726E-1,2.5356077E-2,-2.825835E-1,2.5334877E-1,5.848344E-1,-6.754315E-1,-1.6698723E-1,-6.716009E-1,-3.9695758E-1,3.670523E-3,-5.0684814E-3,-1.08501725E-2,-2.1704495E-2,1.5925968E-2,3.798573E-3,3.2578543E-2,1.7603697E-2,-3.186597E-2,-3.433499E-2,2.5232796E-2,-1.0555554E-2,-3.389674E-2,-1.4121798E-2,4.7066393E-3,-2.071029E-2],"categories":[],"categories_nodes":[],"categories_segments":[],"categories_sizes":[],"default_left":[0,1,0,1,0,0,1,0,0,0,0,0,0,1,0,0,0,0,0,0,0,0,0,0,0,0,0,0,0,0,0],"id":23,"left_children":[1,3,5,7,9,11,13,15,17,19,21,23,25,27,29,-1,-1,-1,-1,-1,-1,-1,-1,-1,-1,-1,-1,-1,-1,-1,-1],"loss_changes":[1.5264275E5,8.8167055E4,1.0533281E4,1.8447922E4,2.4945375E4,5.495087E3,1.961875E3,4.2273013E3,2.6854941E3,8.351707E3,5.142E3,9.258789E0,1.0745759E4,6.706348E1,4.7222734E3,0E0,0E0,0E0,0E0,0E0,0E0,0E0,0E0,0E0,0E0,0E0,0E0,0E0,0E0,0E0,0E0],"parents":[2147483647,0,0,1,1,2,2,3,3,4,4,5,5,6,6,7,7,8,8,9,9,10,10,11,11,12,12,13,13,14,14],"right_children":[2,4,6,8,10,12,14,16,18,20,22,24,26,28,30,-1,-1,-1,-1,-1,-1,-1,-1,-1,-1,-1,-1,-1,-1,-1,-1],"split_conditions":[9.4E1,-2E0,1.12E2,1.64E2,1.57E2,9.5E1,1.13E2,7.4E1,3.17E2,7.4E1,7.4E1,2.00001E0,9.6E1,4.35E2,1.14E2,3.670523E-3,-5.0684814E-3,-1.08501725E-2,-2.1704495E-2,1.5925968E-2,3.798573E-3,3.2578543E-2,1.7603697E-2,-3.186597E-2,-3.433499E-2,2.5232796E-2,-1.0555554E-2,-3.389674E-2,-1.4121798E-2,4.7066393E-3,-2.071029E-2],"split_indices":[14,2,14,3,3,14,14,14,3,14,14,3134,14,2,14,0,0,0,0,0,0,0,0,0,0,0,0,0,0,0,0],"split_type":[0,0,0,0,0,0,0,0,0,0,0,0,0,0,0,0,0,0,0,0,0,0,0,0,0,0,0,0,0,0,0],"sum_hessian":[2.9879312E6,2.0179794E6,9.6995175E5,9.6446075E5,1.0535186E6,3.8517238E5,5.847794E5,6.941673E5,2.7029344E5,7.224808E5,3.310378E5,2.2579182E4,3.6259322E5,2.7283742E4,5.574956E5,5.0331188E5,1.9085544E5,1.8864169E5,8.1651766E4,5.2835575E5,1.9412508E5,2.5727173E5,7.376607E4,5.1655645E3,1.7413617E4,2.2351615E4,3.402416E5,2.6846066E4,4.376759E2,1.8915975E4,5.385796E5],"tree_param":{"num_deleted":"0","num_feature":"3136","num_nodes":"31","size_leaf_vector":"1"}},{"base_weights":[1.4910604E-3,1.016822E-1,-4.033524E-1,1.605924E-1,-7.681987E-2,-2.9506058E-1,-5.62686E-1,1.4729999E-1,8.518958E-1,-7.018899E-1,-5.0965644E-2,-2.4643712E-1,-3.8208222E-1,-5.1455617E-1,-6.6099185E-1,7.960796E-3,-3.4851503E-2,3.8465243E-2,5.5179592E-2,-3.3032794E-2,-3.5723235E-2,3.6621913E-2,-4.29997E-3,-9.235655E-3,-1.5229694E-2,-1.855239E-2,-2.3999041E-2,-2.8769324E-2,-2.5298087E-2,-3.3953276E-2,-3.3004478E-2],"categories":[],"categories_nodes":[],"categories_segments":[],"categories_sizes":[],"default_left":[1,1,0,0,0,0,0,0,0,0,0,0,0,0,0,0,0,0,0,0,0,0,0,0,0,0,0,0,0,0,0],"id":24,"left_children":[1,3,5,7,9,11,13,15,17,19,21,23,25,27,29,-1,-1,-1,-1,-1,-1,-1,-1,-1,-1,-1,-1,-1,-1,-1,-1],"loss_changes":[1.2097711E5,2.5141248E4,1.0209172E4,1.65182E4,9.587365E3,1.4904727E3,1.1324766E3,1.774455E4,7.041074E2,1.1745117E1,1.5635579E4,8.112041E2,1.3623047E2,8.374219E1,8.359375E-1,0E0,0E0,0E0,0E0,0E0,0E0,0E0,0E0,0E0,0E0,0E0,0E0,0E0,0E0,0E0,0E0],"parents":[2147483647,0,0,1,1,2,2,3,3,4,4,5,5,6,6,7,7,8,8,9,9,10,10,11,11,12,12,13,13,14,14],"right_children":[2,4,6,8,10,12,14,16,18,20,22,24,26,28,30,-1,-1,-1,-1,-1,-1,-1,-1,-1,-1,-1,-1,-1,-1,-1,-1],"split_conditions":[2.6E1,8.5E1,2.9E1,8.4E1,8.6E1,2.8E1,3E1,8.3E1,8.5E1,2.00001E0,8.7E1,1.17E2,1.61E2,1.387E3,9.5E1,7.960796E-3,-3.4851503E-2,3.8465243E-2,5.5179592E-2,-3.3032794E-2,-3.5723235E-2,3.6621913E-2,-4.29997E-3,-9.235655E-3,-1.5229694E-2,-1.855239E-2,-2.3999041E-2,-2.8769324E-2,-2.5298087E-2,-3.3953276E-2,-3.3004478E-2],"split_indices":[11,8,11,8,8,11,11,8,8,3134,8,8,8,1,8,0,0,0,0,0,0,0,0,0,0,0,0,0,0,0,0],"split_type":[0,0,0,0,0,0,0,0,0,0,0,0,0,0,0,0,0,0,0,0,0,0,0,0,0,0,0,0,0,0,0],"sum_hessian":[2.9825415E6,2.3908515E6,5.9169E5,1.7975984E6,5.9325306E5,3.5227053E5,2.3941945E5,1.7636874E6,3.391109E4,2.3562527E4,5.696905E5,2.2599778E5,1.2627274E5,1.6073231E5,7.868713E4,1.7391438E6,2.4543537E4,2.5535865E4,8.375227E3,5.5189673E3,1.804356E4,2.4385121E4,5.453054E5,1.0963842E5,1.1635937E5,1.1348618E5,1.2786563E4,1.9889723E4,1.408426E5,3.706006E3,7.498113E4],"tree_param":{"num_deleted":"0","num_feature":"3136","num_nodes":"31","size_leaf_vector":"1"}},{"base_weights":[-3.069301E-3,-3.4268636E-1,4.5940122E-1,-4.362978E-1,-1.397485E-1,2.0851237E-1,5.935946E-1,-4.4898495E-1,-9.789861E-2,-2.2562088E-1,-4.53858E-2,1.2687595E-1,3.130473E-1,4.998025E-1,6.789965E-1,-2.7140662E-2,-2.0958716E-2,1.0540105E-3,-3.476986E-2,-1.7652212E-2,-8.75223E-3,-3.946573E-3,4.9212216E-3,7.01948E-3,-1.9891579E-3,2.7289694E-2,1.5174471E-2,2.2488533E-2,2.7216895E-2,3.2642554E-2,3.8625475E-2],"categories":[],"categories_nodes":[],"categories_segments":[],"categories_sizes":[],"default_left":[1,1,0,0,0,0,0,0,0,0,1,1,0,0,0,0,0,0,0,0,0,0,0,0,0,0,0,0,0,0,0],"id":25,"left_children":[1,3,5,7,9,11,13,15,17,19,21,23,25,27,29,-1,-1,-1,-1,-1,-1,-1,-1,-1,-1,-1,-1,-1,-1,-1,-1],"loss_changes":[4.6322825E5,3.230539E4,4.2043656E4,4.996203E3,4.3498057E3,3.7137207E3,6.5167188E3,3.1371562E3,2.9896602E3,1.811169E3,1.2338495E3,5.50334E2,4.2433984E2,8.637656E2,1.0406719E3,0E0,0E0,0E0,0E0,0E0,0E0,0E0,0E0,0E0,0E0,0E0,0E0,0E0,0E0,0E0,0E0],"parents":[2147483647,0,0,1,1,2,2,3,3,4,4,5,5,6,6,7,7,8,8,9,9,10,10,11,11,12,12,13,13,14,14],"right_children":[2,4,6,8,10,12,14,16,18,20,22,24,26,28,30,-1,-1,-1,-1,-1,-1,-1,-1,-1,-1,-1,-1,-1,-1,-1,-1],"split_conditions":[8.9E1,6.9E1,1.07E2,2.00001E0,7.9E1,9.9E1,1.25E2,2.00001E0,6.9E1,2.00001E0,2E0,2.94E2,1.249E3,1.15E2,1.55E2,-2.7140662E-2,-2.0958716E-2,1.0540105E-3,-3.476986E-2,-1.7652212E-2,-8.75223E-3,-3.946573E-3,4.9212216E-3,7.01948E-3,-1.9891579E-3,2.7289694E-2,1.5174471E-2,2.2488533E-2,2.7216895E-2,3.2642554E-2,3.8625475E-2],"split_indices":[8,8,8,10,8,8,8,3132,8,3132,5,3,1,8,8,0,0,0,0,0,0,0,0,0,0,0,0,0,0,0,0],"split_type":[0,0,0,0,0,0,0,0,0,0,0,0,0,0,0,0,0,0,0,0,0,0,0,0,0,0,0,0,0,0,0],"sum_hessian":[2.9493152E6,1.700527E6,1.2487884E6,1.1637224E6,5.368046E5,4.3517838E5,8.1361E5,1.1216688E6,4.205357E4,2.8104522E5,2.5575944E5,2.4435323E5,1.9082512E5,3.87761E5,4.25849E5,2.704419E5,8.512269E5,3.5070926E4,6.982646E3,7.985365E4,2.0119156E5,2.0738464E5,4.837479E4,2.2602594E5,1.8327285E4,7.525019E3,1.8330011E5,1.8261692E5,2.0514408E5,3.328068E5,9.304219E4],"tree_param":{"num_deleted":"0","num_feature":"3136","num_nodes":"31","size_leaf_vector":"1"}},{"base_weights":[8.9178816E-4,1.460763E-1,-3.2711905E-1,-1.2951611E-2,3.96485E-1,-2.0778956E-1,-5.11824E-1,8.497314E-2,-2.1559021E-1,3.132445E-1,6.2991494E-1,-2.6030105E-1,-3.4762055E-2,-3.995156E-1,-5.688874E-1,7.0129493E-3,-2.5102706E-3,-7.475818E-3,-1.9162877E-2,1.9322136E-2,6.1651315E-3,3.4299187E-2,1.9896023E-2,-3.4422558E-2,-1.2152127E-2,-3.4071878E-2,-8.006203E-4,-2.1368437E-2,-1.4458546E-2,-2.6158264E-2,-3.27976E-2],"categories":[],"categories_nodes":[],"categories_segments":[],"categories_sizes":[],"default_left":[0,1,0,1,0,1,0,0,0,0,0,0,0,1,0,0,0,0,0,0,0,0,0,0,0,0,0,0,0,0,0],"id":26,"left_children":[1,3,5,7,9,11,13,15,17,19,21,23,25,27,29,-1,-1,-1,-1,-1,-1,-1,-1,-1,-1,-1,-1,-1,-1,-1,-1],"loss_changes":[1.4192492E5,8.2266055E4,2.0153672E4,2.5071248E4,1.5590867E4,5.04726E3,2.2997578E3,6.3660454E3,4.5602695E3,8.223445E3,2.74325E3,3.1488828E3,1.5681952E3,3.715039E2,9.469531E2,0E0,0E0,0E0,0E0,0E0,0E0,0E0,0E0,0E0,0E0,0E0,0E0,0E0,0E0,0E0,0E0],"parents":[2147483647,0,0,1,1,2,2,3,3,4,4,5,5,6,6,7,7,8,8,9,9,10,10,11,11,12,12,13,13,14,14],"right_children":[2,4,6,8,10,12,14,16,18,20,22,24,26,28,30,-1,-1,-1,-1,-1,-1,-1,-1,-1,-1,-1,-1,-1,-1,-1,-1],"split_conditions":[9.6E1,4E1,2.8E1,1.12E2,2.21E2,8.8E1,2.9E1,7.4E1,2.72E2,7.4E1,7.6E1,9.7E1,9.7E1,1.01E2,3E1,7.0129493E-3,-2.5102706E-3,-7.475818E-3,-1.9162877E-2,1.9322136E-2,6.1651315E-3,3.4299187E-2,1.9896023E-2,-3.4422558E-2,-1.2152127E-2,-3.4071878E-2,-8.006203E-4,-2.1368437E-2,-1.4458546E-2,-2.6158264E-2,-3.27976E-2],"split_indices":[8,2,11,3,3,2,11,8,3,8,8,8,8,2,11,0,0,0,0,0,0,0,0,0,0,0,0,0,0,0,0],"split_type":[0,0,0,0,0,0,0,0,0,0,0,0,0,0,0,0,0,0,0,0,0,0,0,0,0,0,0,0,0,0,0],"sum_hessian":[2.9802308E6,2.0658449E6,9.1438594E5,1.2634575E6,8.023874E5,5.555028E5,3.5888312E5,8.518184E5,4.116392E5,5.9147225E5,2.1091512E5,4.2616656E5,1.2933625E5,1.209148E5,2.3796831E5,6.045622E5,2.4725617E5,2.9527856E5,1.163606E5,4.269404E5,1.6453184E5,1.6986092E5,4.105419E4,1.6511414E4,4.0965512E5,3.643305E3,1.25692945E5,9.654269E4,2.4372105E4,1.5603386E5,8.193446E4],"tree_param":{"num_deleted":"0","num_feature":"3136","num_nodes":"31","size_leaf_vector":"1"}},{"base_weights":[2.0891698E-3,9.849589E-2,-3.935085E-1,3.1334698E-1,-5.846696E-2,-2.8492126E-1,-5.5432326E-1,5.155874E-1,2.1741979E-1,1.5310567E-2,-2.6084507E-1,-1.2675494E-1,-3.2591593E-1,-5.055144E-1,-6.5444285E-1,2.9864421E-2,1.4645512E-2,1.4840855E-2,6.522046E-4,3.6510366E-3,-5.777839E-3,-1.0434385E-2,-2.1687815E-2,-8.4528895E-3,4.3418845E-3,-1.4094024E-2,-2.0187624E-2,-2.21011E-2,-2.6134092E-2,-3.350925E-2,-3.266945E-2],"categories":[],"categories_nodes":[],"categories_segments":[],"categories_sizes":[],"default_left":[1,0,0,0,1,0,0,1,1,1,0,0,0,0,0,0,0,0,0,0,0,0,0,0,0,0,0,0,0,0,0],"id":27,"left_children":[1,3,5,7,9,11,13,15,17,19,21,23,25,27,29,-1,-1,-1,-1,-1,-1,-1,-1,-1,-1,-1,-1,-1,-1,-1,-1],"loss_changes":[1.1350104E5,8.069713E4,1.0182992E4,1.9597562E4,2.0645402E4,2.257037E3,1.1482734E3,5.912422E3,1.1118295E4,7.6529663E3,3.3314473E3,6.4744617E2,9.4743164E2,1.7200781E2,8.3984375E-1,0E0,0E0,0E0,0E0,0E0,0E0,0E0,0E0,0E0,0E0,0E0,0E0,0E0,0E0,0E0,0E0],"parents":[2147483647,0,0,1,1,2,2,3,3,4,4,5,5,6,6,7,7,8,8,9,9,10,10,11,11,12,12,13,13,14,14],"right_children":[2,4,6,8,10,12,14,16,18,20,22,24,26,28,30,-1,-1,-1,-1,-1,-1,-1,-1,-1,-1,-1,-1,-1,-1,-1,-1],"split_conditions":[2.6E1,-2.8E1,2.9E1,-1.79E2,1.41E2,-1.05E2,3E1,7.9E1,8.3E1,8.1E1,3.24E2,2.94E2,2.8E1,-9.5E1,9.7E1,2.9864421E-2,1.4645512E-2,1.4840855E-2,6.522046E-4,3.6510366E-3,-5.777839E-3,-1.0434385E-2,-2.1687815E-2,-8.4528895E-3,4.3418845E-3,-1.4094024E-2,-2.0187624E-2,-2.21011E-2,-2.6134092E-2,-3.350925E-2,-3.266945E-2],"split_indices":[11,2,11,2,3,2,11,8,8,8,3,3,11,2,8,0,0,0,0,0,0,0,0,0,0,0,0,0,0,0,0],"split_type":[0,0,0,0,0,0,0,0,0,0,0,0,0,0,0,0,0,0,0,0,0,0,0,0,0,0,0,0,0,0,0],"sum_hessian":[2.9760382E6,2.3928935E6,5.831448E5,1.0101699E6,1.3827236E6,3.480996E5,2.350452E5,3.249928E5,6.8517706E5,1.0133169E6,3.6940672E5,7.16526E4,2.76447E5,1.5801706E5,7.702813E4,2.377572E5,8.72356E4,4.9346994E5,1.9170712E5,7.0321294E5,3.1010394E5,2.8380216E5,8.560454E4,5.9807668E4,1.1844931E4,1.7656256E5,9.988444E4,3.3637688E4,1.24379375E5,4.7930273E3,7.223511E4],"tree_param":{"num_deleted":"0","num_feature":"3136","num_nodes":"31","size_leaf_vector":"1"}},{"base_weights":[-3.0271257E-3,-3.3342665E-1,4.3968207E-1,-4.2671022E-1,-1.3333698E-1,2.032113E-1,6.98198E-1,-1.5764038E-1,-4.4643578E-1,-1.5110706E-1,4.728791E-1,8.4287204E-2,3.4022066E-1,5.5488056E-1,8.291119E-1,-5.356743E-3,-3.4244265E-2,-2.3958893E-2,-1.7973434E-2,-1.3833028E-2,-5.1204707E-3,1.613391E-2,5.2421924E-2,1.4149497E-2,2.4840115E-3,1.4544845E-2,2.738832E-2,2.650026E-2,3.3599194E-2,3.8493767E-2,4.7307502E-2],"categories":[],"categories_nodes":[],"categories_segments":[],"categories_sizes":[],"default_left":[1,1,0,1,0,0,0,0,0,0,0,0,0,0,0,0,0,0,0,0,0,0,0,0,0,0,0,0,0,0,0],"id":28,"left_children":[1,3,5,7,9,11,13,15,17,19,21,23,25,27,29,-1,-1,-1,-1,-1,-1,-1,-1,-1,-1,-1,-1,-1,-1,-1,-1],"loss_changes":[4.296366E5,3.1394281E4,7.673725E4,6.0885625E3,5.761419E3,1.0682078E4,1.1251031E4,2.086454E3,3.0432344E3,3.1768242E3,1.316375E3,2.4133862E3,3.1183672E3,8.3358594E2,2.1720938E3,0E0,0E0,0E0,0E0,0E0,0E0,0E0,0E0,0E0,0E0,0E0,0E0,0E0,0E0,0E0,0E0],"parents":[2147483647,0,0,1,1,2,2,3,3,4,4,5,5,6,6,7,7,8,8,9,9,10,10,11,11,12,12,13,13,14,14],"right_children":[2,4,6,8,10,12,14,16,18,20,22,24,26,28,30,-1,-1,-1,-1,-1,-1,-1,-1,-1,-1,-1,-1,-1,-1,-1,-1],"split_conditions":[8.9E1,6.9E1,2.7E1,3E0,2.6E1,1.07E2,2.9E1,6.9E1,5.9E1,2.00001E0,2.9E1,1.9E1,1.35E2,1.47E2,3E1,-5.356743E-3,-3.4244265E-2,-2.3958893E-2,-1.7973434E-2,-1.3833028E-2,-5.1204707E-3,1.613391E-2,5.2421924E-2,1.4149497E-2,2.4840115E-3,1.4544845E-2,2.738832E-2,2.650026E-2,3.3599194E-2,3.8493767E-2,4.7307502E-2],"split_indices":[8,8,11,11,11,8,11,8,8,3132,11,11,8,8,11,0,0,0,0,0,0,0,0,0,0,0,0,0,0,0,0],"split_type":[0,0,0,0,0,0,0,0,0,0,0,0,0,0,0,0,0,0,0,0,0,0,0,0,0,0,0,0,0,0,0],"sum_hessian":[2.9372645E6,1.6819809E6,1.2552835E6,1.1471624E6,5.3481844E5,6.5559594E5,5.996876E5,7.83551E4,1.0688072E6,5.1958844E5,1.5230006E4,3.5096238E5,3.046336E5,2.8628428E5,3.134033E5,7.150659E4,6.848512E3,7.7647075E5,2.9233656E5,1.452071E5,3.7438134E5,1.2079292E4,3.150714E3,5.2057395E4,2.9890497E5,2.4614016E5,5.8493438E4,2.3613042E5,5.0153867E4,2.0809019E5,1.0531313E5],"tree_param":{"num_deleted":"0","num_feature":"3136","num_nodes":"31","size_leaf_vector":"1"}},{"base_weights":[1.5767856E-3,1.4583965E-1,-3.0637094E-1,-4.7878344E-2,3.4278533E-1,-1.8851343E-1,-5.0244766E-1,3.0635461E-2,-2.6971978E-1,2.457234E-1,5.478712E-1,-2.7107447E-1,-7.6138645E-2,-3.8875857E-1,-5.6042874E-1,4.7918116E-3,-2.6826418E-3,-1.0427629E-2,-2.118122E-2,1.668596E-2,6.392336E-3,2.4091559E-2,3.796034E-2,-3.3336993E-2,-1.2766126E-2,-3.3599168E-2,-2.884282E-3,-2.0755453E-2,-1.3317759E-2,-2.568764E-2,-3.2457557E-2],"categories":[],"categories_nodes":[],"categories_segments":[],"categories_sizes":[],"default_left":[0,1,0,1,0,1,0,0,0,0,0,0,0,1,0,0,0,0,0,0,0,0,0,0,0,0,0,0,0,0,0],"id":29,"left_children":[1,3,5,7,9,11,13,15,17,19,21,23,25,27,29,-1,-1,-1,-1,-1,-1,-1,-1,-1,-1,-1,-1,-1,-1,-1,-1],"loss_changes":[1.3207239E5,7.723841E4,2.1916727E4,1.7776629E4,1.9983227E4,5.4957227E3,2.3468047E3,4.142753E3,2.511461E3,7.067867E3,4.5004453E3,2.1280723E3,2.7584355E3,3.8776953E2,9.761328E2,0E0,0E0,0E0,0E0,0E0,0E0,0E0,0E0,0E0,0E0,0E0,0E0,0E0,0E0,0E0,0E0],"parents":[2147483647,0,0,1,1,2,2,3,3,4,4,5,5,6,6,7,7,8,8,9,9,10,10,11,11,12,12,13,13,14,14],"right_children":[2,4,6,8,10,12,14,16,18,20,22,24,26,28,30,-1,-1,-1,-1,-1,-1,-1,-1,-1,-1,-1,-1,-1,-1,-1,-1],"split_conditions":[9.4E1,7E0,2.8E1,1.64E2,1.62E2,2E1,2.9E1,6.4E1,3.24E2,6.4E1,3.55E2,9.5E1,9.5E1,1.15E2,3E1,4.7918116E-3,-2.6826418E-3,-1.0427629E-2,-2.118122E-2,1.668596E-2,6.392336E-3,2.4091559E-2,3.796034E-2,-3.3336993E-2,-1.2766126E-2,-3.3599168E-2,-2.884282E-3,-2.0755453E-2,-1.3317759E-2,-2.568764E-2,-3.2457557E-2],"split_indices":[8,2,11,3,3,2,11,8,3,8,3,8,8,2,11,0,0,0,0,0,0,0,0,0,0,0,0,0,0,0,0],"split_type":[0,0,0,0,0,0,0,0,0,0,0,0,0,0,0,0,0,0,0,0,0,0,0,0,0,0,0,0,0,0,0],"sum_hessian":[2.972899E6,2.0244941E6,9.4840494E5,1.0206107E6,1.00388344E6,5.9235494E5,3.5604997E5,7.538205E5,2.6679022E5,6.8139744E5,3.2248597E5,3.4147444E5,2.5088053E5,1.2025738E5,2.357926E5,4.25036E5,3.287845E5,1.9091581E5,7.5874414E4,3.9014753E5,2.912499E5,2.457082E5,7.677778E4,1.3072445E4,3.28402E5,7.5351855E3,2.4334534E5,9.895284E4,2.1304543E4,1.5451214E5,8.1280445E4],"tree_param":{"num_deleted":"0","num_feature":"3136","num_nodes":"31","size_leaf_vector":"1"}},{"base_weights":[2.2050971E-3,9.475399E-2,-3.8361418E-1,2.898497E-1,-6.46998E-2,-2.7678075E-1,-5.4415834E-1,4.93205E-1,2.0121188E-1,7.976165E-3,-2.5344977E-1,-1.1950201E-1,-3.1761265E-1,-4.9493104E-1,-6.459597E-1,2.7953014E-2,1.2052397E-2,1.4068949E-2,8.058119E-4,2.845107E-3,-6.543123E-3,-1.0058834E-2,-2.0843245E-2,-8.048697E-3,4.433675E-3,-1.3729337E-2,-1.97077E-2,-2.161249E-2,-2.5619073E-2,-3.2996535E-2,-3.2250773E-2],"categories":[],"categories_nodes":[],"categories_segments":[],"categories_sizes":[],"default_left":[1,0,0,0,1,0,0,1,1,1,0,0,0,0,0,0,0,0,0,0,0,0,0,0,0,0,0,0,0,0,0],"id":30,"left_children":[1,3,5,7,9,11,13,15,17,19,21,23,25,27,29,-1,-1,-1,-1,-1,-1,-1,-1,-1,-1,-1,-1,-1,-1,-1,-1],"loss_changes":[1.0596955E5,7.446125E4,9.847594E3,1.9403398E4,1.8067434E4,2.213959E3,1.1493516E3,5.4262812E3,1.1124531E4,6.459631E3,3.1276602E3,6.134833E2,9.0124023E2,1.6892578E2,5.625E-1,0E0,0E0,0E0,0E0,0E0,0E0,0E0,0E0,0E0,0E0,0E0,0E0,0E0,0E0,0E0,0E0],"parents":[2147483647,0,0,1,1,2,2,3,3,4,4,5,5,6,6,7,7,8,8,9,9,10,10,11,11,12,12,13,13,14,14],"right_children":[2,4,6,8,10,12,14,16,18,20,22,24,26,28,30,-1,-1,-1,-1,-1,-1,-1,-1,-1,-1,-1,-1,-1,-1,-1,-1],"split_conditions":[2.6E1,-2E1,2.9E1,-1.79E2,1.41E2,-1.05E2,3E1,8.5E1,8.1E1,8.5E1,3.17E2,2.94E2,2.8E1,-9.3E1,9.7E1,2.7953014E-2,1.2052397E-2,1.4068949E-2,8.058119E-4,2.845107E-3,-6.543123E-3,-1.0058834E-2,-2.0843245E-2,-8.048697E-3,4.433675E-3,-1.3729337E-2,-1.97077E-2,-2.161249E-2,-2.5619073E-2,-3.2996535E-2,-3.2250773E-2],"split_indices":[11,2,11,2,3,2,11,8,8,8,3,3,11,2,8,0,0,0,0,0,0,0,0,0,0,0,0,0,0,0,0],"split_type":[0,0,0,0,0,0,0,0,0,0,0,0,0,0,0,0,0,0,0,0,0,0,0,0,0,0,0,0,0,0,0],"sum_hessian":[2.9677388E6,2.3935772E6,5.741616E5,1.0764781E6,1.317099E6,3.447512E5,2.2941044E5,3.2677572E5,7.4970244E5,9.509484E5,3.6615056E5,7.1056305E4,2.7369488E5,1.546388E5,7.477165E4,2.5910475E5,6.767098E4,5.2312872E5,2.2657373E5,7.0315944E5,2.4778895E5,2.774139E5,8.8736664E4,5.9252477E4,1.1803825E4,1.7520953E5,9.848535E4,3.3681535E4,1.2095726E5,4.6894604E3,7.008219E4],"tree_param":{"num_deleted":"0","num_feature":"3136","num_nodes":"31","size_leaf_vector":"1"}},{"base_weights":[-3.9774994E-3,-3.2502258E-1,4.2084268E-1,-4.179807E-1,-1.2782256E-1,1.951449E-1,6.688117E-1,-1.4664066E-1,-4.3806294E-1,-1.4498198E-1,4.5372987E-1,7.987106E-2,3.2766917E-1,5.3024393E-1,7.96252E-1,-4.8073838E-3,-3.399293E-2,-2.3554409E-2,-1.7535692E-2,-1.3466199E-2,-4.846931E-3,1.5414354E-2,5.054297E-2,1.3612539E-2,2.3171993E-3,1.3802935E-2,2.5626061E-2,2.3581965E-2,2.899829E-2,3.6907822E-2,4.560901E-2],"categories":[],"categories_nodes":[],"categories_segments":[],"categories_sizes":[],"default_left":[1,1,0,1,0,0,0,0,0,0,0,0,0,0,0,0,0,0,0,0,0,0,0,0,0,0,0,0,0,0,0],"id":31,"left_children":[1,3,5,7,9,11,13,15,17,19,21,23,25,27,29,-1,-1,-1,-1,-1,-1,-1,-1,-1,-1,-1,-1,-1,-1,-1,-1],"loss_changes":[3.9817106E5,3.0481531E4,7.032795E4,6.157953E3,5.3161123E3,1.0049734E4,1.0573281E4,2.0966948E3,3.0352031E3,3.091124E3,1.2368806E3,2.2692432E3,2.919461E3,8.356328E2,2.0999688E3,0E0,0E0,0E0,0E0,0E0,0E0,0E0,0E0,0E0,0E0,0E0,0E0,0E0,0E0,0E0,0E0],"parents":[2147483647,0,0,1,1,2,2,3,3,4,4,5,5,6,6,7,7,8,8,9,9,10,10,11,11,12,12,13,13,14,14],"right_children":[2,4,6,8,10,12,14,16,18,20,22,24,26,28,30,-1,-1,-1,-1,-1,-1,-1,-1,-1,-1,-1,-1,-1,-1,-1,-1],"split_conditions":[8.9E1,6.9E1,2.7E1,3E0,2.6E1,1.07E2,2.9E1,6.9E1,5.9E1,2.00001E0,2.9E1,1.9E1,1.33E2,2.8E1,3E1,-4.8073838E-3,-3.399293E-2,-2.3554409E-2,-1.7535692E-2,-1.3466199E-2,-4.846931E-3,1.5414354E-2,5.054297E-2,1.3612539E-2,2.3171993E-3,1.3802935E-2,2.5626061E-2,2.3581965E-2,2.899829E-2,3.6907822E-2,4.560901E-2],"split_indices":[8,8,11,11,11,8,11,8,8,3132,11,11,8,11,11,0,0,0,0,0,0,0,0,0,0,0,0,0,0,0,0],"split_type":[0,0,0,0,0,0,0,0,0,0,0,0,0,0,0,0,0,0,0,0,0,0,0,0,0,0,0,0,0,0,0],"sum_hessian":[2.919431E6,1.6628115E6,1.2566195E6,1.1300948E6,5.327167E5,6.57853E5,5.987665E5,7.7876664E4,1.0522181E6,5.1744944E5,1.5267237E4,3.518255E5,3.060275E5,2.8686222E5,3.1190425E5,7.114115E4,6.735518E3,7.635343E5,2.886838E5,1.4421056E5,3.7323888E5,1.2107927E4,3.1593103E3,5.2213746E4,2.9961175E5,2.3923569E5,6.679182E4,1.316745E5,1.5518772E5,2.0778394E5,1.0412032E5],"tree_param":{"num_deleted":"0","num_feature":"3136","num_nodes":"31","size_leaf_vector":"1"}},{"base_weights":[1.7735643E-3,1.357174E-1,-3.0893534E-1,7.751944E-5,3.9095452E-1,-1.9302449E-1,-4.9278986E-1,9.436348E-2,-1.9245252E-1,3.151105E-1,6.019513E-1,-6.772787E-1,-1.7488976E-1,-3.8016686E-1,-5.5077666E-1,7.188402E-3,-2.3439191E-3,-6.174521E-3,-1.7348317E-2,1.8914415E-2,6.072757E-3,3.2732952E-2,1.8998729E-2,-3.1993724E-2,-3.4427557E-2,2.8549662E-2,-1.0165318E-2,-2.0442285E-2,-1.3275409E-2,-2.5209758E-2,-3.203825E-2],"categories":[],"categories_nodes":[],"categories_segments":[],"categories_sizes":[],"default_left":[0,1,0,1,0,0,0,0,0,0,0,0,0,1,0,0,0,0,0,0,0,0,0,0,0,0,0,0,0,0,0],"id":32,"left_children":[1,3,5,7,9,11,13,15,17,19,21,23,25,27,29,-1,-1,-1,-1,-1,-1,-1,-1,-1,-1,-1,-1,-1,-1,-1,-1],"loss_changes":[1.2330682E5,7.167614E4,1.9019914E4,2.4541059E4,1.1496906E4,4.8070684E3,2.2535703E3,6.3324814E3,4.735494E3,6.4657344E3,2.222289E3,7.890625E0,1.1183773E4,3.855996E2,9.546094E2,0E0,0E0,0E0,0E0,0E0,0E0,0E0,0E0,0E0,0E0,0E0,0E0,0E0,0E0,0E0,0E0],"parents":[2147483647,0,0,1,1,2,2,3,3,4,4,5,5,6,6,7,7,8,8,9,9,10,10,11,11,12,12,13,13,14,14],"right_children":[2,4,6,8,10,12,14,16,18,20,22,24,26,28,30,-1,-1,-1,-1,-1,-1,-1,-1,-1,-1,-1,-1,-1,-1,-1,-1],"split_conditions":[9.6E1,5.6E1,2.8E1,1.01E2,2.36E2,9.7E1,2.9E1,7.6E1,2.49E2,7.6E1,7.6E1,2.00001E0,9.8E1,1.01E2,3E1,7.188402E-3,-2.3439191E-3,-6.174521E-3,-1.7348317E-2,1.8914415E-2,6.072757E-3,3.2732952E-2,1.8998729E-2,-3.1993724E-2,-3.4427557E-2,2.8549662E-2,-1.0165318E-2,-2.0442285E-2,-1.3275409E-2,-2.5209758E-2,-3.203825E-2],"split_indices":[8,2,11,3,3,8,11,8,3,8,8,3134,8,2,11,0,0,0,0,0,0,0,0,0,0,0,0,0,0,0,0],"split_type":[0,0,0,0,0,0,0,0,0,0,0,0,0,0,0,0,0,0,0,0,0,0,0,0,0,0,0,0,0,0,0],"sum_hessian":[2.9628548E6,2.0703472E6,8.925076E5,1.3519079E6,7.184393E5,5.4740125E5,3.451064E5,9.074912E5,4.4441678E5,5.284775E5,1.8996177E5,1.9758219E4,5.27643E5,1.1729719E5,2.2780922E5,6.7232175E5,2.351694E5,3.072761E5,1.3714069E5,3.984779E5,1.29999625E5,1.5350947E5,3.645229E4,4.5889336E3,1.5169286E4,1.9363662E4,5.0827934E5,9.382643E4,2.3470764E4,1.5011197E5,7.769724E4],"tree_param":{"num_deleted":"0","num_feature":"3136","num_nodes":"31","size_leaf_vector":"1"}},{"base_weights":[2.357034E-3,9.115331E-2,-3.736073E-1,3.065038E-1,-4.249384E-2,-2.6832348E-1,-5.3427154E-1,3.863166E-1,1.02485955E-1,3.0158913E-2,-2.2938038E-1,-1.0825989E-1,-3.078507E-1,-4.8487642E-1,-6.379616E-1,2.9595492E-2,1.5646962E-2,-3.509989E-2,6.316433E-3,4.4869645E-3,-4.580968E-3,-8.707537E-3,-1.920007E-2,-1.5774455E-3,-1.1021299E-2,-1.3282902E-2,-1.91656E-2,-2.1227116E-2,-2.5193606E-2,-3.2510567E-2,-3.185623E-2],"categories":[],"categories_nodes":[],"categories_segments":[],"categories_sizes":[],"default_left":[1,0,0,1,1,0,0,0,0,1,0,0,0,0,0,0,0,0,0,0,0,0,0,0,0,0,0,0,0,0,0],"id":33,"left_children":[1,3,5,7,9,11,13,15,17,19,21,23,25,27,29,-1,-1,-1,-1,-1,-1,-1,-1,-1,-1,-1,-1,-1,-1,-1,-1],"loss_changes":[9.877521E4,6.888577E4,9.561953E3,1.4924531E4,2.005293E4,2.160623E3,1.1458867E3,9.938773E3,4.94376E3,7.716073E3,3.5304414E3,5.8193756E2,8.718828E2,1.7350781E2,3.2421875E-1,0E0,0E0,0E0,0E0,0E0,0E0,0E0,0E0,0E0,0E0,0E0,0E0,0E0,0E0,0E0,0E0],"parents":[2147483647,0,0,1,1,2,2,3,3,4,4,5,5,6,6,7,7,8,8,9,9,10,10,11,11,12,12,13,13,14,14],"right_children":[2,4,6,8,10,12,14,16,18,20,22,24,26,28,30,-1,-1,-1,-1,-1,-1,-1,-1,-1,-1,-1,-1,-1,-1,-1,-1],"split_conditions":[2.6E1,-4.2E1,2.9E1,8.1E1,1.25E2,-1.1E2,3E1,-2.28E2,8.2E1,7.9E1,2.89E2,1.25E2,2.8E1,-8.3E1,9.7E1,2.9595492E-2,1.5646962E-2,-3.509989E-2,6.316433E-3,4.4869645E-3,-4.580968E-3,-8.707537E-3,-1.920007E-2,-1.5774455E-3,-1.1021299E-2,-1.3282902E-2,-1.91656E-2,-2.1227116E-2,-2.5193606E-2,-3.2510567E-2,-3.185623E-2],"split_indices":[11,2,11,8,2,2,11,2,8,8,3,8,11,2,8,0,0,0,0,0,0,0,0,0,0,0,0,0,0,0,0],"split_type":[0,0,0,0,0,0,0,0,0,0,0,0,0,0,0,0,0,0,0,0,0,0,0,0,0,0,0,0,0,0,0],"sum_hessian":[2.9587365E6,2.3934465E6,5.6528994E5,9.165596E5,1.476887E6,3.4150388E5,2.2378605E5,6.588236E5,2.57736E5,1.0634631E6,4.134239E5,6.763259E4,2.7387128E5,1.5158212E5,7.2203914E4,1.7328783E5,4.8553575E5,7.417903E3,2.5031811E5,7.140918E5,3.4937125E5,3.0461834E5,1.08805555E5,4.0164895E4,2.7467701E4,1.7565942E5,9.821186E4,3.6302246E4,1.1527988E5,4.568651E3,6.7635266E4],"tree_param":{"num_deleted":"0","num_feature":"3136","num_nodes":"31","size_leaf_vector":"1"}},{"base_weights":[-4.526619E-3,-3.280272E-1,3.901674E-1,-4.09088E-1,-1.4052026E-1,1.7544259E-1,6.4216995E-1,-1.4637408E-1,-4.2866033E-1,-1.5354864E-1,4.186903E-1,6.8651326E-2,3.1405488E-1,5.0793755E-1,7.668818E-1,-4.8244465E-3,-3.375725E-2,-2.3100648E-2,-1.703754E-2,-1.4854284E-2,-5.623467E-3,1.4475043E-2,4.9032178E-2,1.8703302E-2,2.371441E-3,1.3766912E-2,2.6899923E-2,2.3294862E-2,2.8696274E-2,3.545121E-2,4.4128425E-2],"categories":[],"categories_nodes":[],"categories_segments":[],"categories_sizes":[],"default_left":[1,1,0,1,0,0,0,0,0,0,0,0,0,0,0,0,0,0,0,0,0,0,0,0,0,0,0,0,0,0,0],"id":34,"left_children":[1,3,5,7,9,11,13,15,17,19,21,23,25,27,29,-1,-1,-1,-1,-1,-1,-1,-1,-1,-1,-1,-1,-1,-1,-1,-1],"loss_changes":[3.705969E5,2.4244422E4,7.074336E4,5.7262344E3,3.5076572E3,1.0449088E4,1.0068547E4,2.0367363E3,3.0386875E3,2.7741104E3,7.9549854E2,2.5843276E3,2.6632285E3,8.033594E2,2.0862969E3,0E0,0E0,0E0,0E0,0E0,0E0,0E0,0E0,0E0,0E0,0E0,0E0,0E0,0E0,0E0,0E0],"parents":[2147483647,0,0,1,1,2,2,3,3,4,4,5,5,6,6,7,7,8,8,9,9,10,10,11,11,12,12,13,13,14,14],"right_children":[2,4,6,8,10,12,14,16,18,20,22,24,26,28,30,-1,-1,-1,-1,-1,-1,-1,-1,-1,-1,-1,-1,-1,-1,-1,-1],"split_conditions":[8.7E1,6.9E1,2.7E1,3E0,2.6E1,1.07E2,2.9E1,6.9E1,5.9E1,9E1,2.9E1,1.7E1,1.39E2,1.31E2,3E1,-4.8244465E-3,-3.375725E-2,-2.3100648E-2,-1.703754E-2,-1.4854284E-2,-5.623467E-3,1.4475043E-2,4.9032178E-2,1.8703302E-2,2.371441E-3,1.3766912E-2,2.6899923E-2,2.3294862E-2,2.8696274E-2,3.545121E-2,4.4128425E-2],"split_indices":[8,8,11,11,11,8,11,8,8,4,11,11,8,8,11,0,0,0,0,0,0,0,0,0,0,0,0,0,0,0,0],"split_type":[0,0,0,0,0,0,0,0,0,0,0,0,0,0,0,0,0,0,0,0,0,0,0,0,0,0,0,0,0,0,0],"sum_hessian":[2.9024578E6,1.5950869E6,1.3073709E6,1.1136469E6,4.8144E5,7.058966E5,6.0147425E5,7.721545E4,1.03643144E6,4.7047956E5,1.0960427E4,3.987153E5,3.071813E5,2.8968247E5,3.117918E5,7.05599E4,6.655559E3,7.5136256E5,2.8506884E5,1.0468586E5,3.657937E5,8.912919E3,2.0475072E3,2.5904533E4,3.7281078E5,2.6190408E5,4.5277246E4,1.7695447E5,1.1272799E5,2.0784886E5,1.0394296E5],"tree_param":{"num_deleted":"0","num_feature":"3136","num_nodes":"31","size_leaf_vector":"1"}},{"base_weights":[2.0715063E-3,1.306148E-1,-2.9998085E-1,2.965336E-4,3.7459537E-1,-1.8652721E-1,-4.8265338E-1,9.0915926E-2,-1.860656E-1,3.0430707E-1,5.8524376E-1,-6.6890377E-1,-1.6855797E-1,-3.704158E-1,-5.410379E-1,6.9427155E-3,-2.325898E-3,-6.4167283E-3,-1.8145323E-2,1.8461457E-2,6.583139E-3,2.6036283E-2,3.8055222E-2,-3.1522363E-2,-3.4023102E-2,2.7949616E-2,-9.830608E-3,-1.98347E-2,-1.2469905E-2,-2.469222E-2,-3.1648893E-2],"categories":[],"categories_nodes":[],"categories_segments":[],"categories_sizes":[],"default_left":[0,1,0,1,0,0,0,0,0,0,0,0,0,1,0,0,0,0,0,0,0,0,0,0,0,0,0,0,0,0,0],"id":35,"left_children":[1,3,5,7,9,11,13,15,17,19,21,23,25,27,29,-1,-1,-1,-1,-1,-1,-1,-1,-1,-1,-1,-1,-1,-1,-1,-1],"loss_changes":[1.1469488E5,6.588484E4,1.8276031E4,2.2810836E4,1.068182E4,4.7151445E3,2.21375E3,5.98752E3,4.511491E3,6.0632344E3,2.0476289E3,8.255859E0,1.070464E4,3.6756543E2,9.64E2,0E0,0E0,0E0,0E0,0E0,0E0,0E0,0E0,0E0,0E0,0E0,0E0,0E0,0E0,0E0,0E0],"parents":[2147483647,0,0,1,1,2,2,3,3,4,4,5,5,6,6,7,7,8,8,9,9,10,10,11,11,12,12,13,13,14,14],"right_children":[2,4,6,8,10,12,14,16,18,20,22,24,26,28,30,-1,-1,-1,-1,-1,-1,-1,-1,-1,-1,-1,-1,-1,-1,-1,-1],"split_conditions":[9.6E1,5.6E1,2.8E1,1.01E2,2.43E2,9.7E1,2.9E1,7.6E1,2.76E2,7.4E1,4.23E2,2.00001E0,9.8E1,1.15E2,3E1,6.9427155E-3,-2.325898E-3,-6.4167283E-3,-1.8145323E-2,1.8461457E-2,6.583139E-3,2.6036283E-2,3.8055222E-2,-3.1522363E-2,-3.4023102E-2,2.7949616E-2,-9.830608E-3,-1.98347E-2,-1.2469905E-2,-2.469222E-2,-3.1648893E-2],"split_indices":[8,2,11,3,2,8,11,8,3,8,3,3134,8,2,11,0,0,0,0,0,0,0,0,0,0,0,0,0,0,0,0],"split_type":[0,0,0,0,0,0,0,0,0,0,0,0,0,0,0,0,0,0,0,0,0,0,0,0,0,0,0,0,0,0,0],"sum_hessian":[2.954011E6,2.0721671E6,8.818438E5,1.3507089E6,7.2145825E5,5.439877E5,3.378561E5,9.0880094E5,4.419079E5,5.409565E5,1.8050175E5,1.9535273E4,5.2445244E5,1.15612195E5,2.222439E5,6.7377956E5,2.3502142E5,3.3315022E5,1.0875768E5,3.9312328E5,1.478332E5,1.3205767E5,4.844407E4,4.5273716E3,1.5007902E4,1.9471232E4,5.049812E5,9.498465E4,2.0627549E4,1.4686389E5,7.5380016E4],"tree_param":{"num_deleted":"0","num_feature":"3136","num_nodes":"31","size_leaf_vector":"1"}},{"base_weights":[3.097485E-3,1.1182097E-1,-2.8484356E-1,2.828849E-1,-5.8167774E-2,-1.9966581E-1,-3.6477214E-1,1.9567731E-1,4.6192372E-1,9.674148E-3,-2.5079265E-1,-6.8434507E-1,-1.717682E-1,-6.659407E-1,-3.525413E-1,1.265875E-2,3.8491194E-3,2.0516755E-2,3.4121137E-2,1.3844487E-4,2.7122766E-2,-1.2901877E-2,4.9508836E-2,-3.501604E-2,-3.3449706E-2,2.1727953E-2,-1.0511439E-2,8.560712E-3,-3.33036E-2,3.2592346E-3,-1.8540414E-2],"categories":[],"categories_nodes":[],"categories_segments":[],"categories_sizes":[],"default_left":[1,0,0,0,1,0,0,1,0,0,0,1,0,0,0,0,0,0,0,0,0,0,0,0,0,0,0,0,0,0,0],"id":36,"left_children":[1,3,5,7,9,11,13,15,17,19,21,23,25,27,29,-1,-1,-1,-1,-1,-1,-1,-1,-1,-1,-1,-1,-1,-1,-1,-1],"loss_changes":[9.2299914E4,6.2234797E4,5.5016953E3,1.6655297E4,1.4028218E4,5.2896504E3,1.5354492E3,4.8955195E3,3.9742422E3,2.9206565E3,2.5140547E3,4.751953E0,8.626599E3,1.9018555E0,3.0571094E3,0E0,0E0,0E0,0E0,0E0,0E0,0E0,0E0,0E0,0E0,0E0,0E0,0E0,0E0,0E0,0E0],"parents":[2147483647,0,0,1,1,2,2,3,3,4,4,5,5,6,6,7,7,8,8,9,9,10,10,11,11,12,12,13,13,14,14],"right_children":[2,4,6,8,10,12,14,16,18,20,22,24,26,28,30,-1,-1,-1,-1,-1,-1,-1,-1,-1,-1,-1,-1,-1,-1,-1,-1],"split_conditions":[9.9E1,-7E0,1.19E2,1.6E2,1.6E2,1E2,1.2E2,7.3E1,3.85E2,9.8E1,9.9E1,2.4E2,1.01E2,2.00001E0,1.21E2,1.265875E-2,3.8491194E-3,2.0516755E-2,3.4121137E-2,1.3844487E-4,2.7122766E-2,-1.2901877E-2,4.9508836E-2,-3.501604E-2,-3.3449706E-2,2.1727953E-2,-1.0511439E-2,8.560712E-3,-3.33036E-2,3.2592346E-3,-1.8540414E-2],"split_indices":[8,2,8,3,3,8,8,8,3,8,8,4,8,1136,8,0,0,0,0,0,0,0,0,0,0,0,0,0,0,0,0],"split_type":[0,0,0,0,0,0,0,0,0,0,0,0,0,0,0,0,0,0,0,0,0,0,0,0,0,0,0,0,0,0,0],"sum_hessian":[2.948316E6,2.1401998E6,8.081161E5,1.0667261E6,1.0734738E6,3.9121362E5,4.1690253E5,7.1732706E5,3.4939903E5,7.938745E5,2.795993E5,2.129099E4,3.6992262E5,1.6268111E4,4.006344E5,4.8323788E5,2.3408917E5,2.8315422E5,6.624479E4,7.837179E5,1.0156577E4,2.7797725E5,1.6220642E3,1.0411319E4,1.0879672E4,2.2064688E4,3.4785794E5,2.3459911E0,1.6265766E4,1.678545E4,3.8384897E5],"tree_param":{"num_deleted":"0","num_feature":"3136","num_nodes":"31","size_leaf_vector":"1"}},{"base_weights":[-5.860473E-3,-3.195452E-1,3.7293193E-1,-3.9980584E-1,-1.3559432E-1,1.6585915E-1,6.1709887E-1,-1.382254E-1,-4.1943997E-1,-1.4804704E-1,3.9702794E-1,6.1903425E-2,3.0032966E-1,4.8591572E-1,7.39866E-1,-4.4212337E-3,-3.3525508E-2,-2.2854485E-2,-1.7145671E-2,-1.0414033E-3,-9.6567E-3,1.1143978E-2,4.0768832E-2,1.785217E-2,2.0681454E-3,1.3459401E-2,2.8793722E-2,2.3104694E-2,2.9939814E-2,3.414516E-2,4.2742398E-2],"categories":[],"categories_nodes":[],"categories_segments":[],"categories_sizes":[],"default_left":[1,1,0,1,0,0,0,0,0,0,0,0,0,0,0,0,0,0,0,0,0,0,0,0,0,0,0,0,0,0,0],"id":37,"left_children":[1,3,5,7,9,11,13,15,17,19,21,23,25,27,29,-1,-1,-1,-1,-1,-1,-1,-1,-1,-1,-1,-1,-1,-1,-1,-1],"loss_changes":[3.4254425E5,2.3282031E4,6.6026625E4,5.6387188E3,3.1773271E3,9.877908E3,9.6509375E3,2.031968E3,2.9422812E3,2.6849473E3,7.9716455E2,2.416025E3,2.64358E3,7.787578E2,2.0269688E3,0E0,0E0,0E0,0E0,0E0,0E0,0E0,0E0,0E0,0E0,0E0,0E0,0E0,0E0,0E0,0E0],"parents":[2147483647,0,0,1,1,2,2,3,3,4,4,5,5,6,6,7,7,8,8,9,9,10,10,11,11,12,12,13,13,14,14],"right_children":[2,4,6,8,10,12,14,16,18,20,22,24,26,28,30,-1,-1,-1,-1,-1,-1,-1,-1,-1,-1,-1,-1,-1,-1,-1,-1],"split_conditions":[8.7E1,6.9E1,2.7E1,3E0,2.6E1,1.07E2,2.9E1,6.9E1,5.7E1,1.7E1,2.8E1,1.7E1,1.45E2,1.47E2,3E1,-4.4212337E-3,-3.3525508E-2,-2.2854485E-2,-1.7145671E-2,-1.0414033E-3,-9.6567E-3,1.1143978E-2,4.0768832E-2,1.785217E-2,2.0681454E-3,1.3459401E-2,2.8793722E-2,2.3104694E-2,2.9939814E-2,3.414516E-2,4.2742398E-2],"split_indices":[8,8,11,11,11,8,11,8,8,11,11,11,8,8,11,0,0,0,0,0,0,0,0,0,0,0,0,0,0,0,0],"split_type":[0,0,0,0,0,0,0,0,0,0,0,0,0,0,0,0,0,0,0,0,0,0,0,0,0,0,0,0,0,0,0],"sum_hessian":[2.8828475E6,1.5769485E6,1.305899E6,1.0979115E6,4.79037E5,7.066261E5,5.992729E5,7.665563E4,1.0212559E6,4.680937E5,1.0943327E4,3.9853238E5,3.0809375E5,2.8970878E5,3.0956412E5,7.0098375E4,6.5572593E3,6.8449256E5,3.3676334E5,1.22485516E5,3.4560816E5,7.727916E3,3.2154106E3,2.5930414E4,3.7260197E5,2.7681097E5,3.1282785E4,2.3922811E5,5.048066E4,2.0701462E5,1.0254951E5],"tree_param":{"num_deleted":"0","num_feature":"3136","num_nodes":"31","size_leaf_vector":"1"}},{"base_weights":[2.2465568E-3,1.5013097E-1,-2.4292003E-1,-4.9889427E-2,3.106979E-1,-1.3970184E-1,-4.7418284E-1,-2.658585E-1,1.7318051E-2,2.1230023E-1,4.7766823E-1,-7.0808184E-1,-1.2061266E-1,-3.6043173E-1,-5.341156E-1,8.271669E-2,-1.354636E-2,4.659188E-4,3.148329E-2,1.4020684E-2,6.910637E-3,2.0982476E-2,3.3512987E-2,-3.3400446E-2,-3.6009636E-2,3.2492917E-2,-7.3343203E-3,-1.979456E-2,-1.355224E-2,-2.4280507E-2,-3.138281E-2],"categories":[],"categories_nodes":[],"categories_segments":[],"categories_sizes":[],"default_left":[0,1,0,0,0,0,0,0,0,0,0,0,0,0,0,0,0,0,0,0,0,0,0,0,0,0,0,0,0,0,0],"id":38,"left_children":[1,3,5,7,9,11,13,15,17,19,21,23,25,27,29,-1,-1,-1,-1,-1,-1,-1,-1,-1,-1,-1,-1,-1,-1,-1,-1],"loss_changes":[1.067179E5,5.8965297E4,2.6435523E4,1.1866467E4,1.6732133E4,8.307762E3,2.3296719E3,1.8889209E3,3.0543354E3,3.2336602E3,4.2193125E3,1.1592773E1,1.488261E4,3.7368652E2,1.01523047E3,0E0,0E0,0E0,0E0,0E0,0E0,0E0,0E0,0E0,0E0,0E0,0E0,0E0,0E0,0E0,0E0],"parents":[2147483647,0,0,1,1,2,2,3,3,4,4,5,5,6,6,7,7,8,8,9,9,10,10,11,11,12,12,13,13,14,14],"right_children":[2,4,6,8,10,12,14,16,18,20,22,24,26,28,30,-1,-1,-1,-1,-1,-1,-1,-1,-1,-1,-1,-1,-1,-1,-1,-1],"split_conditions":[8.6E1,-9E0,2.8E1,-1.88E2,1.3E2,8.7E1,2.9E1,2.00001E0,8.5E1,5.8E1,3.28E2,2.00001E0,8.8E1,6.7E1,3E1,8.271669E-2,-1.354636E-2,4.659188E-4,3.148329E-2,1.4020684E-2,6.910637E-3,2.0982476E-2,3.3512987E-2,-3.3400446E-2,-3.6009636E-2,3.2492917E-2,-7.3343203E-3,-1.979456E-2,-1.355224E-2,-2.4280507E-2,-3.138281E-2],"split_indices":[14,2,11,2,2,14,11,671,14,14,2,3134,14,2,11,0,0,0,0,0,0,0,0,0,0,0,0,0,0,0,0],"split_type":[0,0,0,0,0,0,0,0,0,0,0,0,0,0,0,0,0,0,0,0,0,0,0,0,0,0,0,0,0,0,0],"sum_hessian":[2.943427E6,1.8359705E6,1.1074565E6,8.175447E5,1.0184258E6,7.657053E5,3.417512E5,1.9403061E5,6.235141E5,6.4079794E5,3.7762788E5,2.487961E4,7.408257E5,1.1792986E5,2.2382133E5,5.0997104E2,1.9352064E5,6.154746E5,8.03951E3,3.338578E5,3.0694012E5,2.9020578E5,8.742211E4,5.7871094E3,1.90925E4,2.4249074E4,7.165766E5,8.443244E4,3.3497426E4,1.4739552E5,7.642581E4],"tree_param":{"num_deleted":"0","num_feature":"3136","num_nodes":"31","size_leaf_vector":"1"}},{"base_weights":[3.1110556E-3,8.51214E-2,-3.5502377E-1,3.3070758E-1,-1.5779782E-2,-2.5109997E-1,-5.1739955E-1,3.9960378E-1,1.2526402E-1,6.588568E-2,-1.7439826E-1,-1.348643E-1,-3.0625206E-1,-4.663022E-1,-6.2568265E-1,2.9040212E-2,1.690653E-2,-3.4724083E-2,7.447451E-3,6.542023E-3,-2.6691456E-3,-5.72483E-3,-1.5738651E-2,1.0729608E-3,-9.098585E-3,-1.3343694E-2,-1.8865202E-2,-2.0174237E-2,-2.4302265E-2,-3.1945165E-2,-3.1238416E-2],"categories":[],"categories_nodes":[],"categories_segments":[],"categories_sizes":[],"default_left":[1,0,0,1,1,0,0,0,0,1,0,0,0,0,0,0,0,0,0,0,0,0,0,0,0,0,0,0,0,0,0],"id":39,"left_children":[1,3,5,7,9,11,13,15,17,19,21,23,25,27,29,-1,-1,-1,-1,-1,-1,-1,-1,-1,-1,-1,-1,-1,-1,-1,-1],"loss_changes":[8.635537E4,5.9282273E4,9.244367E3,9.860969E3,2.196513E4,2.141377E3,1.1826055E3,5.8112188E3,3.3971077E3,8.671779E3,4.845961E3,7.915985E2,6.337539E2,1.7995117E2,4.296875E-1,0E0,0E0,0E0,0E0,0E0,0E0,0E0,0E0,0E0,0E0,0E0,0E0,0E0,0E0,0E0,0E0],"parents":[2147483647,0,0,1,1,2,2,3,3,4,4,5,5,6,6,7,7,8,8,9,9,10,10,11,11,12,12,13,13,14,14],"right_children":[2,4,6,8,10,12,14,16,18,20,22,24,26,28,30,-1,-1,-1,-1,-1,-1,-1,-1,-1,-1,-1,-1,-1,-1,-1,-1],"split_conditions":[2.6E1,-7.9E1,2.9E1,8.3E1,8.3E1,-5.5E1,3E1,-2.68E2,8.4E1,7.7E1,2.3E2,-2.16E2,2.8E1,-8.3E1,9.7E1,2.9040212E-2,1.690653E-2,-3.4724083E-2,7.447451E-3,6.542023E-3,-2.6691456E-3,-5.72483E-3,-1.5738651E-2,1.0729608E-3,-9.098585E-3,-1.3343694E-2,-1.8865202E-2,-2.0174237E-2,-2.4302265E-2,-3.1945165E-2,-3.1238416E-2],"split_indices":[11,2,11,8,2,2,11,2,8,8,2,2,11,2,8,0,0,0,0,0,0,0,0,0,0,0,0,0,0,0,0],"split_type":[0,0,0,0,0,0,0,0,0,0,0,0,0,0,0,0,0,0,0,0,0,0,0,0,0,0,0,0,0,0,0],"sum_hessian":[2.940179E6,2.3923488E6,5.4783025E5,6.9667944E5,1.6956694E6,3.340402E5,2.1379002E5,5.2171838E5,1.7496103E5,1.1193615E6,5.763079E5,1.0749431E5,2.2654589E5,1.452526E5,6.853743E4,1.3215764E5,3.8956075E5,4.912413E3,1.7004862E5,7.2468906E5,3.9467244E5,4.0393844E5,1.7236947E5,2.4891994E4,8.260231E4,1.4576512E5,8.078076E4,3.4740043E4,1.1051255E5,4.3884917E3,6.4148938E4],"tree_param":{"num_deleted":"0","num_feature":"3136","num_nodes":"31","size_leaf_vector":"1"}},{"base_weights":[-5.971577E-3,-3.116435E-1,3.588402E-1,-3.981548E-1,-1.4463452E-1,1.5949687E-1,5.953016E-1,-1.2884845E-1,-4.1975227E-1,-1.6630243E-1,1.5256074E-1,6.0404696E-2,2.874715E-1,4.6769735E-1,7.163012E-1,-3.9847805E-3,-3.3173125E-2,-2.5591811E-2,-1.9530063E-2,-1.7053585E-2,-5.8848113E-3,4.541869E-3,3.98714E-2,1.1722353E-2,1.3366063E-3,3.4158032E-2,1.3292548E-2,2.2639828E-2,3.1785045E-2,3.295446E-2,4.16271E-2],"categories":[],"categories_nodes":[],"categories_segments":[],"categories_sizes":[],"default_left":[1,1,0,1,0,0,0,0,0,0,0,0,0,0,0,0,0,0,0,0,0,0,0,0,0,0,0,0,0,0,0],"id":40,"left_children":[1,3,5,7,9,11,13,15,17,19,21,23,25,27,29,-1,-1,-1,-1,-1,-1,-1,-1,-1,-1,-1,-1,-1,-1,-1,-1],"loss_changes":[3.1961372E5,2.253164E4,6.159272E4,5.9752188E3,3.4269258E3,8.99083E3,9.228078E3,2.0042314E3,2.5527656E3,4.2134062E3,1.4393279E3,2.3417427E3,2.6467559E3,7.2796875E2,2.0396875E3,0E0,0E0,0E0,0E0,0E0,0E0,0E0,0E0,0E0,0E0,0E0,0E0,0E0,0E0,0E0,0E0],"parents":[2147483647,0,0,1,1,2,2,3,3,4,4,5,5,6,6,7,7,8,8,9,9,10,10,11,11,12,12,13,13,14,14],"right_children":[2,4,6,8,10,12,14,16,18,20,22,24,26,28,30,-1,-1,-1,-1,-1,-1,-1,-1,-1,-1,-1,-1,-1,-1,-1,-1],"split_conditions":[8.7E1,6.7E1,2.7E1,3E0,2.4E1,1.07E2,2.9E1,6.6E1,2.00001E0,9E1,2.8E1,1.9E1,1.9E1,1.61E2,3E1,-3.9847805E-3,-3.3173125E-2,-2.5591811E-2,-1.9530063E-2,-1.7053585E-2,-5.8848113E-3,4.541869E-3,3.98714E-2,1.1722353E-2,1.3366063E-3,3.4158032E-2,1.3292548E-2,2.2639828E-2,3.1785045E-2,3.295446E-2,4.16271E-2],"split_indices":[8,8,11,11,11,8,11,8,3132,4,11,11,11,8,11,0,0,0,0,0,0,0,0,0,0,0,0,0,0,0,0],"split_type":[0,0,0,0,0,0,0,0,0,0,0,0,0,0,0,0,0,0,0,0,0,0,0,0,0,0,0,0,0,0,0],"sum_hessian":[2.8661615E6,1.5594854E6,1.3066761E6,1.02732556E6,5.3215975E5,7.089847E5,5.976915E5,7.627193E4,9.510537E5,4.95998E5,3.616177E4,3.9958388E5,3.0940084E5,2.9090866E5,3.067828E5,6.985093E4,6.4210015E3,2.2867731E5,7.223764E5,1.0792718E5,3.880708E5,3.300394E4,3.1578264E3,6.4775387E4,3.348085E5,1.6028262E4,2.9337256E5,2.672124E5,2.3696273E4,2.0559739E5,1.0118542E5],"tree_param":{"num_deleted":"0","num_feature":"3136","num_nodes":"31","size_leaf_vector":"1"}},{"base_weights":[2.4606562E-3,1.2105822E-1,-2.831309E-1,1.0191199E-2,3.6711258E-1,-1.84709E-1,-3.6697665E-1,-1.713339E-1,9.277918E-2,3.0822313E-1,5.725418E-1,-6.555005E-1,-1.5806423E-1,-6.348732E-1,-3.5233802E-1,-1.8131694E-2,-6.13714E-3,7.07785E-3,-1.4314075E-3,1.9709002E-2,9.556453E-3,3.1130774E-2,1.9141568E-2,-3.098624E-2,-3.3313673E-2,2.3072328E-2,-9.810737E-3,-3.1991288E-2,-3.77441E-3,4.9170027E-3,-1.8513378E-2],"categories":[],"categories_nodes":[],"categories_segments":[],"categories_sizes":[],"default_left":[0,1,0,0,0,0,1,0,0,0,0,0,0,1,0,0,0,0,0,0,0,0,0,0,0,0,0,0,0,0,0],"id":41,"left_children":[1,3,5,7,9,11,13,15,17,19,21,23,25,27,29,-1,-1,-1,-1,-1,-1,-1,-1,-1,-1,-1,-1,-1,-1,-1,-1],"loss_changes":[9.935179E4,5.6539082E4,7.1025547E3,2.142042E4,7.7881562E3,4.966504E3,1.8223867E3,4.1530605E3,5.8155225E3,5.0360586E3,1.3623086E3,7.760742E0,8.856574E3,6.665918E1,3.5609258E3,0E0,0E0,0E0,0E0,0E0,0E0,0E0,0E0,0E0,0E0,0E0,0E0,0E0,0E0,0E0,0E0],"parents":[2147483647,0,0,1,1,2,2,3,3,4,4,5,5,6,6,7,7,8,8,9,9,10,10,11,11,12,12,13,13,14,14],"right_children":[2,4,6,8,10,12,14,16,18,20,22,24,26,28,30,-1,-1,-1,-1,-1,-1,-1,-1,-1,-1,-1,-1,-1,-1,-1,-1],"split_conditions":[9.6E1,7.2E1,1.16E2,-9.7E1,2.73E2,9.7E1,1.17E2,-2.94E2,7.4E1,6.4E1,7.4E1,2.00001E0,9.8E1,5.24E2,1.18E2,-1.8131694E-2,-6.13714E-3,7.07785E-3,-1.4314075E-3,1.9709002E-2,9.556453E-3,3.1130774E-2,1.9141568E-2,-3.098624E-2,-3.3313673E-2,2.3072328E-2,-9.810737E-3,-3.1991288E-2,-3.77441E-3,4.9170027E-3,-1.8513378E-2],"split_indices":[14,2,14,2,2,14,14,2,14,14,14,3134,14,2,14,0,0,0,0,0,0,0,0,0,0,0,0,0,0,0,0],"split_type":[0,0,0,0,0,0,0,0,0,0,0,0,0,0,0,0,0,0,0,0,0,0,0,0,0,0,0,0,0,0,0],"sum_hessian":[2.933285E6,2.0725981E6,8.606869E5,1.4288079E6,6.4379025E5,3.959298E5,4.6475703E5,4.467869E5,9.8202094E5,5.003575E5,1.4343275E5,2.12064E4,3.7472344E5,2.4077654E4,4.4067938E5,9.049754E4,3.5628938E5,7.0055775E5,2.814632E5,2.885414E5,2.118161E5,1.13478164E5,2.9954584E4,4.921441E3,1.628496E4,2.1736828E4,3.529866E5,2.386621E4,2.114434E2,1.6860775E4,4.238186E5],"tree_param":{"num_deleted":"0","num_feature":"3136","num_nodes":"31","size_leaf_vector":"1"}},{"base_weights":[3.238294E-3,1.0433245E-1,-2.7000284E-1,2.7303863E-1,-4.292706E-2,-1.6092885E-1,-4.427728E-1,4.3656301E-1,1.930078E-1,2.052905E-2,-2.2521406E-1,-6.831863E-1,-1.4037661E-1,-3.994299E-1,-3.0873973E-2,3.2008212E-2,1.92919E-2,1.2447189E-2,4.560644E-3,3.0904377E-3,-3.2562544E-3,-8.669202E-3,-1.947801E-2,-3.50823E-2,-3.329846E-2,2.6934398E-2,-8.484312E-3,-1.6611898E-2,-2.2689495E-2],"categories":[],"categories_nodes":[],"categories_segments":[],"categories_sizes":[],"default_left":[1,0,0,0,1,0,0,0,1,1,0,0,0,0,0,0,0,0,0,0,0,0,0,0,0,0,0,0,0],"id":42,"left_children":[1,3,5,7,9,11,13,15,17,19,21,23,25,27,-1,-1,-1,-1,-1,-1,-1,-1,-1,-1,-1,-1,-1,-1,-1],"loss_changes":[8.094869E4,5.3141945E4,1.4913875E4,1.3046797E4,1.3211244E4,5.2071436E3,2.3189727E3,3.382957E3,3.811252E3,2.9955376E3,2.5120947E3,5.3710938E0,9.290264E3,8.961836E2,0E0,0E0,0E0,0E0,0E0,0E0,0E0,0E0,0E0,0E0,0E0,0E0,0E0,0E0,0E0],"parents":[2147483647,0,0,1,1,2,2,3,3,4,4,5,5,6,6,7,7,8,8,9,9,10,10,11,11,12,12,13,13],"right_children":[2,4,6,8,10,12,14,16,18,20,22,24,26,28,-1,-1,-1,-1,-1,-1,-1,-1,-1,-1,-1,-1,-1,-1,-1],"split_conditions":[9.9E1,-1.7E1,2.8E1,-1.68E2,1.51E2,1E2,3E1,-3.86E2,7.1E1,7.3E1,3.3E2,2.4E2,1.01E2,2.9E1,-3.0873973E-2,3.2008212E-2,1.92919E-2,1.2447189E-2,4.560644E-3,3.0904377E-3,-3.2562544E-3,-8.669202E-3,-1.947801E-2,-3.50823E-2,-3.329846E-2,2.6934398E-2,-8.484312E-3,-1.6611898E-2,-2.2689495E-2],"split_indices":[8,2,11,2,2,8,11,2,8,8,3,4,8,11,0,0,0,0,0,0,0,0,0,0,0,0,0,0,0],"split_type":[0,0,0,0,0,0,0,0,0,0,0,0,0,0,0,0,0,0,0,0,0,0,0,0,0,0,0,0,0],"sum_hessian":[2.9304712E6,2.1390595E6,7.9141175E5,9.9693325E5,1.1421261E6,4.851355E5,3.0627622E5,3.2758503E5,6.6934825E5,8.472055E5,2.949207E5,1.8367312E4,4.667682E5,2.4539866E5,6.0877566E4,6.5334074E4,2.6225097E5,4.319769E5,2.3737134E5,5.71689E5,2.755165E5,2.2421256E5,7.070811E4,8.844624E3,9.522688E3,1.9312248E4,4.4745594E5,1.0974946E5,1.356492E5],"tree_param":{"num_deleted":"0","num_feature":"3136","num_nodes":"29","size_leaf_vector":"1"}},{"base_weights":[-7.0633125E-3,-3.0438343E-1,3.4401023E-1,-3.8340464E-1,-1.2671898E-1,1.5173694E-1,5.7363725E-1,-1.2315367E-1,-4.0329745E-1,-1.387047E-1,3.7917608E-1,7.764412E-2,3.0984157E-1,4.4774884E-1,6.938865E-1,-3.7030035E-3,-3.301834E-2,-2.208611E-2,-1.6287569E-2,-6.238878E-4,-9.1825565E-3,1.3002957E-2,4.5140043E-2,1.24232E-2,2.4256299E-3,3.6786467E-2,1.4470346E-2,2.099889E-2,2.6811212E-2,3.1812474E-2,4.058826E-2],"categories":[],"categories_nodes":[],"categories_segments":[],"categories_sizes":[],"default_left":[1,1,0,1,0,0,0,0,0,0,0,0,0,0,0,0,0,0,0,0,0,0,0,0,0,0,0,0,0,0,0],"id":43,"left_children":[1,3,5,7,9,11,13,15,17,19,21,23,25,27,29,-1,-1,-1,-1,-1,-1,-1,-1,-1,-1,-1,-1,-1,-1,-1,-1],"loss_changes":[2.970468E5,2.1632422E4,5.761417E4,5.5213438E3,2.8763252E3,8.319965E3,9.002234E3,1.9973066E3,2.9520312E3,2.628957E3,6.845344E2,2.4065212E3,1.9721289E3,7.136406E2,2.066E3,0E0,0E0,0E0,0E0,0E0,0E0,0E0,0E0,0E0,0E0,0E0,0E0,0E0,0E0,0E0,0E0],"parents":[2147483647,0,0,1,1,2,2,3,3,4,4,5,5,6,6,7,7,8,8,9,9,10,10,11,11,12,12,13,13,14,14],"right_children":[2,4,6,8,10,12,14,16,18,20,22,24,26,28,30,-1,-1,-1,-1,-1,-1,-1,-1,-1,-1,-1,-1,-1,-1,-1,-1],"split_conditions":[8.7E1,6.9E1,2.7E1,3E0,2.6E1,1.13E2,2.9E1,6.9E1,5.7E1,1.7E1,2.9E1,1.9E1,1.9E1,1.41E2,3E1,-3.7030035E-3,-3.301834E-2,-2.208611E-2,-1.6287569E-2,-6.238878E-4,-9.1825565E-3,1.3002957E-2,4.5140043E-2,1.24232E-2,2.4256299E-3,3.6786467E-2,1.4470346E-2,2.099889E-2,2.6811212E-2,3.1812474E-2,4.058826E-2],"split_indices":[8,8,11,11,11,8,11,8,8,11,11,11,11,8,11,0,0,0,0,0,0,0,0,0,0,0,0,0,0,0,0],"split_type":[0,0,0,0,0,0,0,0,0,0,0,0,0,0,0,0,0,0,0,0,0,0,0,0,0,0,0,0,0,0,0],"sum_hessian":[2.8457858E6,1.5408542E6,1.3049314E6,1.0664981E6,4.743561E5,7.102339E5,5.9469756E5,7.5731766E4,9.907664E5,4.633784E5,1.09776875E4,4.8360347E5,2.2663039E5,2.905386E5,3.0415894E5,6.939151E4,6.340255E3,6.6249175E5,3.2827462E5,1.2167344E5,3.4170497E5,8.944452E3,2.033235E3,7.045654E4,4.131469E5,1.0374545E4,2.1625584E5,2.2113392E5,6.940469E4,2.0428147E5,9.987748E4],"tree_param":{"num_deleted":"0","num_feature":"3136","num_nodes":"31","size_leaf_vector":"1"}},{"base_weights":[2.624062E-3,1.1647669E-1,-2.7481398E-1,-3.7268855E-2,2.804266E-1,-1.6812585E-1,-4.5447344E-1,-2.1693298E-1,3.0602487E-2,2.1491611E-1,4.8369303E-1,-2.1328992E-1,2.4368715E-2,-4.102433E-1,-6.131307E-1,-1.8787084E-2,-8.145069E-3,3.5582576E-3,-4.311673E-3,1.33511275E-2,2.9486537E-3,2.8016249E-2,1.7654678E-2,-3.2609664E-2,-9.810912E-3,-3.2225676E-2,2.126747E-3,-1.7110623E-2,-2.3255413E-2,-3.07124E-2,-5.0780484E-3],"categories":[],"categories_nodes":[],"categories_segments":[],"categories_sizes":[],"default_left":[0,1,0,0,0,1,0,0,0,0,0,0,0,0,1,0,0,0,0,0,0,0,0,0,0,0,0,0,0,0,0],"id":44,"left_children":[1,3,5,7,9,11,13,15,17,19,21,23,25,27,29,-1,-1,-1,-1,-1,-1,-1,-1,-1,-1,-1,-1,-1,-1,-1,-1],"loss_changes":[9.2350586E4,5.225296E4,1.630566E4,1.3045048E4,1.3358625E4,4.6402793E3,2.223957E3,2.5168574E3,3.6798132E3,6.1648125E3,2.4469336E3,3.2391016E3,1.232535E3,9.2497656E2,3.9429688E1,0E0,0E0,0E0,0E0,0E0,0E0,0E0,0E0,0E0,0E0,0E0,0E0,0E0,0E0,0E0,0E0],"parents":[2147483647,0,0,1,1,2,2,3,3,4,4,5,5,6,6,7,7,8,8,9,9,10,10,11,11,12,12,13,13,14,14],"right_children":[2,4,6,8,10,12,14,16,18,20,22,24,26,28,30,-1,-1,-1,-1,-1,-1,-1,-1,-1,-1,-1,-1,-1,-1,-1,-1],"split_conditions":[9.6E1,1.2E1,2.8E1,-1.48E2,2.03E2,1.12E2,3E1,-3.18E2,7.6E1,7.6E1,6.4E1,9.7E1,9.7E1,2.9E1,6.09E2,-1.8787084E-2,-8.145069E-3,3.5582576E-3,-4.311673E-3,1.33511275E-2,2.9486537E-3,2.8016249E-2,1.7654678E-2,-3.2609664E-2,-9.810912E-3,-3.2225676E-2,2.126747E-3,-1.7110623E-2,-2.3255413E-2,-3.07124E-2,-5.0780484E-3],"split_indices":[8,2,11,2,2,2,11,2,8,8,8,8,8,11,2,0,0,0,0,0,0,0,0,0,0,0,0,0,0,0,0],"split_type":[0,0,0,0,0,0,0,0,0,0,0,0,0,0,0,0,0,0,0,0,0,0,0,0,0,0,0,0,0,0,0],"sum_hessian":[2.9236832E6,2.0729886E6,8.5069456E5,1.0697869E6,1.00320175E6,5.3374175E5,3.169528E5,2.9332247E5,7.764644E5,7.5868744E5,2.4451433E5,4.323107E5,1.01431086E5,2.4785883E5,6.909397E4,7.44613E4,2.1886117E5,5.763646E5,2.0009973E5,5.68672E5,1.9001545E5,1.540935E5,9.042083E4,1.6184287E4,4.161264E5,2.6810242E3,9.875006E4,1.10656055E5,1.3720278E5,6.8943195E4,1.5077692E2],"tree_param":{"num_deleted":"0","num_feature":"3136","num_nodes":"31","size_leaf_vector":"1"}},{"base_weights":[3.5551984E-3,7.9280056E-2,-3.372666E-1,2.9492426E-1,-2.0110749E-2,-2.3690745E-1,-4.992808E-1,3.654582E-1,1.2826529E-1,5.704276E-2,-1.627907E-1,-9.792397E-2,-2.8117868E-1,-4.474857E-1,-6.124036E-1,1.5298093E-2,2.6723072E-2,-3.6668222E-2,7.621035E-3,5.6832484E-3,-2.9835885E-3,-5.8731525E-3,-1.6480098E-2,-6.719352E-3,5.7864836E-3,-1.2119476E-2,-1.7933173E-2,-1.9289246E-2,-2.346666E-2,-3.1285618E-2,-3.055869E-2],"categories":[],"categories_nodes":[],"categories_segments":[],"categories_sizes":[],"default_left":[1,0,0,1,1,0,0,0,0,1,0,0,1,0,0,0,0,0,0,0,0,0,0,0,0,0,0,0,0,0,0],"id":45,"left_children":[1,3,5,7,9,11,13,15,17,19,21,23,25,27,29,-1,-1,-1,-1,-1,-1,-1,-1,-1,-1,-1,-1,-1,-1,-1,-1],"loss_changes":[7.541001E4,5.1240203E4,8.636578E3,8.866234E3,1.8014613E4,2.0181465E3,1.1901797E3,5.3286016E3,4.6683037E3,7.019202E3,4.342629E3,6.1733826E2,7.475781E2,1.876914E2,6.621094E-1,0E0,0E0,0E0,0E0,0E0,0E0,0E0,0E0,0E0,0E0,0E0,0E0,0E0,0E0,0E0,0E0],"parents":[2147483647,0,0,1,1,2,2,3,3,4,4,5,5,6,6,7,7,8,8,9,9,10,10,11,11,12,12,13,13,14,14],"right_children":[2,4,6,8,10,12,14,16,18,20,22,24,26,28,30,-1,-1,-1,-1,-1,-1,-1,-1,-1,-1,-1,-1,-1,-1,-1,-1],"split_conditions":[2.6E1,-6.9E1,2.9E1,7.9E1,8.2E1,-8.9E1,3E1,2.56E2,8E1,7.9E1,2.68E2,2.94E2,7.4E1,-7.4E1,9.9E1,1.5298093E-2,2.6723072E-2,-3.6668222E-2,7.621035E-3,5.6832484E-3,-2.9835885E-3,-5.8731525E-3,-1.6480098E-2,-6.719352E-3,5.7864836E-3,-1.2119476E-2,-1.7933173E-2,-1.9289246E-2,-2.346666E-2,-3.1285618E-2,-3.055869E-2],"split_indices":[11,2,11,14,3,2,11,3,14,14,3,3,2,2,14,0,0,0,0,0,0,0,0,0,0,0,0,0,0,0,0],"split_type":[0,0,0,0,0,0,0,0,0,0,0,0,0,0,0,0,0,0,0,0,0,0,0,0,0,0,0,0,0,0,0],"sum_hessian":[2.9218832E6,2.3907088E6,5.311744E5,7.542472E5,1.6364616E6,3.27999E5,2.031754E5,5.2995625E5,2.2429094E5,1.0621239E6,5.743378E5,7.923977E4,2.4875922E5,1.393683E5,6.380711E4,3.9196916E5,1.3798706E5,6.1156245E3,2.1817531E5,7.1517025E5,3.4695356E5,4.5162056E5,1.2271724E5,6.768818E4,1.1551592E4,1.6577553E5,8.2983695E4,3.6449043E4,1.0291925E5,5.3540874E3,5.8453023E4],"tree_param":{"num_deleted":"0","num_feature":"3136","num_nodes":"31","size_leaf_vector":"1"}},{"base_weights":[-7.3043457E-3,-2.967509E-1,3.3088443E-1,-3.8515735E-1,-1.4220595E-1,1.3997976E-1,4.4545802E-1,-3.9969313E-1,-4.720337E-2,-2.1496886E-1,-5.6868743E-2,6.562272E-2,2.1595626E-1,3.6815456E-1,5.16878E-1,-2.4914494E-2,-1.8461559E-2,3.2788746E-3,-3.274348E-2,-1.6883474E-2,-8.346618E-3,2.824945E-3,-4.5294254E-3,2.0336276E-3,8.648194E-3,1.1377912E-2,1.4855758E-3,1.682995E-2,2.0634882E-2,2.4702227E-2,2.9945562E-2],"categories":[],"categories_nodes":[],"categories_segments":[],"categories_sizes":[],"default_left":[1,1,0,0,0,0,0,0,0,