{"learner":{"attributes":{"scikit_learn":"{\"_estimator_type\": \"classifier\"}"},"feature_names":[],"feature_types":[],"gradient_booster":{"model":{"gbtree_model_param":{"num_parallel_tree":"1","num_trees":"540"},"iteration_indptr":[0,3,6,9,12,15,18,21,24,27,30,33,36,39,42,45,48,51,54,57,60,63,66,69,72,75,78,81,84,87,90,93,96,99,102,105,108,111,114,117,120,123,126,129,132,135,138,141,144,147,150,153,156,159,162,165,168,171,174,177,180,183,186,189,192,195,198,201,204,207,210,213,216,219,222,225,228,231,234,237,240,243,246,249,252,255,258,261,264,267,270,273,276,279,282,285,288,291,294,297,300,303,306,309,312,315,318,321,324,327,330,333,336,339,342,345,348,351,354,357,360,363,366,369,372,375,378,381,384,387,390,393,396,399,402,405,408,411,414,417,420,423,426,429,432,435,438,441,444,447,450,453,456,459,462,465,468,471,474,477,480,483,486,489,492,495,498,501,504,507,510,513,516,519,522,525,528,531,534,537,540],"tree_info":[0,1,2,0,1,2,0,1,2,0,1,2,0,1,2,0,1,2,0,1,2,0,1,2,0,1,2,0,1,2,0,1,2,0,1,2,0,1,2,0,1,2,0,1,2,0,1,2,0,1,2,0,1,2,0,1,2,0,1,2,0,1,2,0,1,2,0,1,2,0,1,2,0,1,2,0,1,2,0,1,2,0,1,2,0,1,2,0,1,2,0,1,2,0,1,2,0,1,2,0,1,2,0,1,2,0,1,2,0,1,2,0,1,2,0,1,2,0,1,2,0,1,2,0,1,2,0,1,2,0,1,2,0,1,2,0,1,2,0,1,2,0,1,2,0,1,2,0,1,2,0,1,2,0,1,2,0,1,2,0,1,2,0,1,2,0,1,2,0,1,2,0,1,2,0,1,2,0,1,2,0,1,2,0,1,2,0,1,2,0,1,2,0,1,2,0,1,2,0,1,2,0,1,2,0,1,2,0,1,2,0,1,2,0,1,2,0,1,2,0,1,2,0,1,2,0,1,2,0,1,2,0,1,2,0,1,2,0,1,2,0,1,2,0,1,2,0,1,2,0,1,2,0,1,2,0,1,2,0,1,2,0,1,2,0,1,2,0,1,2,0,1,2,0,1,2,0,1,2,0,1,2,0,1,2,0,1,2,0,1,2,0,1,2,0,1,2,0,1,2,0,1,2,0,1,2,0,1,2,0,1,2,0,1,2,0,1,2,0,1,2,0,1,2,0,1,2,0,1,2,0,1,2,0,1,2,0,1,2,0,1,2,0,1,2,0,1,2,0,1,2,0,1,2,0,1,2,0,1,2,0,1,2,0,1,2,0,1,2,0,1,2,0,1,2,0,1,2,0,1,2,0,1,2,0,1,2,0,1,2,0,1,2,0,1,2,0,1,2,0,1,2,0,1,2,0,1,2,0,1,2,0,1,2,0,1,2,0,1,2,0,1,2,0,1,2,0,1,2,0,1,2,0,1,2,0,1,2,0,1,2,0,1,2,0,1,2,0,1,2,0,1,2,0,1,2,0,1,2,0,1,2,0,1,2,0,1,2,0,1,2,0,1,2,0,1,2,0,1,2,0,1,2,0,1,2,0,1,2,0,1,2,0,1,2,0,1,2,0,1,2,0,1,2,0,1,2,0,1,2,0,1,2,0,1,2,0,1,2,0,1,2,0,1,2,0,1,2,0,1,2,0,1,2,0,1,2,0,1,2],"trees":[{"base_weights":[-1.717748E-4,3.8958284E-1,-1.2553488E-1,2.784617E-1,7.392162E-1,-2.7698806E-2,-3.1591156E-1,2.169049E-1,4.0395984E-1,9.4064856E-1,6.0776746E-1,4.304594E-2,-9.2303716E-2,-2.5102317E-1,-4.6378627E-1,7.260679E-2,1.0702751E-2,7.265828E-2,1.9993572E-2,5.6024637E-2,4.254564E-2,7.347534E-2,3.008239E-2,7.2841294E-2,2.046223E-3,7.2300516E-2,-4.7238036E-3,7.029237E-2,-1.2715419E-2,5.7125E-2,-2.3553876E-2],"categories":[],"categories_nodes":[],"categories_segments":[],"categories_sizes":[],"default_left":[0,0,1,0,0,0,0,0,0,0,0,0,0,0,0,0,0,0,0,0,0,0,0,0,0,0,0,0,0,0,0],"id":0,"left_children":[1,3,5,7,9,11,13,15,17,19,21,23,25,27,29,-1,-1,-1,-1,-1,-1,-1,-1,-1,-1,-1,-1,-1,-1,-1,-1],"loss_changes":[1.4745373E5,2.8534125E4,4.25297E4,4.305332E3,4.6893906E3,6.8935107E3,7.437375E3,1.3159727E3,7.861387E2,1.1278047E3,5.643633E2,2.1592275E3,2.6345977E3,2.9326758E3,2.7691367E3,0E0,0E0,0E0,0E0,0E0,0E0,0E0,0E0,0E0,0E0,0E0,0E0,0E0,0E0,0E0,0E0],"parents":[2147483647,0,0,1,1,2,2,3,3,4,4,5,5,6,6,7,7,8,8,9,9,10,10,11,11,12,12,13,13,14,14],"right_children":[2,4,6,8,10,12,14,16,18,20,22,24,26,28,30,-1,-1,-1,-1,-1,-1,-1,-1,-1,-1,-1,-1,-1,-1,-1,-1],"split_conditions":[-9.1E1,2.68E2,8.3E1,1.81E2,-3.86E2,-5E0,2.3E2,2.00001E0,2.00001E0,-5.3E2,2.00001E0,2.00001E0,2.00001E0,2.00001E0,2.00001E0,7.260679E-2,1.0702751E-2,7.265828E-2,1.9993572E-2,5.6024637E-2,4.254564E-2,7.347534E-2,3.008239E-2,7.2841294E-2,2.046223E-3,7.2300516E-2,-4.7238036E-3,7.029237E-2,-1.2715419E-2,5.7125E-2,-2.3553876E-2],"split_indices":[2,3,2,3,2,2,2,8,8,2,8,8,8,8,8,0,0,0,0,0,0,0,0,0,0,0,0,0,0,0,0],"split_type":[0,0,0,0,0,0,0,0,0,0,0,0,0,0,0,0,0,0,0,0,0,0,0,0,0,0,0,0,0,0,0],"sum_hessian":[3.0178282E6,7.344419E5,2.2833865E6,5.573163E5,1.771256E5,1.5082739E6,7.7511256E5,3.7391425E5,1.8340208E5,6.9941266E4,1.0718432E5,7.199274E5,7.8834656E5,5.38721E5,2.3639155E5,8.5952844E2,3.7305472E5,7.105051E2,1.8269158E5,2.327771E4,4.6663555E4,7.541188E2,1.064302E5,1.0776583E3,7.188497E5,1.1107645E3,7.8723575E5,1.0651942E3,5.376558E5,1.0674796E3,2.3532406E5],"tree_param":{"num_deleted":"0","num_feature":"3129","num_nodes":"31","size_leaf_vector":"1"}},{"base_weights":[-7.086469E-5,3.6451124E-2,-2.2625522E-1,-5.597892E-3,1.7869961E-1,-1.5144101E-1,-3.759085E-1,-1.507181E-1,2.9761432E-2,8.591874E-2,2.2447786E-1,-1.7899719E-1,-2.0284474E-2,-3.155705E-1,-4.9612242E-1,-1.1479154E-2,-4.6062013E-3,4.927792E-4,4.699148E-3,2.4436086E-3,1.0347697E-2,8.090373E-3,1.4110647E-2,-1.4978885E-2,-6.8104165E-3,-4.6324967E-3,2.9286924E-3,-1.9537924E-2,-1.3972411E-2,-2.2166703E-2,-2.7423445E-2],"categories":[],"categories_nodes":[],"categories_segments":[],"categories_sizes":[],"default_left":[1,0,0,0,0,0,0,0,0,0,0,0,0,0,0,0,0,0,0,0,0,0,0,0,0,0,0,0,0,0,0],"id":1,"left_children":[1,3,5,7,9,11,13,15,17,19,21,23,25,27,29,-1,-1,-1,-1,-1,-1,-1,-1,-1,-1,-1,-1,-1,-1,-1,-1],"loss_changes":[2.4931639E4,1.5542803E4,4.69767E3,1.029168E4,2.5181191E3,1.01102246E3,1.0142031E3,1.8157812E3,2.0616523E3,8.7830334E2,1.4363926E3,1.1926797E3,2.7717734E2,2.527832E2,1.2889258E2,0E0,0E0,0E0,0E0,0E0,0E0,0E0,0E0,0E0,0E0,0E0,0E0,0E0,0E0,0E0,0E0],"parents":[2147483647,0,0,1,1,2,2,3,3,4,4,5,5,6,6,7,7,8,8,9,9,10,10,11,11,12,12,13,13,14,14],"right_children":[2,4,6,8,10,12,14,16,18,20,22,24,26,28,30,-1,-1,-1,-1,-1,-1,-1,-1,-1,-1,-1,-1,-1,-1,-1,-1],"split_conditions":[2.46E2,1.889E3,3.85E2,2.00001E0,2.00001E0,1.98E3,5.28E2,1.624E3,1.743E3,2.141E3,1.982E3,2.00001E0,1.857E3,2.00001E0,6.13E2,-1.1479154E-2,-4.6062013E-3,4.927792E-4,4.699148E-3,2.4436086E-3,1.0347697E-2,8.090373E-3,1.4110647E-2,-1.4978885E-2,-6.8104165E-3,-4.6324967E-3,2.9286924E-3,-1.9537924E-2,-1.3972411E-2,-2.2166703E-2,-2.7423445E-2],"split_indices":[3,1,3,3125,3125,1,3,0,1,1,0,3125,0,3125,3,0,0,0,0,0,0,0,0,0,0,0,0,0,0,0,0],"split_type":[0,0,0,0,0,0,0,0,0,0,0,0,0,0,0,0,0,0,0,0,0,0,0,0,0,0,0,0,0,0,0],"sum_hessian":[3.0180992E6,2.5985175E6,4.1958178E5,2.0056448E6,5.9287275E5,2.7973803E5,1.3984378E5,3.9294278E5,1.612702E6,1.9587889E5,3.9699388E5,2.3116877E5,4.8569254E4,9.3112305E4,4.6731473E4,1.6749675E5,2.2544603E5,1.2311124E6,3.815896E5,1.4997561E5,4.590328E4,1.9036258E5,2.066313E5,6.0544957E4,1.7062381E5,2.5327207E4,2.3242047E4,3.021352E4,6.289878E4,2.327224E4,2.3459234E4],"tree_param":{"num_deleted":"0","num_feature":"3129","num_nodes":"31","size_leaf_vector":"1"}},{"base_weights":[1.4629209E-4,9.249509E-2,-1.2225041E-1,2.9484954E-2,4.7988316E-1,-3.5898626E-1,-6.9429584E-2,1.1986421E-1,-5.5106517E-2,2.936524E-1,8.542695E-1,-2.3951225E-1,-4.9241263E-1,2.202182E-2,-1.6382764E-1,1.1476257E-3,2.077232E-2,-1.2354526E-2,9.094894E-4,9.137863E-3,2.2904526E-2,3.706015E-2,5.4814734E-2,-8.566058E-3,-1.52937295E-2,5.9218723E-2,-2.4834529E-2,-1.0919773E-3,2.3787064E-2,-1.5006785E-2,-4.7195503E-3],"categories":[],"categories_nodes":[],"categories_segments":[],"categories_sizes":[],"default_left":[0,0,0,0,0,0,0,0,0,0,0,0,0,1,0,0,0,0,0,0,0,0,0,0,0,0,0,0,0,0,0],"id":2,"left_children":[1,3,5,7,9,11,13,15,17,19,21,23,25,27,29,-1,-1,-1,-1,-1,-1,-1,-1,-1,-1,-1,-1,-1,-1,-1,-1],"loss_changes":[3.4105027E4,4.197779E4,1.6225314E4,1.1308594E4,1.67742E4,3.7730918E3,9.158182E3,2.0484652E4,1.0751376E4,2.929793E3,2.186207E3,5.650718E2,8.026875E2,1.072329E4,4.940744E3,0E0,0E0,0E0,0E0,0E0,0E0,0E0,0E0,0E0,0E0,0E0,0E0,0E0,0E0,0E0,0E0],"parents":[2147483647,0,0,1,1,2,2,3,3,4,4,5,5,6,6,7,7,8,8,9,9,10,10,11,11,12,12,13,13,14,14],"right_children":[2,4,6,8,10,12,14,16,18,20,22,24,26,28,30,-1,-1,-1,-1,-1,-1,-1,-1,-1,-1,-1,-1,-1,-1,-1,-1],"split_conditions":[1.74E3,1.752E3,1.722E3,1.503E3,2.85E2,2.33E2,1.933E3,1.505E3,1.521E3,1.75E2,4.77E2,1.38E2,2.00001E0,1.91E2,1.959E3,1.1476257E-3,2.077232E-2,-1.2354526E-2,9.094894E-4,9.137863E-3,2.2904526E-2,3.706015E-2,5.4814734E-2,-8.566058E-3,-1.52937295E-2,5.9218723E-2,-2.4834529E-2,-1.0919773E-3,2.3787064E-2,-1.5006785E-2,-4.7195503E-3],"split_indices":[1,0,0,1,3,3,1,0,0,3,3,3,664,3,0,0,0,0,0,0,0,0,0,0,0,0,0,0,0,0,0],"split_type":[0,0,0,0,0,0,0,0,0,0,0,0,0,0,0,0,0,0,0,0,0,0,0,0,0,0,0,0,0,0,0],"sum_hessian":[3.0172908E6,1.7197401E6,1.2975506E6,1.4791516E6,2.4058855E5,2.3669764E5,1.060853E6,7.151115E5,7.640401E5,1.6066889E5,7.991965E4,1.2487951E5,1.1181813E5,5.388368E5,5.2201616E5,5.3854225E5,1.7656927E5,2.1110178E5,5.529384E5,9.595805E4,6.4710848E4,5.4474793E4,2.544486E4,6.159289E4,6.3286617E4,2.8385083E2,1.1153428E5,4.9133966E5,4.7497184E4,1.7617377E5,3.458424E5],"tree_param":{"num_deleted":"0","num_feature":"3129","num_nodes":"31","size_leaf_vector":"1"}},{"base_weights":[-1.8399458E-5,3.624306E-1,-1.2563081E-1,2.6661596E-1,7.238785E-1,-3.0560499E-2,-3.0754876E-1,3.9656723E-1,2.0142516E-1,9.511215E-1,6.3009465E-1,3.5066746E-2,-9.31144E-2,-2.4641705E-1,-4.5778325E-1,6.932081E-2,1.9629896E-2,6.896742E-2,9.935568E-3,5.2611012E-2,4.2436358E-2,2.7962623E-2,3.538732E-2,6.930542E-2,1.6515695E-3,6.889131E-2,-4.760638E-3,6.7211255E-2,-1.2482606E-2,5.5117685E-2,-2.3265315E-2],"categories":[],"categories_nodes":[],"categories_segments":[],"categories_sizes":[],"default_left":[0,0,1,0,0,0,0,0,0,0,0,0,0,0,0,0,0,0,0,0,0,0,0,0,0,0,0,0,0,0,0],"id":3,"left_children":[1,3,5,7,9,11,13,15,17,19,21,23,25,27,29,-1,-1,-1,-1,-1,-1,-1,-1,-1,-1,-1,-1,-1,-1,-1,-1],"loss_changes":[1.374011E5,2.689943E4,3.876177E4,5.201285E3,3.4679844E3,6.042776E3,7.0647344E3,8.0533203E2,1.3067363E3,4.9128516E2,6.333789E2,1.975273E3,2.3262544E3,2.8139219E3,2.6117852E3,0E0,0E0,0E0,0E0,0E0,0E0,0E0,0E0,0E0,0E0,0E0,0E0,0E0,0E0,0E0,0E0],"parents":[2147483647,0,0,1,1,2,2,3,3,4,4,5,5,6,6,7,7,8,8,9,9,10,10,11,11,12,12,13,13,14,14],"right_children":[2,4,6,8,10,12,14,16,18,20,22,24,26,28,30,-1,-1,-1,-1,-1,-1,-1,-1,-1,-1,-1,-1,-1,-1,-1,-1],"split_conditions":[-8.5E1,2.8E2,8.3E1,-1.79E2,-4.41E2,-2E0,2.36E2,2.00001E0,2.00001E0,-5.3E2,3.38E2,2.00001E0,2.00001E0,2.00001E0,2.00001E0,6.932081E-2,1.9629896E-2,6.896742E-2,9.935568E-3,5.2611012E-2,4.2436358E-2,2.7962623E-2,3.538732E-2,6.930542E-2,1.6515695E-3,6.889131E-2,-4.760638E-3,6.7211255E-2,-1.2482606E-2,5.5117685E-2,-2.3265315E-2],"split_indices":[2,3,2,2,2,2,3,8,8,2,3,8,8,8,8,0,0,0,0,0,0,0,0,0,0,0,0,0,0,0,0],"split_type":[0,0,0,0,0,0,0,0,0,0,0,0,0,0,0,0,0,0,0,0,0,0,0,0,0,0,0,0,0,0,0],"sum_hessian":[3.017939E6,7.7672675E5,2.2412122E6,6.139731E5,1.6275367E5,1.4719648E6,7.692475E5,2.0510734E5,4.0886575E5,4.7543715E4,1.1520995E5,7.1833625E5,7.536285E5,5.467662E5,2.2248131E5,8.178116E2,2.0428953E5,9.3865436E2,4.079271E5,2.3918543E4,2.3625172E4,6.0250867E4,5.495909E4,1.0795284E3,7.172567E5,1.0726172E3,7.525559E5,1.1089252E3,5.4565725E5,1.066968E3,2.2141434E5],"tree_param":{"num_deleted":"0","num_feature":"3129","num_nodes":"31","size_leaf_vector":"1"}},{"base_weights":[1.0085619E-4,3.954007E-2,-1.925658E-1,-4.3730247E-3,1.6747022E-1,-1.2937291E-1,-3.6328948E-1,-1.7375624E-1,2.4515292E-2,7.455221E-2,2.0556241E-1,-1.5270807E-1,2.0369604E-2,-3.0482876E-1,-4.804338E-1,-1.364003E-2,-6.1688833E-3,2.4989172E-4,4.145211E-3,1.8963668E-3,1.0786294E-2,7.5816656E-3,1.3225408E-2,-1.3849589E-2,-5.904407E-3,-2.4790715E-3,4.8599304E-3,-2.3765339E-2,-1.4422749E-2,-2.128273E-2,-2.6758606E-2],"categories":[],"categories_nodes":[],"categories_segments":[],"categories_sizes":[],"default_left":[1,0,0,1,1,0,0,0,0,0,0,1,0,1,0,0,0,0,0,0,0,0,0,0,0,0,0,0,0,0,0],"id":4,"left_children":[1,3,5,7,9,11,13,15,17,19,21,23,25,27,29,-1,-1,-1,-1,-1,-1,-1,-1,-1,-1,-1,-1,-1,-1,-1,-1],"loss_changes":[2.293289E4,1.4073801E4,5.532537E3,9.125945E3,2.2658906E3,1.3078496E3,9.486172E2,1.3558516E3,1.8157202E3,9.6242456E2,1.4433242E3,1.3932695E3,2.7120956E2,2.5784277E2,1.3806152E2,0E0,0E0,0E0,0E0,0E0,0E0,0E0,0E0,0E0,0E0,0E0,0E0,0E0,0E0,0E0,0E0],"parents":[2147483647,0,0,1,1,2,2,3,3,4,4,5,5,6,6,7,7,8,8,9,9,10,10,11,11,12,12,13,13,14,14],"right_children":[2,4,6,8,10,12,14,16,18,20,22,24,26,28,30,-1,-1,-1,-1,-1,-1,-1,-1,-1,-1,-1,-1,-1,-1,-1,-1],"split_conditions":[2.21E2,1.866E3,3.85E2,9E1,9E1,2.025E3,5.28E2,1.584E3,1.723E3,2.152E3,1.982E3,9E1,1.908E3,4.5E1,6.13E2,-1.364003E-2,-6.1688833E-3,2.4989172E-4,4.145211E-3,1.8963668E-3,1.0786294E-2,7.5816656E-3,1.3225408E-2,-1.3849589E-2,-5.904407E-3,-2.4790715E-3,4.8599304E-3,-2.3765339E-2,-1.4422749E-2,-2.128273E-2,-2.6758606E-2],"split_indices":[3,1,3,4,4,1,3,0,1,1,0,4,0,4,3,0,0,0,0,0,0,0,0,0,0,0,0,0,0,0,0],"split_type":[0,0,0,0,0,0,0,0,0,0,0,0,0,0,0,0,0,0,0,0,0,0,0,0,0,0,0,0,0,0,0],"sum_hessian":[3.018031E6,2.5052105E6,5.1282038E5,1.8650259E6,6.401848E5,3.7428253E5,1.3853786E5,2.7173497E5,1.5932909E6,1.8613938E5,4.540454E5,3.2381994E5,5.046257E4,9.241957E4,4.6118285E4,9.161512E4,1.8011986E5,1.1941332E6,3.9915756E5,1.4779738E5,3.8341996E4,2.3711444E5,2.1693098E5,7.0548305E4,2.5327164E5,2.6413785E4,2.4048785E4,8.096253E3,8.432332E4,2.3054928E4,2.3063357E4],"tree_param":{"num_deleted":"0","num_feature":"3129","num_nodes":"31","size_leaf_vector":"1"}},{"base_weights":[1.1282314E-6,-1.1984639E-1,3.949651E-1,-3.1981986E-2,-3.3162162E-1,2.7133247E-1,6.7492217E-1,-9.859549E-2,5.1263105E-2,-2.641309E-1,-4.595422E-1,2.1105908E-1,3.6670285E-1,5.6536835E-1,9.008001E-1,-7.001756E-3,-2.918233E-3,3.9701136E-3,-6.024249E-4,5.728787E-2,-1.3289961E-2,5.9507765E-2,-2.3146195E-2,1.2106832E-2,7.163213E-3,-3.0917546E-2,1.8455854E-2,-2.6119307E-2,2.8467396E-2,4.1083444E-2,5.2572846E-2],"categories":[],"categories_nodes":[],"categories_segments":[],"categories_sizes":[],"default_left":[1,1,0,1,0,0,0,0,0,0,0,0,0,0,0,0,0,0,0,0,0,0,0,0,0,0,0,0,0,0,0],"id":5,"left_children":[1,3,5,7,9,11,13,15,17,19,21,23,25,27,29,-1,-1,-1,-1,-1,-1,-1,-1,-1,-1,-1,-1,-1,-1,-1,-1],"loss_changes":[1.4287656E5,4.3089535E4,2.4320719E4,9.075721E3,5.8623594E3,2.8017852E3,5.3260703E3,1.5156875E3,1.2960913E3,1.045877E3,1.3089102E3,6.2923535E2,4.4911133E2,6.2777344E2,8.372383E2,0E0,0E0,0E0,0E0,0E0,0E0,0E0,0E0,0E0,0E0,0E0,0E0,0E0,0E0,0E0,0E0],"parents":[2147483647,0,0,1,1,2,2,3,3,4,4,5,5,6,6,7,7,8,8,9,9,10,10,11,11,12,12,13,13,14,14],"right_children":[2,4,6,8,10,12,14,16,18,20,22,24,26,28,30,-1,-1,-1,-1,-1,-1,-1,-1,-1,-1,-1,-1,-1,-1,-1,-1],"split_conditions":[9.6E1,1.01E2,2.43E2,7E0,2.33E2,1.65E2,3.85E2,-3.7E1,1.799E3,2.00001E0,2.00001E0,1.756E3,2.00001E0,2.00001E0,5.24E2,-7.001756E-3,-2.918233E-3,3.9701136E-3,-6.024249E-4,5.728787E-2,-1.3289961E-2,5.9507765E-2,-2.3146195E-2,1.2106832E-2,7.163213E-3,-3.0917546E-2,1.8455854E-2,-2.6119307E-2,2.8467396E-2,4.1083444E-2,5.2572846E-2],"split_indices":[2,3,2,2,3,2,3,2,1,664,664,1,8,8,2,0,0,0,0,0,0,0,0,0,0,0,0,0,0,0,0],"split_type":[0,0,0,0,0,0,0,0,0,0,0,0,0,0,0,0,0,0,0,0,0,0,0,0,0,0,0,0,0,0,0],"sum_hessian":[3.0183818E6,2.3157065E6,7.0267525E5,1.6366644E6,6.790421E5,4.8742434E5,2.1525088E5,9.0915206E5,7.2751225E5,4.4451812E5,2.3452402E5,2.9867012E5,1.8875423E5,1.4495112E5,7.029974E4,4.478467E5,4.613054E5,5.036585E5,2.2385378E5,5.245654E2,4.4399356E5,4.790438E2,2.3404497E5,2.0479036E5,9.387975E4,4.6085196E2,1.8829339E5,5.279031E2,1.4442322E5,4.6095125E4,2.4204617E4],"tree_param":{"num_deleted":"0","num_feature":"3129","num_nodes":"31","size_leaf_vector":"1"}},{"base_weights":[-1.663194E-4,3.4606656E-1,-1.2151623E-1,2.4882518E-1,6.652325E-1,-4.189502E-2,-3.251305E-1,1.7724758E-1,3.4688693E-1,8.39695E-1,5.49896E-1,2.8761752E-2,-1.0668354E-1,-2.6371747E-1,-4.5433688E-1,6.585261E-2,8.737743E-3,6.532132E-2,1.7162485E-2,4.9689047E-2,3.8105402E-2,6.718137E-2,2.7210334E-2,6.6283315E-2,1.3337143E-3,6.575232E-2,-5.436916E-3,6.368949E-2,-1.3359214E-2,5.2302163E-2,-2.309918E-2],"categories":[],"categories_nodes":[],"categories_segments":[],"categories_sizes":[],"default_left":[0,0,1,0,0,1,0,0,0,0,0,0,0,0,0,0,0,0,0,0,0,0,0,0,0,0,0,0,0,0,0],"id":6,"left_children":[1,3,5,7,9,11,13,15,17,19,21,23,25,27,29,-1,-1,-1,-1,-1,-1,-1,-1,-1,-1,-1,-1,-1,-1,-1,-1],"loss_changes":[1.2675362E5,2.4299555E4,3.6215895E4,4.2121445E3,3.6785703E3,7.3514893E3,4.9828438E3,9.853955E2,8.832832E2,8.6915625E2,4.9633203E2,2.0795896E3,2.4474854E3,2.269211E3,2.3216719E3,0E0,0E0,0E0,0E0,0E0,0E0,0E0,0E0,0E0,0E0,0E0,0E0,0E0,0E0,0E0,0E0],"parents":[2147483647,0,0,1,1,2,2,3,3,4,4,5,5,6,6,7,7,8,8,9,9,10,10,11,11,12,12,13,13,14,14],"right_children":[2,4,6,8,10,12,14,16,18,20,22,24,26,28,30,-1,-1,-1,-1,-1,-1,-1,-1,-1,-1,-1,-1,-1,-1,-1,-1],"split_conditions":[-8.5E1,2.68E2,1.07E2,1.6E2,-3.86E2,2E0,2.46E2,2.00001E0,2.00001E0,-5.3E2,2.00001E0,2.00001E0,2.00001E0,2.00001E0,2.00001E0,6.585261E-2,8.737743E-3,6.532132E-2,1.7162485E-2,4.9689047E-2,3.8105402E-2,6.718137E-2,2.7210334E-2,6.6283315E-2,1.3337143E-3,6.575232E-2,-5.436916E-3,6.368949E-2,-1.3359214E-2,5.2302163E-2,-2.309918E-2],"split_indices":[2,3,2,3,2,2,3,8,8,2,8,8,8,8,8,0,0,0,0,0,0,0,0,0,0,0,0,0,0,0,0],"split_type":[0,0,0,0,0,0,0,0,0,0,0,0,0,0,0,0,0,0,0,0,0,0,0,0,0,0,0,0,0,0,0],"sum_hessian":[3.0168402E6,7.829481E5,2.2338922E6,6.0011175E5,1.8283638E5,1.6059166E6,6.2797556E5,3.4690234E5,2.5320939E5,7.276419E4,1.1007219E5,7.681699E5,8.3774675E5,4.2565894E5,2.0231662E5,7.558586E2,3.461465E5,9.5484863E2,2.5225453E5,2.4364676E4,4.8399508E4,7.816844E2,1.0929051E5,1.2334209E3,7.669365E5,1.208096E3,8.365387E5,9.5680347E2,4.2470212E5,1.0251938E3,2.0129142E5],"tree_param":{"num_deleted":"0","num_feature":"3129","num_nodes":"31","size_leaf_vector":"1"}},{"base_weights":[-1.1235026E-5,3.370553E-2,-2.1163812E-1,-8.347557E-3,1.5783441E-1,-1.4280635E-1,-3.512501E-1,-1.5257204E-1,2.5988055E-2,7.1815446E-2,1.9910628E-1,-2.3416676E-1,-1.0491349E-1,-2.9310888E-1,-4.6848637E-1,-1.1438958E-2,-5.0485297E-3,-3.667303E-2,1.3715372E-3,-1.3998328E-3,5.7758926E-3,6.4235763E-3,1.2329414E-2,-1.6642554E-2,-7.1004243E-3,-6.4627724E-3,9.623384E-4,-1.855073E-2,-1.2786276E-2,-2.0611117E-2,-2.6245931E-2],"categories":[],"categories_nodes":[],"categories_segments":[],"categories_sizes":[],"default_left":[1,0,0,0,0,0,0,0,0,0,0,0,0,0,0,0,0,0,0,0,0,0,0,0,0,0,0,0,0,0,0],"id":7,"left_children":[1,3,5,7,9,11,13,15,17,19,21,23,25,27,29,-1,-1,-1,-1,-1,-1,-1,-1,-1,-1,-1,-1,-1,-1,-1,-1],"loss_changes":[2.1531848E4,1.3587244E4,3.985123E3,9.627948E3,2.3384082E3,9.6156006E2,9.3328906E2,1.4701484E3,1.7206008E3,9.315902E2,1.4928281E3,7.4052246E2,5.9337964E2,2.6651855E2,1.4392383E2,0E0,0E0,0E0,0E0,0E0,0E0,0E0,0E0,0E0,0E0,0E0,0E0,0E0,0E0,0E0,0E0],"parents":[2147483647,0,0,1,1,2,2,3,3,4,4,5,5,6,6,7,7,8,8,9,9,10,10,11,11,12,12,13,13,14,14],"right_children":[2,4,6,8,10,12,14,16,18,20,22,24,26,28,30,-1,-1,-1,-1,-1,-1,-1,-1,-1,-1,-1,-1,-1,-1,-1,-1],"split_conditions":[2.46E2,1.869E3,3.85E2,2.00001E0,2.00001E0,2.00001E0,5.28E2,1.603E3,2.00001E0,1.923E3,1.939E3,1.77E3,1.945E3,2.00001E0,6.13E2,-1.1438958E-2,-5.0485297E-3,-3.667303E-2,1.3715372E-3,-1.3998328E-3,5.7758926E-3,6.4235763E-3,1.2329414E-2,-1.6642554E-2,-7.1004243E-3,-6.4627724E-3,9.623384E-4,-1.855073E-2,-1.2786276E-2,-2.0611117E-2,-2.6245931E-2],"split_indices":[3,1,3,3125,3125,3125,3,1,8,0,0,1,1,3125,3,0,0,0,0,0,0,0,0,0,0,0,0,0,0,0,0],"split_type":[0,0,0,0,0,0,0,0,0,0,0,0,0,0,0,0,0,0,0,0,0,0,0,0,0,0,0,0,0,0,0],"sum_hessian":[3.0176182E6,2.6029178E6,4.147005E5,1.9442385E6,6.586792E5,2.7776053E5,1.3694E5,3.7386016E5,1.5703784E6,2.1356631E5,4.4511288E5,8.142885E4,1.9633167E5,9.1543914E4,4.539608E4,1.5094094E5,2.229192E5,2.9765515E3,1.5674018E6,6.5034387E4,1.4853192E5,1.7893333E5,2.6617953E5,3.93209E4,4.2107953E4,1.6414964E5,3.2182023E4,2.968094E4,6.1862977E4,2.2736084E4,2.2659994E4],"tree_param":{"num_deleted":"0","num_feature":"3129","num_nodes":"31","size_leaf_vector":"1"}},{"base_weights":[1.0478098E-4,-1.2840933E-1,3.4126732E-1,-4.2787556E-2,-3.216774E-1,2.3386429E-1,6.3965386E-1,-1.1012457E-1,1.8553214E-2,-2.5577223E-1,-4.4729105E-1,1.7135E-1,3.3796114E-1,5.5423933E-1,9.01314E-1,-4.4113565E-3,-8.389505E-3,2.2308314E-3,-1.9203458E-3,5.565207E-2,-1.2872259E-2,5.7866454E-2,-2.253248E-2,1.0139082E-2,5.5282074E-3,2.0808924E-2,1.5473497E-2,2.4778297E-2,3.2158747E-2,-1.1664458E-2,4.5469727E-2],"categories":[],"categories_nodes":[],"categories_segments":[],"categories_sizes":[],"default_left":[1,1,0,0,0,0,0,0,0,0,0,0,0,0,0,0,0,0,0,0,0,0,0,0,0,0,0,0,0,0,0],"id":8,"left_children":[1,3,5,7,9,11,13,15,17,19,21,23,25,27,29,-1,-1,-1,-1,-1,-1,-1,-1,-1,-1,-1,-1,-1,-1,-1,-1],"loss_changes":[1.3224889E5,3.6256543E4,2.6449969E4,6.2715254E3,5.5685312E3,3.9493164E3,4.881703E3,9.139414E2,1.17957E3,1.01056836E3,1.247957E3,7.244404E2,5.0732617E2,8.590586E2,4.9307422E2,0E0,0E0,0E0,0E0,0E0,0E0,0E0,0E0,0E0,0E0,0E0,0E0,0E0,0E0,0E0,0E0],"parents":[2147483647,0,0,1,1,2,2,3,3,4,4,5,5,6,6,7,7,8,8,9,9,10,10,11,11,12,12,13,13,14,14],"right_children":[2,4,6,8,10,12,14,16,18,20,22,24,26,28,30,-1,-1,-1,-1,-1,-1,-1,-1,-1,-1,-1,-1,-1,-1,-1,-1],"split_conditions":[7.7E1,1.01E2,2.43E2,-9E0,2.33E2,1.54E2,4.23E2,1.872E3,1.799E3,2.00001E0,2.00001E0,1.745E3,2.00001E0,3.17E2,2.00001E0,-4.4113565E-3,-8.389505E-3,2.2308314E-3,-1.9203458E-3,5.565207E-2,-1.2872259E-2,5.7866454E-2,-2.253248E-2,1.0139082E-2,5.5282074E-3,2.0808924E-2,1.5473497E-2,2.4778297E-2,3.2158747E-2,-1.1664458E-2,4.5469727E-2],"split_indices":[2,3,2,2,3,2,3,1,1,664,664,1,3125,3,8,0,0,0,0,0,0,0,0,0,0,0,0,0,0,0,0],"split_type":[0,0,0,0,0,0,0,0,0,0,0,0,0,0,0,0,0,0,0,0,0,0,0,0,0,0,0,0,0,0,0],"sum_hessian":[3.0163352E6,2.1909985E6,8.253369E5,1.5183424E6,6.726561E5,6.068908E5,2.1844606E5,7.2379425E5,7.945481E5,4.411848E5,2.314713E5,3.791805E5,2.277103E5,1.6468919E5,5.3756875E4,5.2459225E5,1.9920197E5,5.451174E5,2.4943075E5,5.377349E2,4.4064706E5,4.8274692E2,2.3098855E5,2.4993817E5,1.2924235E5,6.079509E4,1.669152E5,9.9230516E4,6.5458664E4,3.7994412E2,5.337693E4],"tree_param":{"num_deleted":"0","num_feature":"3129","num_nodes":"31","size_leaf_vector":"1"}},{"base_weights":[3.491905E-4,3.039828E-1,-1.2779075E-1,2.0698716E-1,5.98175E-1,-5.0557848E-2,-3.17872E-1,2.935082E-1,1.3845538E-1,7.947895E-1,4.9980623E-1,-2.5767467E-3,-1.2673724E-1,-2.5864896E-1,-4.46218E-1,6.254685E-2,1.4511757E-2,6.254664E-2,6.8119364E-3,4.7232024E-2,3.5972103E-2,6.342565E-2,2.4730528E-2,6.296442E-2,-2.277965E-4,6.281417E-2,-6.4386963E-3,6.0460605E-2,-1.3102138E-2,4.993823E-2,-2.2691788E-2],"categories":[],"categories_nodes":[],"categories_segments":[],"categories_sizes":[],"default_left":[0,0,1,0,0,1,0,0,0,0,0,0,0,0,0,0,0,0,0,0,0,0,0,0,0,0,0,0,0,0,0],"id":9,"left_children":[1,3,5,7,9,11,13,15,17,19,21,23,25,27,29,-1,-1,-1,-1,-1,-1,-1,-1,-1,-1,-1,-1,-1,-1,-1,-1],"loss_changes":[1.17287875E5,2.5528695E4,3.1121031E4,3.9893633E3,4.289875E3,5.5098276E3,4.655383E3,9.3153125E2,9.256543E2,8.3451953E2,5.8990625E2,2.3098552E3,1.6410215E3,2.088121E3,2.1291172E3,0E0,0E0,0E0,0E0,0E0,0E0,0E0,0E0,0E0,0E0,0E0,0E0,0E0,0E0,0E0,0E0],"parents":[2147483647,0,0,1,1,2,2,3,3,4,4,5,5,6,6,7,7,8,8,9,9,10,10,11,11,12,12,13,13,14,14],"right_children":[2,4,6,8,10,12,14,16,18,20,22,24,26,28,30,-1,-1,-1,-1,-1,-1,-1,-1,-1,-1,-1,-1,-1,-1,-1,-1],"split_conditions":[-6.9E1,2.46E2,1.09E2,-1.38E2,-3.86E2,2.7E1,2.5E2,2.00001E0,2.00001E0,-5.3E2,2.00001E0,2.00001E0,2.00001E0,2.00001E0,2.00001E0,6.254685E-2,1.4511757E-2,6.254664E-2,6.8119364E-3,4.7232024E-2,3.5972103E-2,6.342565E-2,2.4730528E-2,6.296442E-2,-2.277965E-4,6.281417E-2,-6.4386963E-3,6.0460605E-2,-1.3102138E-2,4.993823E-2,-2.2691788E-2],"split_indices":[2,3,3,2,2,2,2,8,8,2,8,8,8,8,8,0,0,0,0,0,0,0,0,0,0,0,0,0,0,0,0],"split_type":[0,0,0,0,0,0,0,0,0,0,0,0,0,0,0,0,0,0,0,0,0,0,0,0,0,0,0,0,0,0,0],"sum_hessian":[3.0145222E6,8.946368E5,2.1198855E6,6.728115E5,2.2182534E5,1.5074051E6,6.124803E5,2.9737438E5,3.754371E5,7.397024E4,1.4785511E5,9.2487775E5,5.825273E5,4.1909788E5,1.933824E5,1.0118422E3,2.9636253E5,7.4546735E2,3.7469162E5,2.4745281E4,4.9224965E4,9.910052E2,1.468641E5,1.447366E3,9.234304E5,8.5568726E2,5.816716E5,9.6593286E2,4.1813194E5,1.0134549E3,1.9236895E5],"tree_param":{"num_deleted":"0","num_feature":"3129","num_nodes":"31","size_leaf_vector":"1"}},{"base_weights":[3.373237E-4,-4.397305E-2,8.6882316E-2,-2.2462748E-1,-1.2559132E-2,-2.4800442E-1,1.1863674E-1,-2.6251775E-1,3.723726E-3,3.6882379E-3,-1.9408181E-1,-4.162231E-1,-1.7751478E-1,3.0735573E-2,1.5896818E-1,-2.0179842E-2,-1.0522408E-2,-3.2975958E-3,3.4035046E-3,-8.103537E-3,6.5397506E-4,-7.3630377E-3,-1.8244097E-2,-2.5786797E-2,-1.7917264E-2,-1.1510083E-2,-2.432224E-3,-1.4402047E-4,8.140254E-3,4.327404E-3,1.033273E-2],"categories":[],"categories_nodes":[],"categories_segments":[],"categories_sizes":[],"default_left":[0,1,0,1,1,0,0,0,0,0,0,0,0,0,0,0,0,0,0,0,0,0,0,0,0,0,0,0,0,0,0],"id":10,"left_children":[1,3,5,7,9,11,13,15,17,19,21,23,25,27,29,-1,-1,-1,-1,-1,-1,-1,-1,-1,-1,-1,-1,-1,-1,-1,-1],"loss_changes":[1.1570698E4,1.1324872E4,1.0864996E4,2.5576445E3,5.013599E3,1.0492036E3,3.3084219E3,1.8623574E3,1.8861942E2,2.4288894E3,1.1167778E3,1.5031201E2,4.234026E2,1.3031028E3,2.209171E3,0E0,0E0,0E0,0E0,0E0,0E0,0E0,0E0,0E0,0E0,0E0,0E0,0E0,0E0,0E0,0E0],"parents":[2147483647,0,0,1,1,2,2,3,3,4,4,5,5,6,6,7,7,8,8,9,9,10,10,11,11,12,12,13,13,14,14],"right_children":[2,4,6,8,10,12,14,16,18,20,22,24,26,28,30,-1,-1,-1,-1,-1,-1,-1,-1,-1,-1,-1,-1,-1,-1,-1,-1],"split_conditions":[1.807E3,9E1,-2.94E2,2E0,2.43E2,-4.78E2,2.00001E0,1.513E3,1.526E3,-2.28E2,4.35E2,-6.16E2,1.755E3,2.12E3,1.887E3,-2.0179842E-2,-1.0522408E-2,-3.2975958E-3,3.4035046E-3,-8.103537E-3,6.5397506E-4,-7.3630377E-3,-1.8244097E-2,-2.5786797E-2,-1.7917264E-2,-1.1510083E-2,-2.432224E-3,-1.4402047E-4,8.140254E-3,4.327404E-3,1.033273E-2],"split_indices":[1,4,2,5,2,2,3125,1,1,2,2,2,0,1,0,0,0,0,0,0,0,0,0,0,0,0,0,0,0,0,0],"split_type":[0,0,0,0,0,0,0,0,0,0,0,0,0,0,0,0,0,0,0,0,0,0,0,0,0,0,0,0,0,0,0],"sum_hessian":[3.0172542E6,1.995549E6,1.0217054E6,2.9560197E5,1.699947E6,8.8488305E4,9.3321706E5,2.5353312E5,4.2068863E4,1.5602924E6,1.3965456E5,2.6128803E4,6.2359504E4,2.9351394E5,6.397031E5,6.834641E4,1.8518672E5,2.0198004E4,2.187086E4,8.365939E4,1.476633E6,1.0960943E5,3.0045123E4,9.605528E3,1.6523275E4,4.4262566E4,1.8096938E4,2.3396356E5,5.9550363E4,2.5398525E5,3.857179E5],"tree_param":{"num_deleted":"0","num_feature":"3129","num_nodes":"31","size_leaf_vector":"1"}},{"base_weights":[-1.890528E-4,-1.2436142E-1,3.2597739E-1,-4.1826937E-2,-3.122048E-1,2.1006101E-1,5.7507896E-1,-1.0541866E-1,1.8221194E-2,-2.549021E-1,-4.5215365E-1,1.4735262E-1,2.8436488E-1,4.8589766E-1,8.100471E-1,5.4194E-2,-5.3231395E-3,2.2770138E-3,-1.5664891E-3,5.3515602E-2,-1.2828826E-2,5.5027157E-2,-2.2788167E-2,8.417324E-3,3.630581E-3,1.5711695E-2,1.0636125E-2,2.184892E-2,2.8321698E-2,3.6955867E-2,4.7522187E-2],"categories":[],"categories_nodes":[],"categories_segments":[],"categories_sizes":[],"default_left":[1,1,0,1,0,0,0,0,0,0,0,0,0,0,0,0,0,0,0,0,0,0,0,0,0,0,0,0,0,0,0],"id":11,"left_children":[1,3,5,7,9,11,13,15,17,19,21,23,25,27,29,-1,-1,-1,-1,-1,-1,-1,-1,-1,-1,-1,-1,-1,-1,-1,-1],"loss_changes":[1.2218054E5,3.3874188E4,2.401832E4,5.7964634E3,5.3485625E3,2.6449473E3,5.534836E3,9.155957E2,1.0568767E3,1.050293E3,1.0864531E3,4.8303857E2,5.558906E2,7.541367E2,7.229922E2,0E0,0E0,0E0,0E0,0E0,0E0,0E0,0E0,0E0,0E0,0E0,0E0,0E0,0E0,0E0,0E0],"parents":[2147483647,0,0,1,1,2,2,3,3,4,4,5,5,6,6,7,7,8,8,9,9,10,10,11,11,12,12,13,13,14,14],"right_children":[2,4,6,8,10,12,14,16,18,20,22,24,26,28,30,-1,-1,-1,-1,-1,-1,-1,-1,-1,-1,-1,-1,-1,-1,-1,-1],"split_conditions":[7.7E1,1.01E2,2.21E2,-9E0,2.53E2,1.35E2,3.85E2,2.00001E0,1.77E3,2.00001E0,2.00001E0,1.843E3,1.745E3,2.94E2,5.28E2,5.4194E-2,-5.3231395E-3,2.2770138E-3,-1.5664891E-3,5.3515602E-2,-1.2828826E-2,5.5027157E-2,-2.2788167E-2,8.417324E-3,3.630581E-3,1.5711695E-2,1.0636125E-2,2.184892E-2,2.8321698E-2,3.6955867E-2,4.7522187E-2],"split_indices":[2,3,3,2,3,3,3,664,1,664,664,1,1,3,3,0,0,0,0,0,0,0,0,0,0,0,0,0,0,0,0],"split_type":[0,0,0,0,0,0,0,0,0,0,0,0,0,0,0,0,0,0,0,0,0,0,0,0,0,0,0,0,0,0,0],"sum_hessian":[3.0167375E6,2.18493E6,8.3180756E5,1.5179679E6,6.669622E5,5.6765706E5,2.6415047E5,7.372306E5,7.807372E5,4.732078E5,1.9375438E5,3.078508E5,2.5980628E5,1.9147858E5,7.26719E4,6.457642E2,7.365848E5,5.032687E5,2.7746853E5,5.9633453E2,4.726115E5,4.4868777E2,1.9330569E5,2.4034072E5,6.751009E4,1.8335772E5,7.644856E4,1.1912578E5,7.2352805E4,4.82844E4,2.4387502E4],"tree_param":{"num_deleted":"0","num_feature":"3129","num_nodes":"31","size_leaf_vector":"1"}},{"base_weights":[-1.9156192E-4,3.1375018E-1,-1.1486215E-1,2.3217498E-1,6.203008E-1,-3.757754E-2,-2.9893336E-1,3.342967E-1,1.6842905E-1,8.0653733E-1,5.4248226E-1,2.5880042E-2,-9.558066E-2,-2.4167047E-1,-4.3145904E-1,5.990264E-2,1.6540617E-2,5.991702E-2,8.302047E-3,3.7755653E-2,4.7579188E-2,2.3630671E-2,3.020138E-2,6.056666E-2,1.1999387E-3,6.048233E-2,-4.8795133E-3,5.8851916E-2,-1.2248847E-2,4.9652066E-2,-2.1948704E-2],"categories":[],"categories_nodes":[],"categories_segments":[],"categories_sizes":[],"default_left":[0,0,1,0,0,0,0,0,0,0,0,0,0,0,0,0,0,0,0,0,0,0,0,0,0,0,0,0,0,0,0],"id":12,"left_children":[1,3,5,7,9,11,13,15,17,19,21,23,25,27,29,-1,-1,-1,-1,-1,-1,-1,-1,-1,-1,-1,-1,-1,-1,-1,-1],"loss_changes":[1.08518766E5,2.016732E4,3.1409918E4,4.146547E3,2.4560977E3,5.723704E3,4.9546523E3,7.363633E2,9.643779E2,3.7186523E2,5.137969E2,1.6560966E3,2.1311333E3,2.1389219E3,2.1092656E3,0E0,0E0,0E0,0E0,0E0,0E0,0E0,0E0,0E0,0E0,0E0,0E0,0E0,0E0,0E0,0E0],"parents":[2147483647,0,0,1,1,2,2,3,3,4,4,5,5,6,6,7,7,8,8,9,9,10,10,11,11,12,12,13,13,14,14],"right_children":[2,4,6,8,10,12,14,16,18,20,22,24,26,28,30,-1,-1,-1,-1,-1,-1,-1,-1,-1,-1,-1,-1,-1,-1,-1,-1],"split_conditions":[-8.3E1,2.8E2,1E2,-1.68E2,-4.41E2,2E0,2.46E2,2.00001E0,2.00001E0,6.13E2,3.3E2,2.00001E0,2.00001E0,2.00001E0,2.00001E0,5.990264E-2,1.6540617E-2,5.991702E-2,8.302047E-3,3.7755653E-2,4.7579188E-2,2.3630671E-2,3.020138E-2,6.056666E-2,1.1999387E-3,6.048233E-2,-4.8795133E-3,5.8851916E-2,-1.2248847E-2,4.9652066E-2,-2.1948704E-2],"split_indices":[2,3,3,2,2,2,3,8,8,3,3,8,8,8,8,0,0,0,0,0,0,0,0,0,0,0,0,0,0,0,0],"split_type":[0,0,0,0,0,0,0,0,0,0,0,0,0,0,0,0,0,0,0,0,0,0,0,0,0,0,0,0,0,0,0],"sum_hessian":[3.0144178E6,8.064744E5,2.2079432E6,6.3697325E5,1.6950116E5,1.555041E6,6.529024E5,2.4479864E5,3.921746E5,4.9950203E4,1.1955095E5,7.4260444E5,8.124365E5,4.5591112E5,1.9699127E5,9.821663E2,2.4381647E5,9.060992E2,3.912685E5,3.6880816E4,1.3069384E4,5.5993457E4,6.3557496E4,1.1755988E3,7.414288E5,1.2480283E3,8.111885E5,1.0592527E3,4.5485188E5,1.0330961E3,1.9595817E5],"tree_param":{"num_deleted":"0","num_feature":"3129","num_nodes":"31","size_leaf_vector":"1"}},{"base_weights":[4.4105662E-4,2.9136326E-2,-2.1652637E-1,-1.0618069E-2,1.45589E-1,-1.6743061E-1,-3.88868E-1,-1.4735536E-1,2.1971013E-2,5.7763662E-2,1.8224984E-1,-2.5935608E-1,-1.2808095E-1,-3.4629154E-1,-4.9690324E-1,-1.1068799E-2,-4.8559136E-3,2.0060376E-3,-1.9243949E-3,-2.3573604E-3,5.1271413E-3,5.6174784E-3,1.1224183E-2,-1.6191836E-2,-7.0609273E-3,-7.032299E-3,2.2915336E-3,-2.1689514E-2,-1.5345487E-2,-1.9467507E-2,-2.5887877E-2],"categories":[],"categories_nodes":[],"categories_segments":[],"categories_sizes":[],"default_left":[1,0,0,0,1,0,0,0,1,0,0,0,0,1,0,0,0,0,0,0,0,0,0,0,0,0,0,0,0,0,0],"id":13,"left_children":[1,3,5,7,9,11,13,15,17,19,21,23,25,27,29,-1,-1,-1,-1,-1,-1,-1,-1,-1,-1,-1,-1,-1,-1,-1,-1],"loss_changes":[1.8783E4,1.2335309E4,2.9816445E3,8.851638E3,2.183334E3,9.920532E2,3.59208E2,1.4216172E3,1.7601836E3,9.3817395E2,1.4123086E3,6.261987E2,4.1969092E2,1.9299707E2,4.933252E1,0E0,0E0,0E0,0E0,0E0,0E0,0E0,0E0,0E0,0E0,0E0,0E0,0E0,0E0,0E0,0E0],"parents":[2147483647,0,0,1,1,2,2,3,3,4,4,5,5,6,6,7,7,8,8,9,9,10,10,11,11,12,12,13,13,14,14],"right_children":[2,4,6,8,10,12,14,16,18,20,22,24,26,28,30,-1,-1,-1,-1,-1,-1,-1,-1,-1,-1,-1,-1,-1,-1,-1,-1],"split_conditions":[2.64E2,1.869E3,4.56E2,2.00001E0,9E1,2.00001E0,6.13E2,1.603E3,1.37E2,1.923E3,1.927E3,1.901E3,2.099E3,9E1,1.8E2,-1.1068799E-2,-4.8559136E-3,2.0060376E-3,-1.9243949E-3,-2.3573604E-3,5.1271413E-3,5.6174784E-3,1.1224183E-2,-1.6191836E-2,-7.0609273E-3,-7.032299E-3,2.2915336E-3,-2.1689514E-2,-1.5345487E-2,-1.9467507E-2,-2.5887877E-2],"split_indices":[3,1,3,3125,4,3125,3,1,3,0,0,0,0,4,5,0,0,0,0,0,0,0,0,0,0,0,0,0,0,0,0],"split_type":[0,0,0,0,0,0,0,0,0,0,0,0,0,0,0,0,0,0,0,0,0,0,0,0,0,0,0,0,0,0,0],"sum_hessian":[3.016892E6,2.6644968E6,3.5239512E5,1.9863881E6,6.781086E5,2.7426572E5,7.81294E4,3.8230578E5,1.6040824E6,1.9970202E5,4.7840662E5,8.220932E4,1.9205639E5,5.6045992E4,2.2083412E4,1.5456395E5,2.2774181E5,1.2337204E6,3.7036194E5,5.9740023E4,1.3996198E5,1.8018684E5,2.9821978E5,5.3180914E4,2.9028404E4,1.7911558E5,1.294081E4,1.7392715E4,3.8653273E4,3.5896992E3,1.8493713E4],"tree_param":{"num_deleted":"0","num_feature":"3129","num_nodes":"31","size_leaf_vector":"1"}},{"base_weights":[-3.3757574E-4,-1.2349526E-1,3.0264536E-1,-4.8497144E-2,-3.144079E-1,1.9518521E-1,5.452598E-1,-1.0866508E-1,1.287569E-2,-2.549479E-1,-4.369239E-1,1.3582127E-1,2.7313367E-1,4.592383E-1,7.622648E-1,-7.145875E-3,-3.642392E-3,1.9369342E-3,-1.704807E-3,5.1528316E-2,-1.2830517E-2,5.373385E-2,-2.2020383E-2,7.791073E-3,3.1836934E-3,1.7354706E-2,1.2350432E-2,2.1020472E-2,2.7284706E-2,3.4710135E-2,4.4856742E-2],"categories":[],"categories_nodes":[],"categories_segments":[],"categories_sizes":[],"default_left":[1,1,0,0,0,0,0,0,0,0,0,0,0,0,0,0,0,0,0,0,0,0,0,0,0,0,0,0,0,0,0],"id":14,"left_children":[1,3,5,7,9,11,13,15,17,19,21,23,25,27,29,-1,-1,-1,-1,-1,-1,-1,-1,-1,-1,-1,-1,-1,-1,-1,-1],"loss_changes":[1.1248506E5,3.0687771E4,2.2713602E4,5.682259E3,4.4035312E3,2.7938633E3,4.9917812E3,9.532617E2,9.2542255E2,8.700156E2,1.0406133E3,4.9456982E2,5.042832E2,6.426797E2,6.962383E2,0E0,0E0,0E0,0E0,0E0,0E0,0E0,0E0,0E0,0E0,0E0,0E0,0E0,0E0,0E0,0E0],"parents":[2147483647,0,0,1,1,2,2,3,3,4,4,5,5,6,6,7,7,8,8,9,9,10,10,11,11,12,12,13,13,14,14],"right_children":[2,4,6,8,10,12,14,16,18,20,22,24,26,28,30,-1,-1,-1,-1,-1,-1,-1,-1,-1,-1,-1,-1,-1,-1,-1,-1],"split_conditions":[7.2E1,1.12E2,2.21E2,-9E0,2.49E2,1.35E2,3.81E2,-4.9E1,1.77E3,2.00001E0,2.00001E0,1.846E3,2.00001E0,3.04E2,5.24E2,-7.145875E-3,-3.642392E-3,1.9369342E-3,-1.704807E-3,5.1528316E-2,-1.2830517E-2,5.373385E-2,-2.2020383E-2,7.791073E-3,3.1836934E-3,1.7354706E-2,1.2350432E-2,2.1020472E-2,2.7284706E-2,3.4710135E-2,4.4856742E-2],"split_indices":[2,3,3,2,3,3,2,2,1,664,664,1,3125,3,2,0,0,0,0,0,0,0,0,0,0,0,0,0,0,0,0],"split_type":[0,0,0,0,0,0,0,0,0,0,0,0,0,0,0,0,0,0,0,0,0,0,0,0,0,0,0,0,0,0,0],"sum_hessian":[3.0144975E6,2.1432865E6,8.712109E5,1.5387898E6,6.044968E5,6.0378206E5,2.6742878E5,7.770219E5,7.617678E5,4.0698175E5,1.975151E5,3.427519E5,2.6103016E5,1.9151481E5,7.591398E4,3.9718575E5,3.7983616E5,4.91271E5,2.7049684E5,5.248284E2,4.064569E5,4.5345737E2,1.9706162E5,2.6835834E5,7.4393555E4,6.813272E4,1.9289744E5,1.3216366E5,5.9351156E4,5.045702E4,2.5456959E4],"tree_param":{"num_deleted":"0","num_feature":"3129","num_nodes":"31","size_leaf_vector":"1"}},{"base_weights":[1.226109E-4,2.5739044E-1,-1.2965302E-1,1.6073336E-1,5.048102E-1,-6.099773E-2,-3.1084433E-1,1.0763583E-1,2.3772784E-1,4.2100748E-1,7.059403E-1,-1.3627823E-2,-1.2595478E-1,-2.5652188E-1,-4.363977E-1,5.817848E-2,5.2828453E-3,5.7351936E-2,1.1744864E-2,5.8665942E-2,2.0826366E-2,4.236357E-2,3.2182284E-2,5.8169752E-2,-7.7595544E-4,5.8293503E-2,-6.39788E-3,5.639855E-2,-1.3000796E-2,4.6191916E-2,-2.2218551E-2],"categories":[],"categories_nodes":[],"categories_segments":[],"categories_sizes":[],"default_left":[0,0,1,0,0,1,0,0,0,0,0,0,0,0,0,0,0,0,0,0,0,0,0,0,0,0,0,0,0,0,0],"id":15,"left_children":[1,3,5,7,9,11,13,15,17,19,21,23,25,27,29,-1,-1,-1,-1,-1,-1,-1,-1,-1,-1,-1,-1,-1,-1,-1,-1],"loss_changes":[1.0053815E5,2.4146398E4,2.489941E4,2.9682168E3,4.7804844E3,4.4665376E3,3.7512266E3,8.9780664E2,7.6246094E2,6.7433984E2,7.3389844E2,1.868665E3,1.5839697E3,1.8574609E3,1.8019141E3,0E0,0E0,0E0,0E0,0E0,0E0,0E0,0E0,0E0,0E0,0E0,0E0,0E0,0E0,0E0,0E0],"parents":[2147483647,0,0,1,1,2,2,3,3,4,4,5,5,6,6,7,7,8,8,9,9,10,10,11,11,12,12,13,13,14,14],"right_children":[2,4,6,8,10,12,14,16,18,20,22,24,26,28,30,-1,-1,-1,-1,-1,-1,-1,-1,-1,-1,-1,-1,-1,-1,-1,-1],"split_conditions":[-5.5E1,2.18E2,1.2E2,1.27E2,3.74E2,2.9E1,2.65E2,2.00001E0,2.00001E0,2.00001E0,-5.3E2,2.00001E0,2.00001E0,2.00001E0,2.00001E0,5.817848E-2,5.2828453E-3,5.7351936E-2,1.1744864E-2,5.8665942E-2,2.0826366E-2,4.236357E-2,3.2182284E-2,5.8169752E-2,-7.7595544E-4,5.8293503E-2,-6.39788E-3,5.639855E-2,-1.3000796E-2,4.6191916E-2,-2.2218551E-2],"split_indices":[2,3,2,3,3,2,2,8,8,8,2,8,8,8,8,0,0,0,0,0,0,0,0,0,0,0,0,0,0,0,0],"split_type":[0,0,0,0,0,0,0,0,0,0,0,0,0,0,0,0,0,0,0,0,0,0,0,0,0,0,0,0,0,0,0],"sum_hessian":[3.0112858E6,1.0096835E6,2.0016022E6,7.260473E5,2.836362E5,1.4515834E6,5.500189E5,4.297099E5,2.9633738E5,2.0021698E5,8.34192E4,8.394304E5,6.12153E5,3.839154E5,1.6610347E5,8.0271454E2,4.2890722E5,9.1833716E2,2.9541906E5,1.1837306E3,1.9903327E5,2.5516357E4,5.7902848E4,1.34568E3,8.380847E5,9.467006E2,6.112063E5,9.6562787E2,3.8294978E5,9.673088E2,1.6513616E5],"tree_param":{"num_deleted":"0","num_feature":"3129","num_nodes":"31","size_leaf_vector":"1"}},{"base_weights":[5.1357166E-4,3.4129675E-2,-1.7282377E-1,-1.0428318E-2,1.3230158E-1,-1.1746019E-1,-3.2172427E-1,-1.4773066E-1,2.0689016E-2,5.2078526E-2,1.679516E-1,-2.0234019E-1,-8.302664E-2,-2.6781154E-1,-4.3253896E-1,-8.369806E-3,1.70657E-3,-3.5212696E-2,1.0985158E-3,1.1159002E-3,9.136293E-3,6.321472E-3,1.1882175E-2,-1.3220352E-2,-4.149977E-3,-5.140008E-3,2.0518852E-3,-1.7442355E-2,-1.1463932E-2,-1.8895408E-2,-2.4384527E-2],"categories":[],"categories_nodes":[],"categories_segments":[],"categories_sizes":[],"default_left":[1,0,0,0,0,0,0,1,0,0,0,0,0,0,0,0,0,0,0,0,0,0,0,0,0,0,0,0,0,0,0],"id":16,"left_children":[1,3,5,7,9,11,13,15,17,19,21,23,25,27,29,-1,-1,-1,-1,-1,-1,-1,-1,-1,-1,-1,-1,-1,-1,-1,-1],"loss_changes":[1.7574889E4,1.105059E4,4.0387227E3,7.423787E3,2.2554863E3,1.043792E3,7.932012E2,1.1481621E3,1.3157991E3,9.4341394E2,1.5799873E3,7.634116E2,6.2328406E2,2.788589E2,1.3075195E2,0E0,0E0,0E0,0E0,0E0,0E0,0E0,0E0,0E0,0E0,0E0,0E0,0E0,0E0,0E0,0E0],"parents":[2147483647,0,0,1,1,2,2,3,3,4,4,5,5,6,6,7,7,8,8,9,9,10,10,11,11,12,12,13,13,14,14],"right_children":[2,4,6,8,10,12,14,16,18,20,22,24,26,28,30,-1,-1,-1,-1,-1,-1,-1,-1,-1,-1,-1,-1,-1,-1,-1,-1],"split_conditions":[2.24E2,1.823E3,3.85E2,2.00001E0,2.00001E0,2.00001E0,5.28E2,2E0,2.00001E0,2.137E3,1.996E3,1.901E3,1.968E3,2.00001E0,6.13E2,-8.369806E-3,1.70657E-3,-3.5212696E-2,1.0985158E-3,1.1159002E-3,9.136293E-3,6.321472E-3,1.1882175E-2,-1.3220352E-2,-4.149977E-3,-5.140008E-3,2.0518852E-3,-1.7442355E-2,-1.1463932E-2,-1.8895408E-2,-2.4384527E-2],"split_indices":[3,0,3,3125,3125,3125,3,5,8,0,0,0,0,3125,3,0,0,0,0,0,0,0,0,0,0,0,0,0,0,0,0],"split_type":[0,0,0,0,0,0,0,0,0,0,0,0,0,0,0,0,0,0,0,0,0,0,0,0,0,0,0,0,0,0,0],"sum_hessian":[3.0161488E6,2.5262268E6,4.899219E5,1.7375798E6,7.88647E5,3.5713512E5,1.3278677E5,3.2103572E5,1.416544E6,2.4263936E5,5.460077E5,1.0306679E5,2.5406834E5,8.9330016E4,4.3456746E4,2.8970847E5,3.1327246E4,2.4982817E3,1.4140458E6,1.9762336E5,4.5016008E4,3.4215553E5,2.0385212E5,6.7802664E4,3.5264125E4,2.191415E5,3.492685E4,2.8785475E4,6.0544543E4,2.1835393E4,2.1621355E4],"tree_param":{"num_deleted":"0","num_feature":"3129","num_nodes":"31","size_leaf_vector":"1"}},{"base_weights":[-1.18740994E-4,-1.321118E-1,2.6172656E-1,-3.2053843E-1,-6.3352145E-2,1.6712867E-1,5.211745E-1,-2.7373683E-1,-4.62102E-1,-1.341853E-1,-1.8234713E-2,1.15249515E-1,2.612125E-1,4.3883944E-1,7.2827756E-1,5.239124E-2,-1.3778634E-2,5.0722778E-2,-2.330258E-2,4.9859628E-2,-6.762029E-3,2.326847E-4,-3.5423734E-3,7.3677353E-3,3.4347754E-3,1.43889105E-2,9.62706E-3,1.9761665E-2,2.5630949E-2,3.327174E-2,4.291406E-2],"categories":[],"categories_nodes":[],"categories_segments":[],"categories_sizes":[],"default_left":[1,0,0,0,0,0,0,0,0,0,0,0,0,0,0,0,0,0,0,0,0,0,0,0,0,0,0,0,0,0,0],"id":17,"left_children":[1,3,5,7,9,11,13,15,17,19,21,23,25,27,29,-1,-1,-1,-1,-1,-1,-1,-1,-1,-1,-1,-1,-1,-1,-1,-1],"loss_changes":[1.0405528E5,2.5934066E4,2.4764602E4,3.5455E3,4.686738E3,3.609086E3,4.596883E3,9.760996E2,7.758887E2,6.8143555E2,1.0788492E3,7.123496E2,4.7939062E2,6.204414E2,6.2597266E2,0E0,0E0,0E0,0E0,0E0,0E0,0E0,0E0,0E0,0E0,0E0,0E0,0E0,0E0,0E0,0E0],"parents":[2147483647,0,0,1,1,2,2,3,3,4,4,5,5,6,6,7,7,8,8,9,9,10,10,11,11,12,12,13,13,14,14],"right_children":[2,4,6,8,10,12,14,16,18,20,22,24,26,28,30,-1,-1,-1,-1,-1,-1,-1,-1,-1,-1,-1,-1,-1,-1,-1,-1],"split_conditions":[5.4E1,-1.25E2,2.21E2,2.94E2,-3.6E1,1.35E2,3.81E2,2.00001E0,2.00001E0,2.00001E0,1.816E3,1.71E3,1.756E3,2.94E2,5.28E2,5.239124E-2,-1.3778634E-2,5.0722778E-2,-2.330258E-2,4.9859628E-2,-6.762029E-3,2.326847E-4,-3.5423734E-3,7.3677353E-3,3.4347754E-3,1.43889105E-2,9.62706E-3,1.9761665E-2,2.5630949E-2,3.327174E-2,4.291406E-2],"split_indices":[2,2,3,3,2,3,2,664,664,664,1,1,1,3,3,0,0,0,0,0,0,0,0,0,0,0,0,0,0,0,0],"split_type":[0,0,0,0,0,0,0,0,0,0,0,0,0,0,0,0,0,0,0,0,0,0,0,0,0,0,0,0,0,0,0],"sum_hessian":[3.0107032E6,2.0016806E6,1.0090226E6,5.351554E5,1.4665252E6,7.3942206E5,2.696006E5,4.0219178E5,1.329636E5,5.706376E5,8.958876E5,4.766131E5,2.6280897E5,1.9291086E5,7.668975E4,5.571466E2,4.0163462E5,3.5402502E2,1.3260956E5,5.308833E2,5.7010675E5,6.242972E5,2.7159044E5,2.8207953E5,1.9453355E5,1.8949794E5,7.331102E4,1.2125278E5,7.165808E4,5.170303E4,2.4986717E4],"tree_param":{"num_deleted":"0","num_feature":"3129","num_nodes":"31","size_leaf_vector":"1"}},{"base_weights":[-2.479485E-4,2.4595706E-1,-1.2550324E-1,1.5685764E-1,4.882978E-1,-5.9327014E-2,-3.0185282E-1,2.4428876E-1,1.1010434E-1,4.0583947E-1,6.732341E-1,-1.4551829E-2,-1.2426923E-1,-2.5555667E-1,-4.4414023E-1,1.648495E-2,1.069489E-2,5.540174E-2,5.4068724E-3,5.584351E-2,2.0075653E-2,4.0367518E-2,3.069872E-2,5.5891704E-2,-8.1966445E-4,5.582837E-2,-6.3119926E-3,5.4042663E-2,-1.2957207E-2,4.4327606E-2,-2.2634E-2],"categories":[],"categories_nodes":[],"categories_segments":[],"categories_sizes":[],"default_left":[0,0,1,0,0,1,0,0,0,0,0,0,0,0,0,0,0,0,0,0,0,0,0,0,0,0,0,0,0,0,0],"id":18,"left_children":[1,3,5,7,9,11,13,15,17,19,21,23,25,27,29,-1,-1,-1,-1,-1,-1,-1,-1,-1,-1,-1,-1,-1,-1,-1,-1],"loss_changes":[9.278379E4,2.190598E4,2.3272328E4,3.032211E3,4.1587188E3,4.216429E3,3.5843008E3,6.7081445E2,9.4858496E2,5.7981445E2,6.679219E2,1.7897568E3,1.4471152E3,1.9686094E3,1.5183887E3,0E0,0E0,0E0,0E0,0E0,0E0,0E0,0E0,0E0,0E0,0E0,0E0,0E0,0E0,0E0,0E0],"parents":[2147483647,0,0,1,1,2,2,3,3,4,4,5,5,6,6,7,7,8,8,9,9,10,10,11,11,12,12,13,13,14,14],"right_children":[2,4,6,8,10,12,14,16,18,20,22,24,26,28,30,-1,-1,-1,-1,-1,-1,-1,-1,-1,-1,-1,-1,-1,-1,-1,-1],"split_conditions":[-5.5E1,2.24E2,1.2E2,-1.38E2,3.74E2,3.1E1,2.89E2,2.00001E0,2.00001E0,2.00001E0,-5.3E2,2.00001E0,2.00001E0,2.00001E0,2.00001E0,1.648495E-2,1.069489E-2,5.540174E-2,5.4068724E-3,5.584351E-2,2.0075653E-2,4.0367518E-2,3.069872E-2,5.5891704E-2,-8.1966445E-4,5.582837E-2,-6.3119926E-3,5.4042663E-2,-1.2957207E-2,4.4327606E-2,-2.2634E-2],"split_indices":[2,3,2,2,3,2,3,3125,8,8,2,8,8,8,8,0,0,0,0,0,0,0,0,0,0,0,0,0,0,0,0],"split_type":[0,0,0,0,0,0,0,0,0,0,0,0,0,0,0,0,0,0,0,0,0,0,0,0,0,0,0,0,0,0,0],"sum_hessian":[3.0086995E6,1.0145241E6,1.9941755E6,7.417958E5,2.727283E5,1.4500405E6,5.44135E5,2.5845927E5,4.8333653E5,1.8862742E5,8.410091E4,8.582861E5,5.917543E5,4.105552E5,1.3357983E5,6.782765E4,1.9063161E5,9.4966187E2,4.8238688E5,1.1392493E3,1.8748817E5,2.5768688E4,5.833222E4,1.3924758E3,8.568937E5,9.3740356E2,5.9081694E5,1.0983359E3,4.0945684E5,8.511306E2,1.3272869E5],"tree_param":{"num_deleted":"0","num_feature":"3129","num_nodes":"31","size_leaf_vector":"1"}},{"base_weights":[1.402489E-4,-4.0986728E-2,8.29137E-2,-2.1083575E-1,-1.1561287E-2,-2.2253126E-1,1.1133651E-1,-2.4760208E-1,1.0677443E-2,2.9558E-3,-1.7818256E-1,-4.2110267E-1,-1.7280003E-1,2.9958127E-2,1.4863457E-1,-1.9322215E-2,-9.901762E-3,-2.2853264E-3,5.257761E-3,-7.693831E-3,5.353092E-4,-6.808437E-3,-1.6788859E-2,-2.3821533E-2,-1.791734E-2,-1.0460712E-2,-3.7452325E-4,-8.3775565E-5,7.5315214E-3,5.383429E-3,1.0827251E-2],"categories":[],"categories_nodes":[],"categories_segments":[],"categories_sizes":[],"default_left":[0,1,0,1,1,0,0,0,0,0,0,0,0,0,0,0,0,0,0,0,0,0,0,0,0,0,0,0,0,0,0],"id":19,"left_children":[1,3,5,7,9,11,13,15,17,19,21,23,25,27,29,-1,-1,-1,-1,-1,-1,-1,-1,-1,-1,-1,-1,-1,-1,-1,-1],"loss_changes":[1.0257183E4,1.0060381E4,8.682916E3,2.420751E3,4.1500195E3,8.407505E2,2.7772666E3,1.7542979E3,2.254054E2,1.9183148E3,9.10376E2,5.9038086E1,4.0989417E2,1.09775E3,1.7455078E3,0E0,0E0,0E0,0E0,0E0,0E0,0E0,0E0,0E0,0E0,0E0,0E0,0E0,0E0,0E0,0E0],"parents":[2147483647,0,0,1,1,2,2,3,3,4,4,5,5,6,6,7,7,8,8,9,9,10,10,11,11,12,12,13,13,14,14],"right_children":[2,4,6,8,10,12,14,16,18,20,22,24,26,28,30,-1,-1,-1,-1,-1,-1,-1,-1,-1,-1,-1,-1,-1,-1,-1,-1],"split_conditions":[1.813E3,9E1,-2.94E2,2E0,2.43E2,-5.3E2,2.00001E0,1.513E3,1.603E3,-2.4E2,4.35E2,-6.16E2,1.829E3,2.12E3,1.989E3,-1.9322215E-2,-9.901762E-3,-2.2853264E-3,5.257761E-3,-7.693831E-3,5.353092E-4,-6.808437E-3,-1.6788859E-2,-2.3821533E-2,-1.791734E-2,-1.0460712E-2,-3.7452325E-4,-8.3775565E-5,7.5315214E-3,5.383429E-3,1.0827251E-2],"split_indices":[1,4,2,5,2,2,3125,1,1,2,2,2,0,1,1,0,0,0,0,0,0,0,0,0,0,0,0,0,0,0,0],"split_type":[0,0,0,0,0,0,0,0,0,0,0,0,0,0,0,0,0,0,0,0,0,0,0,0,0,0,0,0,0,0,0],"sum_hessian":[3.0130752E6,2.0129282E6,1.000147E6,2.9723388E5,1.7156944E6,8.514389E4,9.150031E5,2.5492227E5,4.23116E4,1.5781932E6,1.3750108E5,1.7051525E4,6.809237E4,2.87571E5,6.274321E5,6.706339E4,1.8785888E5,2.6498135E4,1.5813466E4,7.4317945E4,1.5038754E6,1.0856116E5,2.8939924E4,9.058561E3,7.992966E3,5.580044E4,1.2291925E4,2.2784386E5,5.9727137E4,3.9135534E5,2.3607678E5],"tree_param":{"num_deleted":"0","num_feature":"3129","num_nodes":"31","size_leaf_vector":"1"}},{"base_weights":[5.32366E-5,-1.1532003E-1,2.7919447E-1,-4.5226213E-2,-2.9656002E-1,1.8131773E-1,4.9816793E-1,-1.0997743E-1,4.612435E-3,-2.4122655E-1,-4.2217356E-1,1.2657173E-1,2.5283322E-1,4.201877E-1,6.9388324E-1,4.9014103E-2,-5.549364E-3,-1.337164E-3,2.324254E-3,4.877543E-2,-1.2143892E-2,4.991981E-2,-2.1285294E-2,7.867678E-3,4.3392163E-3,5.965814E-2,1.2552653E-2,-2.6222413E-2,2.1161258E-2,3.163681E-2,4.074201E-2],"categories":[],"categories_nodes":[],"categories_segments":[],"categories_sizes":[],"default_left":[1,1,0,0,0,0,0,0,1,0,0,0,0,0,0,0,0,0,0,0,0,0,0,0,0,0,0,0,0,0,0],"id":20,"left_children":[1,3,5,7,9,11,13,15,17,19,21,23,25,27,29,-1,-1,-1,-1,-1,-1,-1,-1,-1,-1,-1,-1,-1,-1,-1,-1],"loss_changes":[9.689779E4,2.7044516E4,1.8858008E4,4.954085E3,4.1265586E3,2.3807402E3,4.147914E3,7.352217E2,1.1389348E3,8.283379E2,9.114414E2,4.218164E2,4.4105273E2,5.5790625E2,5.722383E2,0E0,0E0,0E0,0E0,0E0,0E0,0E0,0E0,0E0,0E0,0E0,0E0,0E0,0E0,0E0,0E0],"parents":[2147483647,0,0,1,1,2,2,3,3,4,4,5,5,6,6,7,7,8,8,9,9,10,10,11,11,12,12,13,13,14,14],"right_children":[2,4,6,8,10,12,14,16,18,20,22,24,26,28,30,-1,-1,-1,-1,-1,-1,-1,-1,-1,-1,-1,-1,-1,-1,-1,-1],"split_conditions":[7.2E1,1.12E2,2.21E2,-1.9E1,2.56E2,1.35E2,3.81E2,2.00001E0,2.7E1,2.00001E0,2.00001E0,1.685E3,2.00001E0,2.00001E0,5.24E2,4.9014103E-2,-5.549364E-3,-1.337164E-3,2.324254E-3,4.877543E-2,-1.2143892E-2,4.991981E-2,-2.1285294E-2,7.867678E-3,4.3392163E-3,5.965814E-2,1.2552653E-2,-2.6222413E-2,2.1161258E-2,3.163681E-2,4.074201E-2],"split_indices":[2,3,3,2,3,3,2,664,2,664,664,1,664,8,2,0,0,0,0,0,0,0,0,0,0,0,0,0,0,0,0],"split_type":[0,0,0,0,0,0,0,0,0,0,0,0,0,0,0,0,0,0,0,0,0,0,0,0,0,0,0,0,0,0,0],"sum_hessian":[3.008738E6,2.1288522E6,8.7988594E5,1.5351432E6,5.93709E5,6.080857E5,2.7180028E5,6.676803E5,8.674629E5,4.1215522E5,1.8155377E5,3.4442606E5,2.6365962E5,1.943623E5,7.7437984E4,6.1696484E2,6.670634E5,4.9602338E5,3.7143947E5,5.578E2,4.115974E5,4.496201E2,1.8110414E5,1.9418808E5,1.5023797E5,4.9693408E2,2.631627E5,6.2241205E2,1.9373988E5,5.1439918E4,2.5998064E4],"tree_param":{"num_deleted":"0","num_feature":"3129","num_nodes":"31","size_leaf_vector":"1"}},{"base_weights":[-2.1938168E-4,2.3604035E-1,-1.21387824E-1,1.478367E-1,4.598666E-1,-5.3160165E-2,-2.8258932E-1,9.8777525E-2,2.187651E-1,3.830172E-1,6.441591E-1,-1.0389596E-2,-1.0913431E-1,-2.3693691E-1,-4.2645356E-1,5.3873267E-2,4.845061E-3,5.4068793E-2,1.0805083E-2,2.344959E-2,1.7386029E-2,3.8542647E-2,2.9411895E-2,5.403188E-2,-6.0913526E-4,5.4144174E-2,-5.549283E-3,5.2589912E-2,-1.2014223E-2,4.362948E-2,-2.1740584E-2],"categories":[],"categories_nodes":[],"categories_segments":[],"categories_sizes":[],"default_left":[0,0,1,0,0,1,0,0,0,0,0,0,0,0,0,0,0,0,0,0,0,0,0,0,0,0,0,0,0,0,0],"id":21,"left_children":[1,3,5,7,9,11,13,15,17,19,21,23,25,27,29,-1,-1,-1,-1,-1,-1,-1,-1,-1,-1,-1,-1,-1,-1,-1,-1],"loss_changes":[8.6063086E4,2.0120305E4,2.185586E4,2.5438438E3,4.0799023E3,3.3426565E3,3.8811094E3,7.934712E2,6.8650586E2,6.1681445E2,6.001914E2,1.5483872E3,1.3347559E3,1.9355508E3,1.5459629E3,0E0,0E0,0E0,0E0,0E0,0E0,0E0,0E0,0E0,0E0,0E0,0E0,0E0,0E0,0E0,0E0],"parents":[2147483647,0,0,1,1,2,2,3,3,4,4,5,5,6,6,7,7,8,8,9,9,10,10,11,11,12,12,13,13,14,14],"right_children":[2,4,6,8,10,12,14,16,18,20,22,24,26,28,30,-1,-1,-1,-1,-1,-1,-1,-1,-1,-1,-1,-1,-1,-1,-1,-1],"split_conditions":[-5.5E1,2.18E2,1.09E2,1.27E2,3.74E2,2.4E1,2.8E2,2.00001E0,2.00001E0,2.00001E0,-5.3E2,2.00001E0,2.00001E0,2.00001E0,2.00001E0,5.3873267E-2,4.845061E-3,5.4068793E-2,1.0805083E-2,2.344959E-2,1.7386029E-2,3.8542647E-2,2.9411895E-2,5.403188E-2,-6.0913526E-4,5.4144174E-2,-5.549283E-3,5.2589912E-2,-1.2014223E-2,4.362948E-2,-2.1740584E-2],"split_indices":[2,3,3,3,3,2,3,8,8,3125,2,8,8,8,8,0,0,0,0,0,0,0,0,0,0,0,0,0,0,0,0],"split_type":[0,0,0,0,0,0,0,0,0,0,0,0,0,0,0,0,0,0,0,0,0,0,0,0,0,0,0,0,0,0,0],"sum_hessian":[3.006335E6,1.0191497E6,1.9871854E6,7.3106075E5,2.8808894E5,1.396237E6,5.909484E5,4.3215425E5,2.9890653E5,2.0331169E5,8.477724E4,7.9146756E5,6.0476944E5,4.4859762E5,1.4235075E5,8.2582965E2,4.313284E5,9.1882666E2,2.9798772E5,5.9171418E4,1.4414027E5,2.5956957E4,5.8820285E4,1.2976597E3,7.9016994E5,9.3692163E2,6.038325E5,1.1614219E3,4.4743622E5,9.0937396E2,1.4144139E5],"tree_param":{"num_deleted":"0","num_feature":"3129","num_nodes":"31","size_leaf_vector":"1"}},{"base_weights":[1.1381962E-3,2.8727833E-2,-1.8300317E-1,-7.88583E-3,1.3551234E-1,-1.3809799E-1,-3.431451E-1,-1.5821601E-1,1.767412E-2,5.670055E-2,1.6803701E-1,-2.2465909E-1,-1.01890095E-1,-3.0368173E-1,-4.6562752E-1,-9.523363E-3,2.1114617E-3,-2.1837866E-5,3.5435732E-3,1.3188465E-3,9.720432E-3,7.1609984E-3,1.32683655E-2,-1.473019E-2,-6.1866776E-3,-6.3050375E-3,-2.2339365E-4,-1.9577801E-2,-1.3214843E-2,-2.391178E-2,-1.23198405E-2],"categories":[],"categories_nodes":[],"categories_segments":[],"categories_sizes":[],"default_left":[1,0,0,1,1,0,0,1,0,0,0,0,0,1,1,0,0,0,0,0,0,0,0,0,0,0,0,0,0,0,0],"id":22,"left_children":[1,3,5,7,9,11,13,15,17,19,21,23,25,27,29,-1,-1,-1,-1,-1,-1,-1,-1,-1,-1,-1,-1,-1,-1,-1,-1],"loss_changes":[1.5311913E4,1.0248267E4,2.8241494E3,7.5001533E3,1.7155371E3,9.613096E2,4.1557812E2,1.8336929E3,1.6073047E3,8.1642303E2,1.1442891E3,6.38541E2,5.1009302E2,2.2503418E2,5.780713E1,0E0,0E0,0E0,0E0,0E0,0E0,0E0,0E0,0E0,0E0,0E0,0E0,0E0,0E0,0E0,0E0],"parents":[2147483647,0,0,1,1,2,2,3,3,4,4,5,5,6,6,7,7,8,8,9,9,10,10,11,11,12,12,13,13,14,14],"right_children":[2,4,6,8,10,12,14,16,18,20,22,24,26,28,30,-1,-1,-1,-1,-1,-1,-1,-1,-1,-1,-1,-1,-1,-1,-1,-1],"split_conditions":[2.49E2,1.869E3,4.39E2,9E1,9E1,2.00001E0,6.13E2,2E0,1.723E3,2.177E3,2.111E3,1.851E3,1.91E3,1.2E2,7.2E2,-9.523363E-3,2.1114617E-3,-2.1837866E-5,3.5435732E-3,1.3188465E-3,9.720432E-3,7.1609984E-3,1.32683655E-2,-1.473019E-2,-6.1866776E-3,-6.3050375E-3,-2.2339365E-4,-1.9577801E-2,-1.3214843E-2,-2.391178E-2,-1.23198405E-2],"split_indices":[3,1,3,4,4,3125,3,5,1,1,1,0,1,4,4,0,0,0,0,0,0,0,0,0,0,0,0,0,0,0,0],"split_type":[0,0,0,0,0,0,0,0,0,0,0,0,0,0,0,0,0,0,0,0,0,0,0,0,0,0,0,0,0,0,0],"sum_hessian":[3.0139202E6,2.6211918E6,3.9272856E5,1.951927E6,6.692647E5,3.0672275E5,8.6005836E4,2.8364878E5,1.6682782E6,1.9551283E5,4.7375188E5,9.045929E4,2.1626344E5,6.5050336E4,2.0955498E4,2.4433572E5,3.9313082E4,1.2445694E6,4.237089E5,1.6023083E5,3.528199E4,3.7750022E5,9.6251664E4,5.342919E4,3.70301E4,1.7321662E5,4.3046812E4,2.0129371E4,4.4920965E4,1.9814762E4,1.1407372E3],"tree_param":{"num_deleted":"0","num_feature":"3129","num_nodes":"31","size_leaf_vector":"1"}},{"base_weights":[-6.253504E-4,-1.2387961E-1,2.399665E-1,-2.9945976E-1,-5.876623E-2,1.472758E-1,4.5781627E-1,-4.427817E-1,-2.5463992E-1,-1.1796888E-1,-1.234139E-2,1.0123075E-1,2.2270894E-1,3.806266E-1,6.397936E-1,4.924938E-2,-2.233714E-2,-1.5564782E-2,-1.0860388E-2,4.6178214E-2,-5.9477794E-3,5.1506985E-2,-6.663618E-4,5.6411386E-2,5.006106E-3,5.9887867E-2,1.1050223E-2,2.2907693E-2,1.7487712E-2,2.8071586E-2,3.7159726E-2],"categories":[],"categories_nodes":[],"categories_segments":[],"categories_sizes":[],"default_left":[1,0,0,0,0,0,0,0,0,0,0,0,0,0,0,0,0,0,0,0,0,0,0,0,0,0,0,0,0,0,0],"id":23,"left_children":[1,3,5,7,9,11,13,15,17,19,21,23,25,27,29,-1,-1,-1,-1,-1,-1,-1,-1,-1,-1,-1,-1,-1,-1,-1,-1],"loss_changes":[8.918681E4,2.2736646E4,2.057282E4,3.4558555E3,3.9873447E3,2.4824648E3,4.27141E3,7.2527734E2,8.6910156E2,6.5538965E2,8.356835E2,5.0520312E2,4.4996973E2,5.1091602E2,7.3345703E2,0E0,0E0,0E0,0E0,0E0,0E0,0E0,0E0,0E0,0E0,0E0,0E0,0E0,0E0,0E0,0E0],"parents":[2147483647,0,0,1,1,2,2,3,3,4,4,5,5,6,6,7,7,8,8,9,9,10,10,11,11,12,12,13,13,14,14],"right_children":[2,4,6,8,10,12,14,16,18,20,22,24,26,28,30,-1,-1,-1,-1,-1,-1,-1,-1,-1,-1,-1,-1,-1,-1,-1,-1],"split_conditions":[5.4E1,-1.22E2,2.08E2,-2.94E2,-2.7E1,1.27E2,3.61E2,2.00001E0,-1.97E2,2.00001E0,2.00001E0,2.00001E0,2.00001E0,2.00001E0,4.73E2,4.924938E-2,-2.233714E-2,-1.5564782E-2,-1.0860388E-2,4.6178214E-2,-5.9477794E-3,5.1506985E-2,-6.663618E-4,5.6411386E-2,5.006106E-3,5.9887867E-2,1.1050223E-2,2.2907693E-2,1.7487712E-2,2.8071586E-2,3.7159726E-2],"split_indices":[2,2,2,2,2,2,2,664,2,664,664,664,664,3125,2,0,0,0,0,0,0,0,0,0,0,0,0,0,0,0,0],"split_type":[0,0,0,0,0,0,0,0,0,0,0,0,0,0,0,0,0,0,0,0,0,0,0,0,0,0,0,0,0,0,0],"sum_hessian":[3.0075825E6,1.9887528E6,1.01882975E6,5.380044E5,1.4507484E6,7.1472875E5,3.04101E5,1.28163305E5,4.0984106E5,6.376246E5,8.131237E5,4.438196E5,2.7090916E5,2.1353042E5,9.057056E4,3.538977E2,1.2780941E5,1.6304936E5,2.4679172E5,6.0260284E2,6.37022E5,7.6723663E2,8.123565E5,4.7748434E2,4.433421E5,4.715193E2,2.7043762E5,6.0809797E4,1.5272062E5,5.1527305E4,3.9043258E4],"tree_param":{"num_deleted":"0","num_feature":"3129","num_nodes":"31","size_leaf_vector":"1"}},{"base_weights":[-5.75774E-4,2.4532194E-1,-1.0883463E-1,1.7268246E-1,4.8535287E-1,-4.5439184E-2,-2.7700886E-1,1.2483651E-1,2.6365665E-1,6.2570107E-1,4.052294E-1,1.5903761E-3,-1.0186785E-1,-2.2756687E-1,-4.048033E-1,5.211376E-2,6.140054E-3,5.2716423E-2,1.3035342E-2,3.694944E-2,2.8416893E-2,5.3438097E-2,2.0031733E-2,5.2585144E-2,-8.16681E-6,5.2224208E-2,-5.1836115E-3,5.1390667E-2,-1.1540427E-2,4.3337643E-2,-2.063342E-2],"categories":[],"categories_nodes":[],"categories_segments":[],"categories_sizes":[],"default_left":[0,0,1,0,0,1,0,0,0,0,0,0,0,0,0,0,0,0,0,0,0,0,0,0,0,0,0,0,0,0,0],"id":24,"left_children":[1,3,5,7,9,11,13,15,17,19,21,23,25,27,29,-1,-1,-1,-1,-1,-1,-1,-1,-1,-1,-1,-1,-1,-1,-1,-1],"loss_changes":[7.997881E4,1.6012633E4,2.2239936E4,3.0687754E3,2.399004E3,4.0203606E3,3.6081836E3,8.626665E2,5.664629E2,5.0345703E2,4.136621E2,1.5216816E3,1.4245527E3,1.6759434E3,1.5935664E3,0E0,0E0,0E0,0E0,0E0,0E0,0E0,0E0,0E0,0E0,0E0,0E0,0E0,0E0,0E0,0E0],"parents":[2147483647,0,0,1,1,2,2,3,3,4,4,5,5,6,6,7,7,8,8,9,9,10,10,11,11,12,12,13,13,14,14],"right_children":[2,4,6,8,10,12,14,16,18,20,22,24,26,28,30,-1,-1,-1,-1,-1,-1,-1,-1,-1,-1,-1,-1,-1,-1,-1,-1],"split_conditions":[-6.9E1,2.56E2,1.12E2,1.6E2,-3.86E2,1.7E1,2.65E2,2.00001E0,2.00001E0,-5.3E2,2.00001E0,2.00001E0,2.00001E0,2.00001E0,2.00001E0,5.211376E-2,6.140054E-3,5.2716423E-2,1.3035342E-2,3.694944E-2,2.8416893E-2,5.3438097E-2,2.0031733E-2,5.2585144E-2,-8.16681E-6,5.2224208E-2,-5.1836115E-3,5.1390667E-2,-1.1540427E-2,4.3337643E-2,-2.063342E-2],"split_indices":[2,3,2,3,2,2,2,780,780,2,780,780,780,780,780,0,0,0,0,0,0,0,0,0,0,0,0,0,0,0,0],"split_type":[0,0,0,0,0,0,0,0,0,0,0,0,0,0,0,0,0,0,0,0,0,0,0,0,0,0,0,0,0,0,0],"sum_hessian":[3.0043928E6,9.1838475E5,2.0860081E6,7.0502725E5,2.1335748E5,1.514935E6,5.7107306E5,4.62033E5,2.4299425E5,7.753558E4,1.358219E5,8.2628344E5,6.886516E5,4.1176822E5,1.5930488E5,1.0216663E3,4.6101134E5,9.0185034E2,2.420924E5,2.6059094E4,5.147648E4,9.3245905E2,1.3488945E5,1.3766136E3,8.249068E5,1.0813374E3,6.8757025E5,1.0597233E3,4.107085E5,9.7864E2,1.5832623E5],"tree_param":{"num_deleted":"0","num_feature":"3129","num_nodes":"31","size_leaf_vector":"1"}},{"base_weights":[8.1071496E-4,2.3570059E-2,-2.0575878E-1,-1.1077249E-2,1.3270704E-1,-1.5824334E-1,-3.5001716E-1,-1.3374051E-1,1.8319882E-2,5.9782762E-2,1.6825879E-1,-2.4306406E-1,-1.2162162E-1,-3.0841538E-1,-4.5822698E-1,-1.0440582E-2,-4.3154866E-3,1.9667167E-3,-1.4419149E-3,1.3576675E-3,7.821722E-3,7.5954944E-3,1.5568042E-2,-1.6208207E-2,-8.409159E-3,-3.4475893E-2,-5.8940793E-3,-1.979878E-2,-1.3464212E-2,-2.3517584E-2,-1.2360355E-2],"categories":[],"categories_nodes":[],"categories_segments":[],"categories_sizes":[],"default_left":[1,0,0,0,0,0,0,0,1,0,0,0,0,1,1,0,0,0,0,0,0,0,0,0,0,0,0,0,0,0,0],"id":25,"left_children":[1,3,5,7,9,11,13,15,17,19,21,23,25,27,29,-1,-1,-1,-1,-1,-1,-1,-1,-1,-1,-1,-1,-1,-1,-1,-1],"loss_changes":[1.4159296E4,1.0258049E4,2.048712E3,7.425121E3,1.6947754E3,6.983838E2,3.3323535E2,1.4174268E3,1.6461067E3,6.7565906E2,1.0280957E3,4.1168872E2,3.334629E2,1.8318115E2,5.249463E1,0E0,0E0,0E0,0E0,0E0,0E0,0E0,0E0,0E0,0E0,0E0,0E0,0E0,0E0,0E0,0E0],"parents":[2147483647,0,0,1,1,2,2,3,3,4,4,5,5,6,6,7,7,8,8,9,9,10,10,11,11,12,12,13,13,14,14],"right_children":[2,4,6,8,10,12,14,16,18,20,22,24,26,28,30,-1,-1,-1,-1,-1,-1,-1,-1,-1,-1,-1,-1,-1,-1,-1,-1],"split_conditions":[2.8E2,1.882E3,4.56E2,2.00001E0,2.00001E0,2.00001E0,6.13E2,1.6E3,1.16E2,2.13E3,2.206E3,1.773E3,2.00001E0,9E1,7.2E2,-1.0440582E-2,-4.3154866E-3,1.9667167E-3,-1.4419149E-3,1.3576675E-3,7.821722E-3,7.5954944E-3,1.5568042E-2,-1.6208207E-2,-8.409159E-3,-3.4475893E-2,-5.8940793E-3,-1.979878E-2,-1.3464212E-2,-2.3517584E-2,-1.2360355E-2],"split_indices":[3,1,3,3125,3125,3125,3,1,3,1,1,1,8,4,4,0,0,0,0,0,0,0,0,0,0,0,0,0,0,0,0],"split_type":[0,0,0,0,0,0,0,0,0,0,0,0,0,0,0,0,0,0,0,0,0,0,0,0,0,0,0,0,0,0,0],"sum_hessian":[3.0117258E6,2.712833E6,2.9889272E5,2.0591298E6,6.537033E5,2.248382E5,7.4054516E4,3.980813E5,1.6610484E6,2.142445E5,4.394588E5,6.779965E4,1.5703856E5,5.34928E4,2.0561715E4,1.541294E5,2.439519E5,1.1490245E6,5.120239E5,1.6017203E5,5.4072477E4,3.9440184E5,4.5056965E4,3.2546586E4,3.5253062E4,1.0262529E3,1.5601231E5,1.6519494E4,3.6973305E4,1.9443318E4,1.1183965E3],"tree_param":{"num_deleted":"0","num_feature":"3129","num_nodes":"31","size_leaf_vector":"1"}},{"base_weights":[-9.088908E-4,-1.1158817E-1,2.4824461E-1,-4.5889646E-2,-2.803332E-1,1.608267E-1,4.5393473E-1,-9.648694E-2,7.6537356E-3,-2.2702354E-1,-4.0289152E-1,1.11793205E-1,2.3107532E-1,3.752055E-1,6.1902237E-1,-6.361363E-3,-3.2266532E-3,5.2842148E-2,3.33128E-4,4.646936E-2,-1.1431571E-2,4.7872517E-2,-2.031783E-2,5.472895E-2,5.5337674E-3,1.0005528E-2,1.4052552E-2,2.2580797E-2,1.7222093E-2,2.720105E-2,3.5703685E-2],"categories":[],"categories_nodes":[],"categories_segments":[],"categories_sizes":[],"default_left":[1,1,0,0,0,0,0,0,0,0,0,0,0,0,0,0,0,0,0,0,0,0,0,0,0,0,0,0,0,0,0],"id":26,"left_children":[1,3,5,7,9,11,13,15,17,19,21,23,25,27,29,-1,-1,-1,-1,-1,-1,-1,-1,-1,-1,-1,-1,-1,-1,-1,-1],"loss_changes":[8.285733E4,2.3064828E4,1.6617863E4,4.0568604E3,3.8090742E3,2.233961E3,3.5822656E3,7.562583E2,7.565972E2,7.5565625E2,8.3341016E2,4.1950342E2,4.125088E2,4.385586E2,6.3410547E2,0E0,0E0,0E0,0E0,0E0,0E0,0E0,0E0,0E0,0E0,0E0,0E0,0E0,0E0,0E0,0E0],"parents":[2147483647,0,0,1,1,2,2,3,3,4,4,5,5,6,6,7,7,8,8,9,9,10,10,11,11,12,12,13,13,14,14],"right_children":[2,4,6,8,10,12,14,16,18,20,22,24,26,28,30,-1,-1,-1,-1,-1,-1,-1,-1,-1,-1,-1,-1,-1,-1,-1,-1],"split_conditions":[6.7E1,1.12E2,2.21E2,-9E0,2.56E2,1.35E2,3.64E2,-4.9E1,2.00001E0,2.00001E0,2.00001E0,2.00001E0,1.81E2,2.00001E0,4.73E2,-6.361363E-3,-3.2266532E-3,5.2842148E-2,3.33128E-4,4.646936E-2,-1.1431571E-2,4.7872517E-2,-2.031783E-2,5.472895E-2,5.5337674E-3,1.0005528E-2,1.4052552E-2,2.2580797E-2,1.7222093E-2,2.720105E-2,3.5703685E-2],"split_indices":[2,3,3,2,3,3,3,2,664,664,664,664,3,3125,2,0,0,0,0,0,0,0,0,0,0,0,0,0,0,0,0],"split_type":[0,0,0,0,0,0,0,0,0,0,0,0,0,0,0,0,0,0,0,0,0,0,0,0,0,0,0,0,0,0,0],"sum_hessian":[3.004674E6,2.0804808E6,9.2419325E5,1.4974649E6,5.830159E5,6.4855875E5,2.7563447E5,7.699133E5,7.275516E5,4.062923E5,1.7672355E5,3.8195616E5,2.666026E5,1.8663345E5,8.900101E4,3.9240672E5,3.775066E5,6.8566846E2,7.2686594E5,5.633226E2,4.05729E5,4.4830777E2,1.7627523E5,4.3284744E2,3.815233E5,1.6461364E5,1.0198896E5,5.356802E4,1.3306544E5,4.9751074E4,3.924993E4],"tree_param":{"num_deleted":"0","num_feature":"3129","num_nodes":"31","size_leaf_vector":"1"}},{"base_weights":[-3.815221E-4,2.2218381E-1,-1.108574E-1,1.4020117E-1,4.2054227E-1,-5.1527537E-2,-2.761706E-1,2.0852306E-1,9.777588E-2,3.3511597E-1,5.5845183E-1,-1.0126167E-2,-1.1107676E-1,-2.3016126E-1,-4.066011E-1,1.4319128E-2,9.041793E-3,5.069502E-2,4.7988202E-3,5.106392E-2,1.6570916E-2,3.3606227E-2,2.4836432E-2,5.1002093E-2,-5.907555E-4,5.1063698E-2,-5.646398E-3,4.9586505E-2,-1.1676126E-2,4.115234E-2,-2.0740079E-2],"categories":[],"categories_nodes":[],"categories_segments":[],"categories_sizes":[],"default_left":[0,0,1,0,0,1,0,0,0,0,0,0,0,0,0,0,0,0,0,0,0,0,0,0,0,0,0,0,0,0,0],"id":27,"left_children":[1,3,5,7,9,11,13,15,17,19,21,23,25,27,29,-1,-1,-1,-1,-1,-1,-1,-1,-1,-1,-1,-1,-1,-1,-1,-1],"loss_changes":[7.377516E4,1.6185492E4,1.966642E4,2.0412676E3,3.428871E3,3.6378962E3,3.177879E3,5.815176E2,7.16125E2,4.556797E2,7.8079297E2,1.5144454E3,1.2686411E3,1.6080684E3,1.3928242E3,0E0,0E0,0E0,0E0,0E0,0E0,0E0,0E0,0E0,0E0,0E0,0E0,0E0,0E0,0E0,0E0],"parents":[2147483647,0,0,1,1,2,2,3,3,4,4,5,5,6,6,7,7,8,8,9,9,10,10,11,11,12,12,13,13,14,14],"right_children":[2,4,6,8,10,12,14,16,18,20,22,24,26,28,30,-1,-1,-1,-1,-1,-1,-1,-1,-1,-1,-1,-1,-1,-1,-1,-1],"split_conditions":[-5.9E1,2.18E2,1.2E2,-1.33E2,3.38E2,2.9E1,2.8E2,2.00001E0,2.00001E0,2.00001E0,-4.78E2,2.00001E0,2.00001E0,2.00001E0,2.00001E0,1.4319128E-2,9.041793E-3,5.069502E-2,4.7988202E-3,5.106392E-2,1.6570916E-2,3.3606227E-2,2.4836432E-2,5.1002093E-2,-5.907555E-4,5.1063698E-2,-5.646398E-3,4.9586505E-2,-1.1676126E-2,4.115234E-2,-2.0740079E-2],"split_indices":[2,3,2,2,3,2,3,3125,8,8,2,8,8,8,8,0,0,0,0,0,0,0,0,0,0,0,0,0,0,0,0],"split_type":[0,0,0,0,0,0,0,0,0,0,0,0,0,0,0,0,0,0,0,0,0,0,0,0,0,0,0,0,0,0,0],"sum_hessian":[3.0004398E6,9.953006E5,2.0051392E6,7.042372E5,2.9106338E5,1.4755684E6,5.295708E5,2.697793E5,4.3445788E5,1.7973331E5,1.1133008E5,8.7041606E5,6.051523E5,3.914793E5,1.380915E5,7.076657E4,1.9901275E5,8.5059576E2,4.3360728E5,9.6188934E2,1.7877142E5,3.917442E4,7.215565E4,1.4237089E3,8.689924E5,9.8680585E2,6.041655E5,1.0731414E3,3.904062E5,9.141667E2,1.3717733E5],"tree_param":{"num_deleted":"0","num_feature":"3129","num_nodes":"31","size_leaf_vector":"1"}},{"base_weights":[1.8626135E-3,2.5492024E-2,-1.8325818E-1,-1.7473586E-2,1.08394645E-1,-1.3789313E-1,-3.2276368E-1,-1.4552899E-1,1.123996E-2,5.7262257E-2,1.5660833E-1,-2.2096795E-1,-1.0291103E-1,-2.858505E-1,-4.385745E-1,-8.227634E-3,1.2906644E-3,-3.380468E-2,6.216949E-4,-2.2006677E-3,4.3583103E-3,4.2205504E-3,9.690251E-3,-1.5525462E-2,-6.9766357E-3,-5.8235554E-3,2.4598099E-3,-1.8471977E-2,-1.2460411E-2,-1.5764242E-2,-2.3111844E-2],"categories":[],"categories_nodes":[],"categories_segments":[],"categories_sizes":[],"default_left":[1,0,0,0,0,0,0,1,0,1,0,0,0,1,0,0,0,0,0,0,0,0,0,0,0,0,0,0,0,0,0],"id":28,"left_children":[1,3,5,7,9,11,13,15,17,19,21,23,25,27,29,-1,-1,-1,-1,-1,-1,-1,-1,-1,-1,-1,-1,-1,-1,-1,-1],"loss_changes":[1.3177285E4,9.515584E3,2.1579795E3,6.469687E3,2.2480996E3,7.4777783E2,3.575791E2,1.0504775E3,1.179476E3,1.3403147E3,1.2604219E3,5.5593164E2,3.7348328E2,1.9425879E2,5.8849365E1,0E0,0E0,0E0,0E0,0E0,0E0,0E0,0E0,0E0,0E0,0E0,0E0,0E0,0E0,0E0,0E0],"parents":[2147483647,0,0,1,1,2,2,3,3,4,4,5,5,6,6,7,7,8,8,9,9,10,10,11,11,12,12,13,13,14,14],"right_children":[2,4,6,8,10,12,14,16,18,20,22,24,26,28,30,-1,-1,-1,-1,-1,-1,-1,-1,-1,-1,-1,-1,-1,-1,-1,-1],"split_conditions":[2.64E2,1.803E3,4.39E2,2.00001E0,1.933E3,2.00001E0,6.13E2,2E0,2.00001E0,9E1,2.00001E0,1.77E3,2.068E3,9E1,2.5E1,-8.227634E-3,1.2906644E-3,-3.380468E-2,6.216949E-4,-2.2006677E-3,4.3583103E-3,4.2205504E-3,9.690251E-3,-1.5525462E-2,-6.9766357E-3,-5.8235554E-3,2.4598099E-3,-1.8471977E-2,-1.2460411E-2,-1.5764242E-2,-2.3111844E-2],"split_indices":[3,0,3,3125,1,3125,3,5,8,4,3125,1,0,4,5,0,0,0,0,0,0,0,0,0,0,0,0,0,0,0,0],"split_type":[0,0,0,0,0,0,0,0,0,0,0,0,0,0,0,0,0,0,0,0,0,0,0,0,0,0,0,0,0,0,0],"sum_hessian":[3.012434E6,2.6714432E6,3.409907E5,1.7595362E6,9.11907E5,2.5731711E5,8.367359E4,3.2227306E5,1.4372632E6,4.42559E5,4.69348E5,7.624547E4,1.8107162E5,6.3452418E4,2.0221172E4,2.9006762E5,3.2205428E4,2.4913003E3,1.4347719E6,1.0088651E5,3.416725E5,1.5959119E5,3.097568E5,3.631398E4,3.993149E4,1.662509E5,1.482072E4,1.9335293E4,4.4117125E4,3.2583433E3,1.6962828E4],"tree_param":{"num_deleted":"0","num_feature":"3129","num_nodes":"31","size_leaf_vector":"1"}},{"base_weights":[-7.246671E-4,-1.14528924E-1,2.2324678E-1,-2.867928E-1,-5.569724E-2,1.3476314E-1,4.145317E-1,-2.4350722E-1,-4.2591897E-1,-1.1209626E-1,-1.11199245E-2,9.4261885E-2,1.9964322E-1,3.4464344E-1,5.8878434E-1,4.795243E-2,-1.226613E-2,4.6551183E-2,-2.1496277E-2,4.5535542E-2,-5.654119E-3,6.254134E-4,-2.6212984E-3,6.0513816E-3,2.7752481E-3,1.3209197E-2,8.862078E-3,-2.5933532E-2,1.7354785E-2,2.5364554E-2,3.3678323E-2],"categories":[],"categories_nodes":[],"categories_segments":[],"categories_sizes":[],"default_left":[1,0,0,0,0,0,0,0,0,0,0,0,0,0,0,0,0,0,0,0,0,0,0,0,0,0,0,0,0,0,0],"id":29,"left_children":[1,3,5,7,9,11,13,15,17,19,21,23,25,27,29,-1,-1,-1,-1,-1,-1,-1,-1,-1,-1,-1,-1,-1,-1,-1,-1],"loss_changes":[7.650258E4,2.0169465E4,1.7115805E4,3.0510312E3,3.729731E3,1.8168262E3,3.894746E3,8.438457E2,6.5402344E2,6.606582E2,8.087031E2,4.4158008E2,3.841504E2,4.8345508E2,6.322168E2,0E0,0E0,0E0,0E0,0E0,0E0,0E0,0E0,0E0,0E0,0E0,0E0,0E0,0E0,0E0,0E0],"parents":[2147483647,0,0,1,1,2,2,3,3,4,4,5,5,6,6,7,7,8,8,9,9,10,10,11,11,12,12,13,13,14,14],"right_children":[2,4,6,8,10,12,14,16,18,20,22,24,26,28,30,-1,-1,-1,-1,-1,-1,-1,-1,-1,-1,-1,-1,-1,-1,-1,-1],"split_conditions":[5.6E1,-1.27E2,2.03E2,2.99E2,-2.7E1,1.26E2,3.61E2,2.00001E0,2.00001E0,2.00001E0,1.77E3,1.71E3,2.00001E0,2.00001E0,4.56E2,4.795243E-2,-1.226613E-2,4.6551183E-2,-2.1496277E-2,4.5535542E-2,-5.654119E-3,6.254134E-4,-2.6212984E-3,6.0513816E-3,2.7752481E-3,1.3209197E-2,8.862078E-3,-2.5933532E-2,1.7354785E-2,2.5364554E-2,3.3678323E-2],"split_indices":[2,2,2,3,2,3,2,664,664,664,1,1,3125,8,3,0,0,0,0,0,0,0,0,0,0,0,0,0,0,0,0],"split_type":[0,0,0,0,0,0,0,0,0,0,0,0,0,0,0,0,0,0,0,0,0,0,0,0,0,0,0,0,0,0,0],"sum_hessian":[3.001405E6,1.9901642E6,1.0112408E6,5.0664966E5,1.4835146E6,6.914124E5,3.1982844E5,3.8642572E5,1.2022394E5,6.549161E5,8.285985E5,4.2568316E5,2.657292E5,2.2827584E5,9.155261E4,5.8167773E2,3.8584403E5,3.5325156E2,1.1987068E5,6.2992725E2,6.542862E5,5.270895E5,3.01509E5,2.5179206E5,1.738911E5,6.84653E4,1.972639E5,6.4598193E2,2.2762986E5,4.6685316E4,4.4867293E4],"tree_param":{"num_deleted":"0","num_feature":"3129","num_nodes":"31","size_leaf_vector":"1"}},{"base_weights":[-6.7598803E-4,2.0837443E-1,-1.101621E-1,1.3140213E-1,4.02474E-1,-5.8609284E-2,-2.888367E-1,8.794132E-2,1.9382048E-1,3.3604196E-1,5.6192726E-1,-1.6041495E-2,-1.2025424E-1,8.7536407E-1,-2.9371914E-1,4.9203854E-2,4.3113097E-3,4.9865995E-2,9.567454E-3,4.9384873E-2,1.660954E-2,3.392819E-2,2.553328E-2,4.9231797E-2,-8.840685E-4,4.9241547E-2,-6.1072703E-3,4.5929916E-2,3.0128524E-2,-1.2642071E-2,-2.1649767E-2],"categories":[],"categories_nodes":[],"categories_segments":[],"categories_sizes":[],"default_left":[0,0,1,0,0,1,0,0,0,0,0,0,0,0,0,0,0,0,0,0,0,0,0,0,0,0,0,0,0,0,0],"id":30,"left_children":[1,3,5,7,9,11,13,15,17,19,21,23,25,27,29,-1,-1,-1,-1,-1,-1,-1,-1,-1,-1,-1,-1,-1,-1,-1,-1],"loss_changes":[6.859871E4,1.5390867E4,1.811809E4,2.0010273E3,3.098414E3,4.0057354E3,2.5038242E3,6.6828687E2,6.010654E2,5.1789453E2,5.140117E2,1.4818032E3,1.3032471E3,2.1143799E1,2.4970117E3,0E0,0E0,0E0,0E0,0E0,0E0,0E0,0E0,0E0,0E0,0E0,0E0,0E0,0E0,0E0,0E0],"parents":[2147483647,0,0,1,1,2,2,3,3,4,4,5,5,6,6,7,7,8,8,9,9,10,10,11,11,12,12,13,13,14,14],"right_children":[2,4,6,8,10,12,14,16,18,20,22,24,26,28,30,-1,-1,-1,-1,-1,-1,-1,-1,-1,-1,-1,-1,-1,-1,-1,-1],"split_conditions":[-5.5E1,2.18E2,1.41E2,1.27E2,3.74E2,3.6E1,2.00001E0,2.00001E0,2.00001E0,2.00001E0,-5.3E2,2.00001E0,2.00001E0,5E2,3.17E2,4.9203854E-2,4.3113097E-3,4.9865995E-2,9.567454E-3,4.9384873E-2,1.660954E-2,3.392819E-2,2.553328E-2,4.9231797E-2,-8.840685E-4,4.9241547E-2,-6.1072703E-3,4.5929916E-2,3.0128524E-2,-1.2642071E-2,-2.1649767E-2],"split_indices":[2,3,3,3,3,2,8,8,8,8,2,8,8,3,3,0,0,0,0,0,0,0,0,0,0,0,0,0,0,0,0],"split_type":[0,0,0,0,0,0,0,0,0,0,0,0,0,0,0,0,0,0,0,0,0,0,0,0,0,0,0,0,0,0,0],"sum_hessian":[2.9971298E6,1.0301613E6,1.9669685E6,7.3764275E5,2.9251856E5,1.5265234E6,4.4044516E5,4.3485978E5,3.0278297E5,2.0649214E5,8.602643E4,9.02985E5,6.235384E5,1.8386954E3,4.3860647E5,8.2959595E2,4.3403016E5,9.2720404E2,3.0185575E5,1.2116641E3,2.0528048E5,2.6261342E4,5.9765086E4,1.4763767E3,9.015086E5,1.0643635E3,6.22474E5,1.585109E3,2.5358652E2,3.3908688E5,9.951959E4],"tree_param":{"num_deleted":"0","num_feature":"3129","num_nodes":"31","size_leaf_vector":"1"}},{"base_weights":[1.5838403E-3,2.2376966E-2,-1.8979852E-1,-1.0638857E-2,1.2403006E-1,-1.459142E-1,-3.2557803E-1,-1.2864578E-1,1.740242E-2,5.5135548E-2,1.5792565E-1,-2.2822051E-1,-1.1058904E-1,-2.8528127E-1,-4.3173784E-1,-1.12014515E-2,-4.55624E-3,1.8740991E-3,-1.3149701E-3,-2.1255377E-3,4.457207E-3,6.8592667E-3,1.4123784E-2,-1.40920235E-2,-5.3124577E-3,-3.3678558E-2,-5.348358E-3,-1.8310595E-2,-1.2451093E-2,-1.6248502E-2,-2.2635056E-2],"categories":[],"categories_nodes":[],"categories_segments":[],"categories_sizes":[],"default_left":[1,0,0,0,0,0,0,0,1,1,1,0,0,1,0,0,0,0,0,0,0,0,0,0,0,0,0,0,0,0,0],"id":31,"left_children":[1,3,5,7,9,11,13,15,17,19,21,23,25,27,29,-1,-1,-1,-1,-1,-1,-1,-1,-1,-1,-1,-1,-1,-1,-1,-1],"loss_changes":[1.1977604E4,9.111664E3,1.7575371E3,6.7813125E3,1.5543018E3,6.481128E2,3.0808643E2,1.4081538E3,1.4530281E3,7.288722E2,1.1523584E3,4.377832E2,3.1797766E2,1.5316748E2,4.421704E1,0E0,0E0,0E0,0E0,0E0,0E0,0E0,0E0,0E0,0E0,0E0,0E0,0E0,0E0,0E0,0E0],"parents":[2147483647,0,0,1,1,2,2,3,3,4,4,5,5,6,6,7,7,8,8,9,9,10,10,11,11,12,12,13,13,14,14],"right_children":[2,4,6,8,10,12,14,16,18,20,22,24,26,28,30,-1,-1,-1,-1,-1,-1,-1,-1,-1,-1,-1,-1,-1,-1,-1,-1],"split_conditions":[2.8E2,1.879E3,4.56E2,2.00001E0,1.923E3,2.00001E0,6.13E2,1.534E3,1.14E2,9E1,2E0,1.957E3,2.00001E0,9E1,1.8E2,-1.12014515E-2,-4.55624E-3,1.8740991E-3,-1.3149701E-3,-2.1255377E-3,4.457207E-3,6.8592667E-3,1.4123784E-2,-1.40920235E-2,-5.3124577E-3,-3.3678558E-2,-5.348358E-3,-1.8310595E-2,-1.2451093E-2,-1.6248502E-2,-2.2635056E-2],"split_indices":[3,1,3,3125,0,3125,3,0,3,4,5,1,8,4,5,0,0,0,0,0,0,0,0,0,0,0,0,0,0,0,0],"split_type":[0,0,0,0,0,0,0,0,0,0,0,0,0,0,0,0,0,0,0,0,0,0,0,0,0,0,0,0,0,0,0],"sum_hessian":[3.0098715E6,2.7149058E6,2.949656E5,2.0493122E6,6.6559356E5,2.2291947E5,7.204613E4,3.934676E5,1.6558448E6,2.1948392E5,4.4610962E5,6.694187E4,1.559776E5,5.2225695E4,1.982044E4,1.11080766E5,2.823868E5,1.1345541E6,5.2129056E5,5.6696188E4,1.6278773E5,3.8242888E5,6.3680723E4,4.6499055E4,2.0442812E4,9.9587054E2,1.5498172E5,1.6156178E4,3.6069516E4,3.2556448E3,1.6564795E4],"tree_param":{"num_deleted":"0","num_feature":"3129","num_nodes":"31","size_leaf_vector":"1"}},{"base_weights":[-8.3952316E-4,-1.1211031E-1,2.1173024E-1,-5.373463E-2,-2.7534804E-1,1.297564E-1,4.031518E-1,-1.1216485E-1,-1.5677826E-2,-2.2759537E-1,-3.9847618E-1,8.23549E-2,1.871008E-1,3.4296638E-1,5.8425695E-1,4.3787044E-2,-5.655942E-3,4.696413E-2,-8.308609E-4,4.63862E-2,-1.1464973E-2,4.5824733E-2,-2.0104386E-2,5.3728342E-2,4.0646903E-3,5.4578897E-2,9.278334E-3,1.5647547E-2,2.0883571E-2,2.7438253E-2,3.7789803E-2],"categories":[],"categories_nodes":[],"categories_segments":[],"categories_sizes":[],"default_left":[1,1,0,0,0,0,0,0,0,0,0,0,0,0,0,0,0,0,0,0,0,0,0,0,0,0,0,0,0,0,0],"id":32,"left_children":[1,3,5,7,9,11,13,15,17,19,21,23,25,27,29,-1,-1,-1,-1,-1,-1,-1,-1,-1,-1,-1,-1,-1,-1,-1,-1],"loss_changes":[7.0882945E4,1.8744834E4,1.6157488E4,3.2219878E3,3.046539E3,1.9596992E3,3.3650234E3,5.387134E2,7.871615E2,7.352715E2,6.8802734E2,4.1546313E2,4.525088E2,5.194863E2,4.6843164E2,0E0,0E0,0E0,0E0,0E0,0E0,0E0,0E0,0E0,0E0,0E0,0E0,0E0,0E0,0E0,0E0],"parents":[2147483647,0,0,1,1,2,2,3,3,4,4,5,5,6,6,7,7,8,8,9,9,10,10,11,11,12,12,13,13,14,14],"right_children":[2,4,6,8,10,12,14,16,18,20,22,24,26,28,30,-1,-1,-1,-1,-1,-1,-1,-1,-1,-1,-1,-1,-1,-1,-1,-1],"split_conditions":[5.4E1,1.24E2,2.08E2,-3.4E1,2.76E2,1.16E2,3.85E2,2.00001E0,2.00001E0,2.00001E0,2.00001E0,2.00001E0,2.00001E0,3.02E2,6.09E2,4.3787044E-2,-5.655942E-3,4.696413E-2,-8.308609E-4,4.63862E-2,-1.1464973E-2,4.5824733E-2,-2.0104386E-2,5.3728342E-2,4.0646903E-3,5.4578897E-2,9.278334E-3,1.5647547E-2,2.0883571E-2,2.7438253E-2,3.7789803E-2],"split_indices":[2,3,2,2,3,3,3,664,664,664,664,664,664,2,2,0,0,0,0,0,0,0,0,0,0,0,0,0,0,0,0],"split_type":[0,0,0,0,0,0,0,0,0,0,0,0,0,0,0,0,0,0,0,0,0,0,0,0,0,0,0,0,0,0,0],"sum_hessian":[2.9968075E6,1.9671124E6,1.02969506E6,1.4489519E6,5.181604E5,7.209564E5,3.0873866E5,5.7150075E5,8.774512E5,3.7336247E5,1.4479795E5,3.9469747E5,3.262589E5,2.3173175E5,7.700692E4,5.504648E2,5.7095025E5,8.6131573E2,8.765899E5,5.490905E2,3.7281338E5,3.959034E2,1.4440206E5,4.2056705E2,3.942769E5,5.51242E2,3.2570766E5,1.6531547E5,6.641627E4,6.3808887E4,1.319803E4],"tree_param":{"num_deleted":"0","num_feature":"3129","num_nodes":"31","size_leaf_vector":"1"}},{"base_weights":[-9.891195E-4,1.9950712E-1,-1.066461E-1,1.1302977E-1,3.5939345E-1,-5.9423313E-2,-2.900264E-1,1.541153E-1,7.082763E-2,2.8702423E-1,5.076293E-1,-1.759369E-2,-1.2249605E-1,8.488517E-1,-2.950027E-1,4.7890257E-2,7.5981133E-3,4.8106287E-2,3.457348E-3,4.7839914E-2,1.4191411E-2,2.2952363E-2,3.1554505E-2,4.806569E-2,-9.5843524E-4,4.8292313E-2,-6.2199035E-3,4.433375E-2,2.8622884E-2,-1.2807131E-2,-2.1614097E-2],"categories":[],"categories_nodes":[],"categories_segments":[],"categories_sizes":[],"default_left":[0,0,1,0,0,1,0,0,0,0,0,0,0,0,0,0,0,0,0,0,0,0,0,0,0,0,0,0,0,0,0],"id":33,"left_children":[1,3,5,7,9,11,13,15,17,19,21,23,25,27,29,-1,-1,-1,-1,-1,-1,-1,-1,-1,-1,-1,-1,-1,-1,-1,-1],"loss_changes":[6.3413508E4,1.428398E4,1.6976516E4,1.1624971E3,3.8900273E3,4.1129956E3,2.2754336E3,5.8770605E2,4.9537183E2,5.213281E2,7.1322266E2,1.4451799E3,1.286916E3,1.7753174E1,2.1321836E3,0E0,0E0,0E0,0E0,0E0,0E0,0E0,0E0,0E0,0E0,0E0,0E0,0E0,0E0,0E0,0E0],"parents":[2147483647,0,0,1,1,2,2,3,3,4,4,5,5,6,6,7,7,8,8,9,9,10,10,11,11,12,12,13,13,14,14],"right_children":[2,4,6,8,10,12,14,16,18,20,22,24,26,28,30,-1,-1,-1,-1,-1,-1,-1,-1,-1,-1,-1,-1,-1,-1,-1,-1],"split_conditions":[-5.5E1,1.91E2,1.51E2,-1.05E2,3.3E2,4E1,2.00001E0,2.00001E0,2.00001E0,2.00001E0,5E2,2.00001E0,2.00001E0,5.28E2,3.3E2,4.7890257E-2,7.5981133E-3,4.8106287E-2,3.457348E-3,4.7839914E-2,1.4191411E-2,2.2952363E-2,3.1554505E-2,4.806569E-2,-9.5843524E-4,4.8292313E-2,-6.2199035E-3,4.433375E-2,2.8622884E-2,-1.2807131E-2,-2.1614097E-2],"split_indices":[2,3,2,2,3,2,8,8,8,8,3,8,8,3,3,0,0,0,0,0,0,0,0,0,0,0,0,0,0,0,0],"split_type":[0,0,0,0,0,0,0,0,0,0,0,0,0,0,0,0,0,0,0,0,0,0,0,0,0,0,0,0,0,0,0],"sum_hessian":[2.9934852E6,1.0330857E6,1.9603995E6,6.7045825E5,3.6262744E5,1.5589509E6,4.014486E5,3.3972203E5,3.3073622E5,2.436699E5,1.1895754E5,9.373229E5,6.21628E5,1.7457561E3,3.9970284E5,9.0648376E2,3.3881556E5,6.214028E2,3.301148E5,1.1557908E3,2.4251411E5,8.536932E4,3.358822E4,1.5047072E3,9.358182E5,1.0835923E3,6.2054444E5,1.5336719E3,2.1208414E2,3.1152212E5,8.818072E4],"tree_param":{"num_deleted":"0","num_feature":"3129","num_nodes":"31","size_leaf_vector":"1"}},{"base_weights":[1.8812498E-3,-4.269001E-2,6.574566E-2,-2.0322894E-1,-1.661277E-2,8.8574484E-2,-1.8208541E-1,-2.4306001E-1,1.0463093E-2,-2.004209E-1,-8.920666E-3,1.0523929E-2,1.164681E-1,-1.1770171E-1,-3.2249668E-1,-1.758395E-2,-9.140885E-3,2.2715174E-3,-5.769571E-3,-1.5784469E-2,-8.590975E-3,1.1988824E-5,-5.2512176E-3,-1.750403E-3,5.3140745E-3,4.2970707E-3,9.311787E-3,-8.228707E-3,-7.0039387E-4,-1.4104827E-2,-2.1587415E-2],"categories":[],"categories_nodes":[],"categories_segments":[],"categories_sizes":[],"default_left":[0,1,1,1,0,1,0,0,1,0,1,0,0,0,0,0,0,0,0,0,0,0,0,0,0,0,0,0,0,0,0],"id":34,"left_children":[1,3,5,7,9,11,13,15,17,19,21,23,25,27,29,-1,-1,-1,-1,-1,-1,-1,-1,-1,-1,-1,-1,-1,-1,-1,-1],"loss_changes":[8.564959E3,7.418908E3,6.9973667E3,2.1077617E3,2.1554563E3,2.4655107E3,9.430093E2,1.3657393E3,1.7122585E2,2.0183008E2,1.2881958E3,1.3000101E3,1.7768672E3,3.476283E2,1.4462695E2,0E0,0E0,0E0,0E0,0E0,0E0,0E0,0E0,0E0,0E0,0E0,0E0,0E0,0E0,0E0,0E0],"parents":[2147483647,0,0,1,1,2,2,3,3,4,4,5,5,6,6,7,7,8,8,9,9,10,10,11,11,12,12,13,13,14,14],"right_children":[2,4,6,8,10,12,14,16,18,20,22,24,26,28,30,-1,-1,-1,-1,-1,-1,-1,-1,-1,-1,-1,-1,-1,-1,-1,-1],"split_conditions":[1.755E3,9E1,2.73E2,2E0,-3.31E2,9E1,4.35E2,1.534E3,9.2E1,-5.3E2,1.68E2,2.029E3,1.982E3,1.74E3,6.09E2,-1.758395E-2,-9.140885E-3,2.2715174E-3,-5.769571E-3,-1.5784469E-2,-8.590975E-3,1.1988824E-5,-5.2512176E-3,-1.750403E-3,5.3140745E-3,4.2970707E-3,9.311787E-3,-8.228707E-3,-7.0039387E-4,-1.4104827E-2,-2.1587415E-2],"split_indices":[0,4,2,5,2,4,2,0,2,2,2,0,0,1,2,0,0,0,0,0,0,0,0,0,0,0,0,0,0,0,0],"split_type":[0,0,0,0,0,0,0,0,0,0,0,0,0,0,0,0,0,0,0,0,0,0,0,0,0,0,0,0,0,0,0],"sum_hessian":[3.0089242E6,1.7721399E6,1.2367842E6,2.4763311E5,1.5245069E6,1.1324681E6,1.04316055E5,2.0872728E5,3.8905816E4,6.1234773E4,1.463272E6,2.9816338E5,8.3430475E5,7.15223E4,3.2793754E4,7.446302E4,1.3426427E5,3.0447076E4,8.458737E3,1.2171514E4,4.906326E4,1.335934E6,1.27338E5,2.0207764E5,9.6085734E4,5.8036806E5,2.5393669E5,4.9256453E4,2.2265848E4,2.3943326E4,8.850426E3],"tree_param":{"num_deleted":"0","num_feature":"3129","num_nodes":"31","size_leaf_vector":"1"}},{"base_weights":[-9.1390347E-4,-1.1033238E-1,1.9943202E-1,-6.0325146E-2,-2.884652E-1,1.13265894E-1,3.6639243E-1,-1.18259005E-1,-1.7582297E-2,-4.1254234E-1,-2.4493694E-1,7.246864E-2,1.5878356E-1,3.1375727E-1,5.588947E-1,4.1043695E-2,-5.9614326E-3,4.6755116E-2,-9.2545256E-4,4.247461E-2,-2.082344E-2,4.6830762E-2,-1.2343588E-2,5.3427804E-2,3.5729364E-3,5.146869E-2,7.870862E-3,1.4227661E-2,1.9604363E-2,2.5290465E-2,3.3260744E-2],"categories":[],"categories_nodes":[],"categories_segments":[],"categories_sizes":[],"default_left":[1,1,0,0,0,0,0,0,0,0,0,0,0,0,0,0,0,0,0,0,0,0,0,0,0,0,0,0,0,0,0],"id":35,"left_children":[1,3,5,7,9,11,13,15,17,19,21,23,25,27,29,-1,-1,-1,-1,-1,-1,-1,-1,-1,-1,-1,-1,-1,-1,-1,-1],"loss_changes":[6.5628086E4,1.7248207E4,1.5213418E4,3.7437441E3,2.2921523E3,1.2952725E3,3.6472617E3,5.845996E2,7.681357E2,5.46541E2,7.1851953E2,3.6994934E2,3.9200195E2,6.465488E2,4.359043E2,0E0,0E0,0E0,0E0,0E0,0E0,0E0,0E0,0E0,0E0,0E0,0E0,0E0,0E0,0E0,0E0],"parents":[2147483647,0,0,1,1,2,2,3,3,4,4,5,5,6,6,7,7,8,8,9,9,10,10,11,11,12,12,13,13,14,14],"right_children":[2,4,6,8,10,12,14,16,18,20,22,24,26,28,30,-1,-1,-1,-1,-1,-1,-1,-1,-1,-1,-1,-1,-1,-1,-1,-1],"split_conditions":[5.1E1,1.47E2,1.89E2,-3.6E1,-3.05E2,1.06E2,3.85E2,2.00001E0,2.00001E0,2.00001E0,2.00001E0,2.00001E0,2.00001E0,2.94E2,5.28E2,4.1043695E-2,-5.9614326E-3,4.6755116E-2,-9.2545256E-4,4.247461E-2,-2.082344E-2,4.6830762E-2,-1.2343588E-2,5.3427804E-2,3.5729364E-3,5.146869E-2,7.870862E-3,1.4227661E-2,1.9604363E-2,2.5290465E-2,3.3260744E-2],"split_indices":[2,3,2,2,2,3,3,664,664,664,664,664,664,3,3,0,0,0,0,0,0,0,0,0,0,0,0,0,0,0,0],"split_type":[0,0,0,0,0,0,0,0,0,0,0,0,0,0,0,0,0,0,0,0,0,0,0,0,0,0,0,0,0,0,0],"sum_hessian":[2.9937692E6,1.9362765E6,1.0574926E6,1.5118549E6,4.244217E5,6.9751556E5,3.5997706E5,6.418655E5,8.699893E5,1.10223016E5,3.1419866E5,3.678321E5,3.296835E5,2.8268594E5,7.729113E4,6.611658E2,6.412043E5,8.4450775E2,8.691448E5,3.4119168E2,1.0988183E5,5.128759E2,3.1368578E5,3.714887E2,3.674606E5,5.154245E2,3.2916806E5,2.0591762E5,7.676831E4,5.1555414E4,2.5735719E4],"tree_param":{"num_deleted":"0","num_feature":"3129","num_nodes":"31","size_leaf_vector":"1"}},{"base_weights":[-5.887684E-4,1.917004E-1,-1.0257116E-1,1.2099392E-1,3.694582E-1,-5.4347962E-2,-2.7252772E-1,7.454106E-2,1.721922E-1,5.2682906E-1,3.1225985E-1,-1.6728459E-2,-1.1462745E-1,8.3709955E-1,-2.772471E-1,4.674043E-2,3.6454152E-3,9.952161E-3,5.2604075E-3,3.1371396E-2,2.3823394E-2,4.672595E-2,1.5427398E-2,4.6875313E-2,-9.146379E-4,4.6970114E-2,-5.8241733E-3,4.3527707E-2,2.5955785E-2,-1.15445005E-2,-1.9745694E-2],"categories":[],"categories_nodes":[],"categories_segments":[],"categories_sizes":[],"default_left":[0,0,1,0,0,1,0,0,0,0,0,0,0,0,0,0,0,0,0,0,0,0,0,0,0,0,0,0,0,0,0],"id":36,"left_children":[1,3,5,7,9,11,13,15,17,19,21,23,25,27,29,-1,-1,-1,-1,-1,-1,-1,-1,-1,-1,-1,-1,-1,-1,-1,-1],"loss_changes":[5.8601727E4,1.301648E4,1.600407E4,1.7621289E3,2.6526719E3,3.449397E3,2.2603965E3,5.4557446E2,6.3390625E2,3.9771484E2,4.9897656E2,1.3980833E3,1.1435938E3,1.8995605E1,2.344168E3,0E0,0E0,0E0,0E0,0E0,0E0,0E0,0E0,0E0,0E0,0E0,0E0,0E0,0E0,0E0,0E0],"parents":[2147483647,0,0,1,1,2,2,3,3,4,4,5,5,6,6,7,7,8,8,9,9,10,10,11,11,12,12,13,13,14,14],"right_children":[2,4,6,8,10,12,14,16,18,20,22,24,26,28,30,-1,-1,-1,-1,-1,-1,-1,-1,-1,-1,-1,-1,-1,-1,-1,-1],"split_conditions":[-5.5E1,2.18E2,1.41E2,1.17E2,-3.86E2,4E1,2.00001E0,2.00001E0,1.763E3,-5.3E2,2.00001E0,2.00001E0,2.00001E0,5.64E2,2.89E2,4.674043E-2,3.6454152E-3,9.952161E-3,5.2604075E-3,3.1371396E-2,2.3823394E-2,4.672595E-2,1.5427398E-2,4.6875313E-2,-9.146379E-4,4.6970114E-2,-5.8241733E-3,4.3527707E-2,2.5955785E-2,-1.15445005E-2,-1.9745694E-2],"split_indices":[2,3,3,3,2,2,8,8,0,2,8,8,8,3,3,0,0,0,0,0,0,0,0,0,0,0,0,0,0,0,0],"split_type":[0,0,0,0,0,0,0,0,0,0,0,0,0,0,0,0,0,0,0,0,0,0,0,0,0,0,0,0,0,0,0],"sum_hessian":[2.9883408E6,1.03563544E6,1.9527052E6,7.409217E5,2.9471372E5,1.5211095E6,4.3159584E5,3.8846494E5,3.5245675E5,7.8560516E4,2.161532E5,9.365957E5,5.8451375E5,1.827107E3,4.2976872E5,7.3481366E2,3.8773012E5,2.5159942E5,1.0085732E5,2.6204436E4,5.235608E4,1.280265E3,2.1487294E5,1.531891E3,9.350638E5,1.0265597E3,5.834872E5,1.6516064E3,1.755006E2,3.0830788E5,1.2146085E5],"tree_param":{"num_deleted":"0","num_feature":"3129","num_nodes":"31","size_leaf_vector":"1"}},{"base_weights":[1.2336446E-3,-4.198924E-2,6.414152E-2,-1.9829208E-1,-1.6602777E-2,8.900116E-2,-1.471276E-1,-2.3632316E-1,6.307648E-3,-1.452704E-1,-6.577799E-3,1.141341E-2,1.1664829E-1,-9.2975E-2,-3.094396E-1,-1.7190823E-2,-8.893843E-3,1.9594317E-3,-5.588546E-3,-1.166252E-2,-5.419515E-3,2.4803393E-4,-4.4195685E-3,-1.2771661E-3,5.9697237E-3,4.396346E-3,9.407292E-3,-7.5603435E-3,-3.004536E-4,-1.340242E-2,-2.1116337E-2],"categories":[],"categories_nodes":[],"categories_segments":[],"categories_sizes":[],"default_left":[0,1,1,1,0,1,0,0,1,0,1,0,0,0,0,0,0,0,0,0,0,0,0,0,0,0,0,0,0,0,0],"id":37,"left_children":[1,3,5,7,9,11,13,15,17,19,21,23,25,27,29,-1,-1,-1,-1,-1,-1,-1,-1,-1,-1,-1,-1,-1,-1,-1,-1],"loss_changes":[8.174459E3,7.070869E3,6.4304946E3,1.9374072E3,1.9773992E3,2.3498662E3,1.132971E3,1.3190293E3,1.5153355E2,3.5951514E2,1.342555E3,1.1485093E3,1.6585381E3,4.8948468E2,1.5056104E2,0E0,0E0,0E0,0E0,0E0,0E0,0E0,0E0,0E0,0E0,0E0,0E0,0E0,0E0,0E0,0E0],"parents":[2147483647,0,0,1,1,2,2,3,3,4,4,5,5,6,6,7,7,8,8,9,9,10,10,11,11,12,12,13,13,14,14],"right_children":[2,4,6,8,10,12,14,16,18,20,22,24,26,28,30,-1,-1,-1,-1,-1,-1,-1,-1,-1,-1,-1,-1,-1,-1,-1,-1],"split_conditions":[1.758E3,9E1,2.43E2,2E0,-2.6E2,9E1,4.35E2,1.534E3,9.2E1,-4.1E2,1.36E2,2.068E3,1.992E3,1.707E3,6.09E2,-1.7190823E-2,-8.893843E-3,1.9594317E-3,-5.588546E-3,-1.166252E-2,-5.419515E-3,2.4803393E-4,-4.4195685E-3,-1.2771661E-3,5.9697237E-3,4.396346E-3,9.407292E-3,-7.5603435E-3,-3.004536E-4,-1.340242E-2,-2.1116337E-2],"split_indices":[0,4,2,5,2,4,2,0,2,2,2,0,0,1,2,0,0,0,0,0,0,0,0,0,0,0,0,0,0,0,0],"split_type":[0,0,0,0,0,0,0,0,0,0,0,0,0,0,0,0,0,0,0,0,0,0,0,0,0,0,0,0,0,0,0],"sum_hessian":[3.0063528E6,1.7819838E6,1.2243691E6,2.4898602E5,1.5329978E6,1.095468E6,1.2890107E5,2.0995864E5,3.9027363E4,1.1080715E5,1.4221906E6,2.877999E5,8.076681E5,9.665528E4,3.2245795E4,7.3948734E4,1.360099E5,3.052721E4,8.500153E3,3.2727701E4,7.8079445E4,1.2464061E6,1.7578445E5,2.1441628E5,7.3383625E4,5.7620306E5,2.3146505E5,5.789104E4,3.876424E4,2.3597072E4,8.648722E3],"tree_param":{"num_deleted":"0","num_feature":"3129","num_nodes":"31","size_leaf_vector":"1"}},{"base_weights":[-1.0601499E-3,-1.1028999E-1,1.8622929E-1,-6.1445955E-2,-2.8084674E-1,1.0356763E-1,3.4797066E-1,-1.1479825E-1,-2.024036E-2,-2.406253E-1,-4.1011915E-1,6.4566754E-2,1.4800525E-1,2.9214102E-1,5.1732635E-1,4.0111728E-2,-5.7872245E-3,4.3760516E-2,-1.056101E-3,4.4915717E-2,-1.212577E-2,4.294502E-2,-2.0719672E-2,4.833924E-2,3.1808664E-3,1.0709514E-2,6.5400833E-3,1.7986188E-2,1.3284557E-2,2.218286E-2,2.9735286E-2],"categories":[],"categories_nodes":[],"categories_segments":[],"categories_sizes":[],"default_left":[1,1,0,0,0,0,0,0,0,0,0,0,1,0,0,0,0,0,0,0,0,0,0,0,0,0,0,0,0,0,0],"id":38,"left_children":[1,3,5,7,9,11,13,15,17,19,21,23,25,27,29,-1,-1,-1,-1,-1,-1,-1,-1,-1,-1,-1,-1,-1,-1,-1,-1],"loss_changes":[6.1150848E4,1.5728535E4,1.4721781E4,3.2266245E3,2.185375E3,1.2629141E3,3.5211094E3,5.550791E2,6.538087E2,6.903262E2,5.41375E2,3.323767E2,3.8779785E2,5.0057812E2,5.260742E2,0E0,0E0,0E0,0E0,0E0,0E0,0E0,0E0,0E0,0E0,0E0,0E0,0E0,0E0,0E0,0E0],"parents":[2147483647,0,0,1,1,2,2,3,3,4,4,5,5,6,6,7,7,8,8,9,9,10,10,11,11,12,12,13,13,14,14],"right_children":[2,4,6,8,10,12,14,16,18,20,22,24,26,28,30,-1,-1,-1,-1,-1,-1,-1,-1,-1,-1,-1,-1,-1,-1,-1,-1],"split_conditions":[4.6E1,1.47E2,1.85E2,-3.6E1,3.17E2,1.02E2,3.61E2,2.00001E0,2.00001E0,2.00001E0,2.00001E0,2.00001E0,9E1,2.00001E0,4.56E2,4.0111728E-2,-5.7872245E-3,4.3760516E-2,-1.056101E-3,4.4915717E-2,-1.212577E-2,4.294502E-2,-2.0719672E-2,4.833924E-2,3.1808664E-3,1.0709514E-2,6.5400833E-3,1.7986188E-2,1.3284557E-2,2.218286E-2,2.9735286E-2],"split_indices":[2,3,3,2,3,3,2,1820,1820,1820,1820,1820,4,3125,3,0,0,0,0,0,0,0,0,0,0,0,0,0,0,0,0],"split_type":[0,0,0,0,0,0,0,0,0,0,0,0,0,0,0,0,0,0,0,0,0,0,0,0,0,0,0,0,0,0,0],"sum_hessian":[2.9891492E6,1.8880262E6,1.101123E6,1.467706E6,4.203202E5,7.287038E5,3.7241928E5,6.3958306E5,8.2812294E5,3.20579E5,9.974118E4,3.8809394E5,3.4060984E5,2.800883E5,9.233096E4,6.5839874E2,6.389247E5,8.135924E2,8.273094E5,5.3033606E2,3.2004866E5,3.341479E2,9.940703E4,4.0690234E2,3.8768703E5,7.026755E4,2.703423E5,7.878083E4,2.0130748E5,4.730288E4,4.5028082E4],"tree_param":{"num_deleted":"0","num_feature":"3129","num_nodes":"31","size_leaf_vector":"1"}},{"base_weights":[-9.98975E-4,5.6374017E-2,-8.807368E-2,1.7276837E-2,2.584526E-1,-2.6204795E-1,-5.7943E-2,7.115879E-2,-3.9763276E-2,1.6393454E-1,4.723378E-1,-1.9829684E-1,-4.1025433E-1,-2.5163724E-3,-1.2904634E-1,4.811511E-4,1.1172998E-2,-9.662973E-3,-1.01805395E-4,3.9867465E-3,1.1724392E-2,2.0272268E-2,2.8929858E-2,4.5479428E-2,-1.0124456E-2,3.693291E-2,-2.1089708E-2,-2.0081426E-3,8.201047E-3,-1.1272944E-2,-4.4857105E-3],"categories":[],"categories_nodes":[],"categories_segments":[],"categories_sizes":[],"default_left":[0,0,0,0,1,0,0,0,0,0,0,0,0,0,0,0,0,0,0,0,0,0,0,0,0,0,0,0,0,0,0],"id":39,"left_children":[1,3,5,7,9,11,13,15,17,19,21,23,25,27,29,-1,-1,-1,-1,-1,-1,-1,-1,-1,-1,-1,-1,-1,-1,-1,-1],"loss_changes":[1.49141455E4,1.4218241E4,6.2156787E3,4.634375E3,5.8976875E3,1.6538027E3,3.9832373E3,7.26709E3,4.2417456E3,1.2019253E3,6.352871E2,5.6866846E2,6.983291E2,3.5609175E3,1.6789141E3,0E0,0E0,0E0,0E0,0E0,0E0,0E0,0E0,0E0,0E0,0E0,0E0,0E0,0E0,0E0,0E0],"parents":[2147483647,0,0,1,1,2,2,3,3,4,4,5,5,6,6,7,7,8,8,9,9,10,10,11,11,12,12,13,13,14,14],"right_children":[2,4,6,8,10,12,14,16,18,20,22,24,26,28,30,-1,-1,-1,-1,-1,-1,-1,-1,-1,-1,-1,-1,-1,-1,-1,-1],"split_conditions":[1.755E3,1.754E3,1.718E3,1.518E3,2.94E2,3.17E2,1.955E3,1.503E3,1.503E3,1.41E2,4.56E2,2.00001E0,2.00001E0,1.98E3,1.962E3,4.811511E-4,1.1172998E-2,-9.662973E-3,-1.01805395E-4,3.9867465E-3,1.1724392E-2,2.0272268E-2,2.8929858E-2,4.5479428E-2,-1.0124456E-2,3.693291E-2,-2.1089708E-2,-2.0081426E-3,8.201047E-3,-1.1272944E-2,-4.4857105E-3],"split_indices":[0,1,1,0,3,3,0,1,1,3,3,8,8,1,1,0,0,0,0,0,0,0,0,0,0,0,0,0,0,0,0],"split_type":[0,0,0,0,0,0,0,0,0,0,0,0,0,0,0,0,0,0,0,0,0,0,0,0,0,0,0,0,0,0,0],"sum_hessian":[2.985373E6,1.7996168E6,1.1857562E6,1.5078805E6,2.917363E5,1.750443E5,1.01071194E6,7.754062E5,7.3247425E5,2.0232752E5,8.9408805E4,1.22397336E5,5.2646953E4,5.6796875E5,4.4274325E5,5.522686E5,2.2313756E5,1.4451178E5,5.879625E5,9.224396E4,1.10083555E5,5.487111E4,3.453769E4,4.605942E2,1.2193674E5,5.229068E2,5.2124047E4,4.6324984E5,1.0471888E5,1.28283836E5,3.144594E5],"tree_param":{"num_deleted":"0","num_feature":"3129","num_nodes":"31","size_leaf_vector":"1"}},{"base_weights":[1.8004908E-3,1.945512E-2,-1.7951077E-1,-1.9836463E-2,9.612043E-2,-1.3859554E-1,-2.9604682E-1,-1.3654537E-1,6.2999027E-3,4.7223277E-2,1.417093E-1,-2.1503583E-1,-1.0558745E-1,-2.560722E-1,-4.0318528E-1,-1.0634852E-2,-4.9036904E-3,-3.2663375E-2,3.700996E-4,-2.2183252E-3,3.7236523E-3,6.0410644E-3,1.3274237E-2,-1.3676072E-2,-5.5894526E-3,1.1658918E-2,-5.5889413E-3,-1.7159313E-2,-1.0876218E-2,-2.0778546E-2,-9.362836E-3],"categories":[],"categories_nodes":[],"categories_segments":[],"categories_sizes":[],"default_left":[1,0,0,0,0,0,0,0,0,1,1,0,0,1,1,0,0,0,0,0,0,0,0,0,0,0,0,0,0,0,0],"id":40,"left_children":[1,3,5,7,9,11,13,15,17,19,21,23,25,27,29,-1,-1,-1,-1,-1,-1,-1,-1,-1,-1,-1,-1,-1,-1,-1,-1],"loss_changes":[9.623777E3,8.252904E3,1.27196E3,5.525354E3,2.0694365E3,4.98177E2,2.9679297E2,9.709575E2,1.0757891E3,1.1179313E3,1.2420732E3,3.5954443E2,2.8927124E2,1.6946924E2,5.0295166E1,0E0,0E0,0E0,0E0,0E0,0E0,0E0,0E0,0E0,0E0,0E0,0E0,0E0,0E0,0E0,0E0],"parents":[2147483647,0,0,1,1,2,2,3,3,4,4,5,5,6,6,7,7,8,8,9,9,10,10,11,11,12,12,13,13,14,14],"right_children":[2,4,6,8,10,12,14,16,18,20,22,24,26,28,30,-1,-1,-1,-1,-1,-1,-1,-1,-1,-1,-1,-1,-1,-1,-1,-1],"split_conditions":[2.89E2,1.806E3,4.56E2,2.00001E0,1.933E3,2.00001E0,6.13E2,1.534E3,2.00001E0,9E1,2E0,1.901E3,2.00001E0,9E1,7.2E2,-1.0634852E-2,-4.9036904E-3,-3.2663375E-2,3.700996E-4,-2.2183252E-3,3.7236523E-3,6.0410644E-3,1.3274237E-2,-1.3676072E-2,-5.5894526E-3,1.1658918E-2,-5.5889413E-3,-1.7159313E-2,-1.0876218E-2,-2.0778546E-2,-9.362836E-3],"split_indices":[3,0,3,3125,1,3125,3,0,8,4,5,0,3128,4,4,0,0,0,0,0,0,0,0,0,0,0,0,0,0,0,0],"split_type":[0,0,0,0,0,0,0,0,0,0,0,0,0,0,0,0,0,0,0,0,0,0,0,0,0,0,0,0,0,0,0],"sum_hessian":[3.0065048E6,2.7397325E6,2.6677216E5,1.8113844E6,9.283481E5,1.9745047E5,6.9321695E4,3.3142778E5,1.4799565E6,4.4792272E5,4.8042544E5,5.954662E4,1.3790384E5,5.0487582E4,1.8834117E4,1.1123726E5,2.2019052E5,2.467787E3,1.4774888E6,1.0270801E5,3.452147E5,4.110583E5,6.936712E4,3.8012344E4,2.1534277E4,2.474474E3,1.3542938E5,1.5485064E4,3.5002516E4,1.7811525E4,1.0225907E3],"tree_param":{"num_deleted":"0","num_feature":"3129","num_nodes":"31","size_leaf_vector":"1"}},{"base_weights":[-1.1195642E-3,-1.06630184E-1,1.7868568E-1,-5.9408978E-2,-2.7300748E-1,1.0640847E-1,3.486408E-1,-1.1248205E-1,-2.1507917E-2,-2.338475E-1,-3.9999288E-1,6.9494456E-2,1.6104838E-1,2.973032E-1,5.158579E-1,3.8026094E-2,-5.670851E-3,4.3508355E-2,-1.1197949E-3,4.4063233E-2,-1.1785802E-2,4.1148335E-2,-2.0202972E-2,4.621848E-2,3.4277414E-3,4.9326263E-2,7.98291E-3,1.3451236E-2,1.8063443E-2,2.3650294E-2,3.226016E-2],"categories":[],"categories_nodes":[],"categories_segments":[],"categories_sizes":[],"default_left":[1,1,0,0,0,0,0,0,0,0,0,0,0,0,0,0,0,0,0,0,0,0,0,0,0,0,0,0,0,0,0],"id":41,"left_children":[1,3,5,7,9,11,13,15,17,19,21,23,25,27,29,-1,-1,-1,-1,-1,-1,-1,-1,-1,-1,-1,-1,-1,-1,-1,-1],"loss_changes":[5.6629035E4,1.477909E4,1.3559555E4,2.9473965E3,2.067916E3,1.5621113E3,2.8273008E3,4.9835107E2,6.7685095E2,6.6249414E2,4.8779688E2,3.712224E2,3.581914E2,4.5573633E2,4.2850977E2,0E0,0E0,0E0,0E0,0E0,0E0,0E0,0E0,0E0,0E0,0E0,0E0,0E0,0E0,0E0,0E0],"parents":[2147483647,0,0,1,1,2,2,3,3,4,4,5,5,6,6,7,7,8,8,9,9,10,10,11,11,12,12,13,13,14,14],"right_children":[2,4,6,8,10,12,14,16,18,20,22,24,26,28,30,-1,-1,-1,-1,-1,-1,-1,-1,-1,-1,-1,-1,-1,-1,-1,-1],"split_conditions":[4.6E1,1.47E2,2.01E2,-3.9E1,3.17E2,1.16E2,3.85E2,2.00001E0,2.00001E0,2.00001E0,2.00001E0,2.00001E0,2.00001E0,2.94E2,5.64E2,3.8026094E-2,-5.670851E-3,4.3508355E-2,-1.1197949E-3,4.4063233E-2,-1.1785802E-2,4.1148335E-2,-2.0202972E-2,4.621848E-2,3.4277414E-3,4.9326263E-2,7.98291E-3,1.3451236E-2,1.8063443E-2,2.3650294E-2,3.226016E-2],"split_indices":[2,3,3,2,3,3,3,664,664,664,664,664,664,3,3,0,0,0,0,0,0,0,0,0,0,0,0,0,0,0,0],"split_type":[0,0,0,0,0,0,0,0,0,0,0,0,0,0,0,0,0,0,0,0,0,0,0,0,0,0,0,0,0,0,0],"sum_hessian":[2.9849725E6,1.8811215E6,1.1038511E6,1.4652542E6,4.1586716E5,7.744855E5,3.293656E5,6.1044406E5,8.5481025E5,3.1785066E5,9.8016484E4,4.6221878E5,3.1226675E5,2.520011E5,7.736451E4,6.522052E2,6.097919E5,8.494482E2,8.539608E5,5.309302E2,3.1731972E5,3.241763E2,9.769231E4,5.0640802E2,4.6171234E5,5.238143E2,3.1174294E5,1.7475092E5,7.725017E4,5.8115523E4,1.9248982E4],"tree_param":{"num_deleted":"0","num_feature":"3129","num_nodes":"31","size_leaf_vector":"1"}},{"base_weights":[-1.3167686E-3,1.7128201E-1,-1.0060736E-1,9.672608E-2,3.187639E-1,-5.7213455E-2,-2.6778707E-1,1.3837773E-1,5.937982E-2,2.5545946E-1,4.4926476E-1,-1.806502E-2,-1.0853938E-1,8.140227E-1,-2.7267843E-1,4.5586567E-2,6.8172286E-3,4.521912E-2,2.8907815E-3,4.4887103E-2,1.2622572E-2,2.9531254E-2,2.0491323E-2,4.5593612E-2,-9.79176E-4,4.5921683E-2,-5.5171163E-3,4.24879E-2,2.770019E-2,-1.1730721E-2,-2.0079723E-2],"categories":[],"categories_nodes":[],"categories_segments":[],"categories_sizes":[],"default_left":[0,0,1,0,0,1,0,0,0,0,0,0,0,0,0,0,0,0,0,0,0,0,0,0,0,0,0,0,0,0,0],"id":42,"left_children":[1,3,5,7,9,11,13,15,17,19,21,23,25,27,29,-1,-1,-1,-1,-1,-1,-1,-1,-1,-1,-1,-1,-1,-1,-1,-1],"loss_changes":[5.110932E4,1.19754E4,1.3734463E4,1.1252764E3,3.0210352E3,3.0201655E3,2.0646758E3,5.3760547E2,5.040841E2,4.755293E2,6.6569727E2,1.2041101E3,1.2043296E3,1.5848755E1,1.905748E3,0E0,0E0,0E0,0E0,0E0,0E0,0E0,0E0,0E0,0E0,0E0,0E0,0E0,0E0,0E0,0E0],"parents":[2147483647,0,0,1,1,2,2,3,3,4,4,5,5,6,6,7,7,8,8,9,9,10,10,11,11,12,12,13,13,14,14],"right_children":[2,4,6,8,10,12,14,16,18,20,22,24,26,28,30,-1,-1,-1,-1,-1,-1,-1,-1,-1,-1,-1,-1,-1,-1,-1,-1],"split_conditions":[-4.9E1,1.91E2,1.51E2,-1.05E2,3.3E2,3.6E1,2.00001E0,2.00001E0,2.00001E0,2.00001E0,-5.3E2,2.00001E0,2.00001E0,5.28E2,3.24E2,4.5586567E-2,6.8172286E-3,4.521912E-2,2.8907815E-3,4.4887103E-2,1.2622572E-2,2.9531254E-2,2.0491323E-2,4.5593612E-2,-9.79176E-4,4.5921683E-2,-5.5171163E-3,4.24879E-2,2.770019E-2,-1.1730721E-2,-2.0079723E-2],"split_indices":[2,3,2,2,3,2,8,8,8,8,2,8,8,3,3,0,0,0,0,0,0,0,0,0,0,0,0,0,0,0,0],"split_type":[0,0,0,0,0,0,0,0,0,0,0,0,0,0,0,0,0,0,0,0,0,0,0,0,0,0,0,0,0,0,0],"sum_hessian":[2.9823185E6,1.0891051E6,1.8932134E6,7.234061E5,3.6569894E5,1.503071E6,3.901424E5,3.41989E5,3.8141712E5,2.4624927E5,1.1944968E5,8.5269E5,6.50381E5,1.7553307E3,3.883871E5,8.9556665E2,3.4109344E5,7.036716E2,3.8071344E5,1.1465085E3,2.4510277E5,2.6052998E4,9.339668E4,1.3891143E3,8.513009E5,1.1389084E3,6.492421E5,1.541244E3,2.1408665E2,2.998543E5,8.853278E4],"tree_param":{"num_deleted":"0","num_feature":"3129","num_nodes":"31","size_leaf_vector":"1"}},{"base_weights":[1.4622518E-3,2.508352E-2,-1.22676276E-1,-1.7364047E-2,9.238299E-2,-8.304643E-2,-2.4075757E-1,-1.6033201E-1,3.8307325E-3,7.188024E-2,1.8034504E-1,-1.0269913E-1,3.9942626E-2,-1.9681783E-1,-3.369722E-1,-9.926841E-3,1.637719E-3,-3.2219585E-2,2.3585359E-4,-6.0920685E-4,4.904981E-3,7.82614E-3,1.6846767E-2,-1.0026756E-2,-3.44841E-3,7.024917E-4,7.6566427E-3,-1.873093E-2,-9.000975E-3,-2.0756884E-2,-1.4641413E-2],"categories":[],"categories_nodes":[],"categories_segments":[],"categories_sizes":[],"default_left":[1,0,0,1,0,0,0,1,0,1,1,0,0,1,1,0,0,0,0,0,0,0,0,0,0,0,0,0,0,0,0],"id":43,"left_children":[1,3,5,7,9,11,13,15,17,19,21,23,25,27,29,-1,-1,-1,-1,-1,-1,-1,-1,-1,-1,-1,-1,-1,-1,-1,-1],"loss_changes":[8.80713E3,7.208409E3,2.246836E3,4.6888003E3,1.7601074E3,8.689265E2,5.1000195E2,1.4737373E3,7.742549E2,1.7445237E3,6.8813086E2,1.02290015E3,1.4516281E2,2.4731958E2,1.3039062E2,0E0,0E0,0E0,0E0,0E0,0E0,0E0,0E0,0E0,0E0,0E0,0E0,0E0,0E0,0E0,0E0],"parents":[2147483647,0,0,1,1,2,2,3,3,4,4,5,5,6,6,7,7,8,8,9,9,10,10,11,11,12,12,13,13,14,14],"right_children":[2,4,6,8,10,12,14,16,18,20,22,24,26,28,30,-1,-1,-1,-1,-1,-1,-1,-1,-1,-1,-1,-1,-1,-1,-1,-1],"split_conditions":[2.21E2,1.773E3,3.85E2,9E1,2.078E3,2.025E3,5.28E2,2E0,2.00001E0,9E1,2E0,2.00001E0,2.29E3,4.5E1,1.2E2,-9.926841E-3,1.637719E-3,-3.2219585E-2,2.3585359E-4,-6.0920685E-4,4.904981E-3,7.82614E-3,1.6846767E-2,-1.0026756E-2,-3.44841E-3,7.024917E-4,7.6566427E-3,-1.873093E-2,-9.000975E-3,-2.0756884E-2,-1.4641413E-2],"split_indices":[3,1,3,4,1,1,3,5,8,4,5,3125,1,4,4,0,0,0,0,0,0,0,0,0,0,0,0,0,0,0,0],"split_type":[0,0,0,0,0,0,0,0,0,0,0,0,0,0,0,0,0,0,0,0,0,0,0,0,0,0,0,0,0,0,0],"sum_hessian":[3.003477E6,2.523334E6,4.8014306E5,1.5473684E6,9.759657E5,3.594934E5,1.2064964E5,1.9977733E5,1.347591E6,7.9148356E5,1.8448212E5,3.0996375E5,4.952965E4,8.2826914E4,3.7822727E4,1.6677797E5,3.299936E4,1.8391046E3,1.345752E6,1.8817108E5,6.033125E5,1.6012423E5,2.4357879E4,7.946679E4,2.3049697E5,4.0309734E4,9.219915E3,7.1480146E3,7.56789E4,1.3647959E4,2.4174768E4],"tree_param":{"num_deleted":"0","num_feature":"3129","num_nodes":"31","size_leaf_vector":"1"}},{"base_weights":[-1.2502356E-3,-1.0731289E-1,1.6576646E-1,-2.817482E-1,-6.522347E-2,9.097573E-2,3.2056883E-1,-3.9415812E-1,-2.4049065E-1,-1.2146576E-1,-2.8116254E-2,5.516823E-2,1.3620354E-1,2.7008244E-1,4.7600946E-1,4.0692963E-2,-1.9915126E-2,4.3462593E-2,-1.212353E-2,3.7970528E-2,-6.1236187E-3,-3.321535E-4,-3.1671904E-3,4.70096E-2,2.7134574E-3,4.7077864E-2,6.7474353E-3,-2.4911737E-2,1.3603518E-2,2.0685747E-2,2.7977629E-2],"categories":[],"categories_nodes":[],"categories_segments":[],"categories_sizes":[],"default_left":[1,0,0,0,0,0,0,0,0,0,0,0,0,0,0,0,0,0,0,0,0,0,0,0,0,0,0,0,0,0,0],"id":44,"left_children":[1,3,5,7,9,11,13,15,17,19,21,23,25,27,29,-1,-1,-1,-1,-1,-1,-1,-1,-1,-1,-1,-1,-1,-1,-1,-1],"loss_changes":[5.2820746E4,1.3389359E4,1.34085E4,1.6439961E3,3.066207E3,1.2645972E3,2.9604883E3,4.7683203E2,5.7000684E2,5.179453E2,6.695926E2,3.467367E2,3.4857422E2,4.3508398E2,4.8111914E2,0E0,0E0,0E0,0E0,0E0,0E0,0E0,0E0,0E0,0E0,0E0,0E0,0E0,0E0,0E0,0E0],"parents":[2147483647,0,0,1,1,2,2,3,3,4,4,5,5,6,6,7,7,8,8,9,9,10,10,11,11,12,12,13,13,14,14],"right_children":[2,4,6,8,10,12,14,16,18,20,22,24,26,28,30,-1,-1,-1,-1,-1,-1,-1,-1,-1,-1,-1,-1,-1,-1,-1,-1],"split_conditions":[4E1,-1.64E2,1.84E2,-3.18E2,-4.9E1,1.01E2,3.61E2,2.00001E0,2.00001E0,2.00001E0,1.768E3,2.00001E0,2.00001E0,2.00001E0,4.73E2,4.0692963E-2,-1.9915126E-2,4.3462593E-2,-1.212353E-2,3.7970528E-2,-6.1236187E-3,-3.321535E-4,-3.1671904E-3,4.70096E-2,2.7134574E-3,4.7077864E-2,6.7474353E-3,-2.4911737E-2,1.3603518E-2,2.0685747E-2,2.7977629E-2],"split_indices":[2,2,2,2,2,2,2,664,664,664,1,664,664,8,2,0,0,0,0,0,0,0,0,0,0,0,0,0,0,0,0],"split_type":[0,0,0,0,0,0,0,0,0,0,0,0,0,0,0,0,0,0,0,0,0,0,0,0,0,0,0,0,0,0,0],"sum_hessian":[2.981823E6,1.823698E6,1.1581249E6,3.5450056E5,1.4691975E6,7.808629E5,3.77262E5,9.517615E4,2.593244E5,5.8401756E5,8.8517994E5,4.3582016E5,3.4504275E5,2.847721E5,9.2489914E4,3.247423E2,9.485141E4,4.6106757E2,2.5886333E5,6.65761E2,5.833518E5,5.4995344E5,3.352265E5,4.412347E2,4.353789E5,5.356225E2,3.4450712E5,7.342599E2,2.8403784E5,5.298627E4,3.950364E4],"tree_param":{"num_deleted":"0","num_feature":"3129","num_nodes":"31","size_leaf_vector":"1"}},{"base_weights":[-1.3607929E-3,1.8777724E-1,-8.60885E-2,1.2735355E-1,3.4442165E-1,-3.5194643E-2,-2.2471845E-1,9.747774E-2,1.9192581E-1,4.7229922E-1,2.8819898E-1,1.126302E-2,-7.3406875E-2,-1.7661498E-1,-3.3181056E-1,8.164574E-3,3.8173709E-3,1.3257712E-2,8.254881E-3,2.209433E-2,3.1005517E-2,4.3859076E-2,1.4224325E-2,4.4259895E-2,4.8956583E-4,4.4543445E-2,-3.7479736E-3,4.39564E-2,-8.9714695E-3,3.701825E-2,-1.6939236E-2],"categories":[],"categories_nodes":[],"categories_segments":[],"categories_sizes":[],"default_left":[0,0,1,0,0,1,0,0,0,0,0,0,0,0,0,0,0,0,0,0,0,0,0,0,0,0,0,0,0,0,0],"id":45,"left_children":[1,3,5,7,9,11,13,15,17,19,21,23,25,27,29,-1,-1,-1,-1,-1,-1,-1,-1,-1,-1,-1,-1,-1,-1,-1,-1],"loss_changes":[4.774635E4,8.724559E3,1.4517748E4,1.2832256E3,1.844623E3,2.6719636E3,2.8464492E3,6.324302E2,4.1332666E2,3.5196875E2,3.8946387E2,8.736541E2,1.2364653E3,1.1330869E3,1.2808945E3,0E0,0E0,0E0,0E0,0E0,0E0,0E0,0E0,0E0,0E0,0E0,0E0,0E0,0E0,0E0,0E0],"parents":[2147483647,0,0,1,1,2,2,3,3,4,4,5,5,6,6,7,7,8,8,9,9,10,10,11,11,12,12,13,13,14,14],"right_children":[2,4,6,8,10,12,14,16,18,20,22,24,26,28,30,-1,-1,-1,-1,-1,-1,-1,-1,-1,-1,-1,-1,-1,-1,-1,-1],"split_conditions":[-7.1E1,2.36E2,1.09E2,1.6E2,-3.86E2,2E0,2.46E2,2.00001E0,2.00001E0,6.13E2,2.00001E0,2.00001E0,2.00001E0,2.00001E0,2.00001E0,8.164574E-3,3.8173709E-3,1.3257712E-2,8.254881E-3,2.209433E-2,3.1005517E-2,4.3859076E-2,1.4224325E-2,4.4259895E-2,4.8956583E-4,4.4543445E-2,-3.7479736E-3,4.39564E-2,-8.9714695E-3,3.701825E-2,-1.6939236E-2],"split_indices":[2,3,3,3,2,2,3,3125,3125,3,8,8,8,8,8,0,0,0,0,0,0,0,0,0,0,0,0,0,0,0,0],"split_type":[0,0,0,0,0,0,0,0,0,0,0,0,0,0,0,0,0,0,0,0,0,0,0,0,